{"layers":[{"w":[0.03603684748506073,0.13119707727425983,-0.1409638494736894,-0.21898717810651477,0.13427876161246424,-0.03655182060756457,-0.019786976051632654,0.04334999019318549,-0.05082695065777701,0.13453978638462807,0.01481774073052461,-0.016843797231608573,-0.07643209085008436,0.07407937634714445,-0.15264747523087144,0.013644328505870282,-0.02359733542149669,0.022447960618178994,-0.23550274960999987,-0.04426341320720807,-0.00209964801191242,-0.050107017526198616,-0.21100260929581818,0.00692076840371171,-0.1466291671377356,0.13483864891028852,0.010589711858382214,-0.054389202931305336,0.18150091297478066,-0.012519150903447858,-0.14115225244795862,-0.07457637747818813,-0.07629546697597646,-0.035730261950965014,0.20354471234175298,-0.01000618508569877,-0.002301969519190386,0.21970611914177454,0.24982196660269615,0.25807826169927756,-0.3177079817442367,-0.06095902735161272,0.02975659604075956,-0.2475336880346563,0.05823643459795918,0.06167373091968352,0.09719268890596043,0.11607617149561825,0.015512617237755289,-0.20010521049141822,-0.1300671787081136,0.07331692823604155,0.033603536237903235,-0.17274392879897504,0.06929247070524797,-0.13811680034077514,-0.1705498195474374,-0.04190646638346105,-0.06690485542551,-0.20668727117134877,0.11348903593661688,0.17791665293934822,-0.1945637845415613,0.07994597007453873,-0.08845276021964775,0.1520445869152919,0.11840353342115921,0.017432716281265966,0.024731148173862592,-0.08830031139867515,-0.11027032577979037,0.04056597155838919,0.28499965962445056,0.10619102335478693,0.008217174077174212,-0.0025632623022600266,-0.01019931739754698,-0.10849701231761089,-0.13742965754623235,0.07325156915124534,0.14340815097885387,-0.000006948806032001876,-0.08578347603777492,-0.21454207414635107,-0.1841337743675849,0.05747494956282442,-0.11013442530535564,0.030941569831985018,0.0721677915567301,-0.03182435225723385,-0.1084634376082159,0.0969248612966816,0.07853073817431697,0.12012157600458959,-0.2512865436152688,-0.06197865746813664,-0.031059192919093967,-0.13713085062617006,-0.18100236848210585,0.09664339087647866,0.11028778850527489,-0.1040320650518697,0.009123094665973703,0.08185392147151976,0.09984321670406072,0.014512282289890223,0.04548022995894923,0.2736466351633135,-0.03132125436691535,0.009489932083300139,0.10188468484575335,-0.15033234574312226,-0.02323144762940358,0.1746001090698689,0.02199272666506696,-0.06681343461840351,0.08148117006920445,0.18234781750682932,0.1611897948038592,-0.26506478638592723,-0.10090844082334462,-0.027503608207857435,-0.21755039907846035,-0.05077093186908524,-0.05252249692636298,-0.052340589174817806,-0.037515059689158546,-0.08281462621578063,-0.05226863104098471,-0.27486356256603256,0.3332195092229352,0.02217410318675642,0.021608179485536685,0.026123609945461684,0.09940983953559727,-0.03915449219443522,0.03105242501194338,-0.2774329959349936,0.11325363771818892,-0.008213475856305826,-0.1561397177556796,-0.03283130463738574,-0.049309849994363504,0.20792024428785585,-0.0472475137469832,-0.043222327030524074,0.15449153451967115,0.0000813874893860985,-0.06516869066324146,-0.09548159207163487,-0.06568563433254224,0.057039951506923356,-0.07232496508287051,0.0606103145201225,0.11353836099579709,0.17924197003846112,0.000641940173208732,-0.003230934962990487,0.11465768380918227,0.03255176666921798,-0.030733665157930853,-0.07812856220615644,0.11355052467648316,-0.03898327513964101,-0.013490862840123295,-0.02349251937039721,0.04702250271198809,-0.025290329924748268,-0.06497459664088583,0.0035924729891577407,0.1015212345369246,0.028967443027354087,0.04667669393796282,0.09706305164432964,-0.10984601141958734,-0.06771135483686073,-0.22698664188459897,0.06788793321340066,0.022804202435324435,-0.045178460384959186,0.0634679312379607,0.07643156742136116,0.017149268880751065,0.08838514409232733,-0.06739074369023676,-0.12365485788561247,-0.0452246681688236,0.012718962455784523,0.04320725974510462,0.07548434120357955,0.05911656514855621,-0.024401063461062442,-0.07844372555216478,0.04438756254965836,-0.0012010848686373368,0.15621187677762954,0.11231667657780446,0.005480724834022715,0.21353095763549232,0.02344813349114398,0.16781012170198456,0.2010839876543717,-0.07389807174402446,-0.05122238555463431,0.04775275867080767,0.068558915043516,-0.17416713644868098,-0.03030214904194658,-0.11037160386398376,-0.1223159917651873,0.027718072301700838,0.08682522235544174,-0.04532353393293361,0.037587422377534964,-0.08268209122309694,-0.13015737250562612,0.029405103417805577,0.049660013347767075,0.14005017746547369,0.089845331430882,-0.08941358909589849,0.11513983143911788,-0.0977627706885846,0.05923455351814158,0.06137538191309669,0.10460476749351563,0.05184170693408492,-0.023223143432749116,0.151232956619621,0.036696924844996405,-0.025998365770882065,0.10555813208910156,-0.12911739664677746,0.023327818233735677,0.03717170559277777,-0.16617106160661085,-0.031064939821028523,-0.19861424015501997,0.17636201167139245,0.018023946660292518,0.06199715094149368,-0.2108672899787506,-0.21131615624844416,-0.18720939245773466,0.021312828354271666,0.06546675014388373,-0.09787065737100555,-0.020892702811220902,0.19024953298958955,-0.09508602363396466,-0.04089893792933818,-0.1700546676046569,0.04240255127291336,-0.013064428959143599,-0.003423531947820838,0.0038070030493601876,0.11727372149757057,0.2660558008099666,-0.13200650907000788,-0.17682015819876587,0.09811117100594667,-0.11654723246367883,-0.11071373471250308,-0.11739285223032,0.139048376087547,-0.020536770995379625,0.16973736158777603,-0.03699190256236875,-0.04191121902337874,-0.09409226213029344,-0.03588977002938332,-0.06019856666820485,-0.07067556298430491,-0.007016810461461504,0.14692758812817247,0.06219251642503993,-0.006777283644696905,-0.006151506922118726,0.04988672055884529,0.05186139007701629,-0.07558351727249793,0.20175078121424225,0.04656955965378658,-0.09892600513610784,0.045611432689811424,-0.12271701822233498,-0.012118839545175621,0.04432455374594002,0.05000658779291954,-0.24266117091987796,0.2194370659501858,0.022703080454386015,0.16121329838581785,0.07618620478071009,-0.17102295466364056,-0.1671951237339858,-0.2653298176062712,-0.09899445802549943,-0.09336976036880619,0.047589781072934864,0.27785923364486054,0.21504901839394056,-0.051373778686528225,0.05363833003496493,-0.21306153891317708,-0.07789640881909547,-0.010359759243326865,-0.11695334821131384,0.20116033616029175,-0.05826368338326958,-0.2526194845848788,0.0004720685530487965,-0.07103209975065271,-0.04107519379239465,-0.021031853302638157,-0.25201275365265263,0.04777633958204633,0.01691012198638307,0.21042984931571287,0.01663182795471802,0.142373786860258,-0.023301369008195915,-0.1051663449314889,0.07545619377500787,-0.22385171397990763,0.16343386809110383,-0.34527411080772724,-0.061897293387518426,0.05365603705757769,0.1748758797281362,0.19500733313869872,0.05084628578143644,-0.0550478739137657,-0.12469561615219525,-0.12205919210012342,0.25723863970054234,-0.17525174615595027,-0.08158311557274167,-0.305330090581415,-0.11023543194660186,-0.09508818305694704,-0.1577486023336593,-0.06298535119582593,0.14215439426564144,0.004103894607320275,0.03466398033483446,-0.13991947176743166,-0.111937967584212,0.021359541699766216,-0.007776559932270573,0.2793238163750252,-0.05036463885736656,-0.18645855582620416,0.16299173859247965,0.16600269151578775,-0.0337328606987013,-0.027118935954011384,0.14632591004210924,-0.11748423186147418,0.21288612133330073,-0.1541624742829935,0.09469059679185088,-0.1149874265327513,0.09941134091857289,-0.08105553717964152,-0.036414383505220894,-0.31457926339288583,0.024510111631258834,0.10096019534075279,0.14561232843080055,-0.1726763480360793,-0.19386006539347697,0.30225898527294087,-0.19569963836601798,-0.11113317644027451,0.01878601212237134,-0.2532981329488204,0.007194955658593139,0.23626010424407237,-0.29171876690534276,-0.11448695174415116,-0.07438299998660422,0.0530426269514295,0.029282885504094445,-0.15254254265172407,0.11299780306671432,-0.039849127838819574,-0.0839166975873683,0.12443615104773074,0.137932250295652,0.1547862194947598,-0.32009695962529267,-0.20603999173374957,-0.13393365055837048,-0.16303772145965809,0.021856699505621753,-0.060194368298580554,0.09326635995379513,0.17597708426944908,-0.11378946992740117,-0.0995259977319581,0.15465250733177016,0.11907967525434339,-0.026872756374879094,-0.029370799164692814,0.055612428732396274,-0.19467702088355557,-0.2388231791572534,0.10521577208418703,0.15699894751050705,0.0741065014119335,-0.03173060940120739,0.12542969237356838,-0.16968386644481814,-0.01473825138917832,-0.12073975167931678,0.07949352072076357,-0.12106319415119525,-0.04578279695760911,0.018503589782451764,-0.121751861221034,0.008676520918873843,-0.25488365126660917,0.18853941301401014,0.05715570077351757,-0.0532285095476198,-0.03948093043843383,-0.09842435385174551,-0.004510180033698249,0.08543142578466316,0.05176043964246823,-0.30117460719191785,0.27141491376989174,0.017570731189207676,-0.22268966925951011,0.08770808187823104,-0.25840002316415506,-0.017050422681731774,0.03475512010942632,0.13473373843460126,-0.02338911938549923,0.23202231405002527,-0.10104302192148416,0.07288282769838901,0.10491533328657132,0.04702362205479606,0.013375440597855994,-0.0635720894543965,-0.03507746126825247,-0.03967225199175195,0.10964581485267752,0.002526537053642432,0.08017594542519356,0.13484541796066363,0.21724141159089985,-0.23643177389977985,0.04584086228069295,0.13690698005103658,-0.2003891443704428,0.1491289679403699,-0.16385112175064329,0.09653013561735055,-0.2044840057325179,0.0640571878889185,0.059848936102297454,-0.06947265081637682,-0.001880398377635142,-0.07418716965744461,-0.08744886477442979,-0.010072140290428631,-0.20411635471529418,0.018393754821185066,-0.07900690497097027,-0.02754588945777962,0.07213564341844636,-0.317907224705741,-0.06614855970808065,0.07526935842408633,0.22496682068986745,-0.11198692003168396,-0.07831150644167625,0.036396403188655044,0.05898498687133627,0.07712728552638108,-0.12681057336390877,0.0690687773367339,-0.014096663358826231,0.19903920948390558,0.23455722954305205,0.16919577645662584,0.1094231275984886,0.025784888093808103,0.18912516173782545,-0.20583937199645613,0.14428472980397045,-0.04296580087996599,0.04937875538555038,-0.35765238759982143,-0.12631169642922044,-0.08902266451513197,-0.036306461310160146,-0.1865776697988919,-0.13500607314524646,-0.023998150969225945,-0.0714419896213996,-0.12594942240876114,0.15604927588999268,0.08264913961817481,0.002716146361552478,-0.2719319952727588,0.2522982627885974,-0.0021662441667634567,0.034046982645345,-0.12285405971124734,0.02157322097567607,0.05024467125068425,0.28070591166450903,-0.1035216170423187,0.11299501310937134,0.0011364450111729801,0.03560093681192321,0.023806666259808,0.12091902867011836,0.11805103885705595,-0.23924433193362551,0.03781993969178264,-0.07754376841378538,-0.186319169163668,0.03758808353935924,0.0025521794926646325,0.3274384097321184,0.1273979574833977,0.13554473508558845,0.13543191260897997,-0.15666912366579272,0.19720136131804894,0.05040426967562637,-0.08762078446570337,0.052641252446234146,0.05110880803559556,-0.22750697269147707,-0.0191584275961203,-0.14135789471653123,0.0427666830386017,0.0039575741031236235,-0.1260919287991976,-0.30478041363268543,0.08487401675706135,-0.012244255889864197,-0.0076357509222503075,-0.2381363675233833,0.13952261636424687,-0.04088708030505143,0.3797122137193487,0.10270843518095978,-0.03580003382829303,0.09800823157411803,0.047174599236858135,0.1513276448961998,-0.17058486050705013,0.17316358422074432,-0.04700899359118228,-0.30840206909599466,0.09600736326932842,-0.020915281032055397,0.024858184257523588,0.051678606178455065,0.014963363718416384,0.21625529378788352,0.014151030211872475,-0.03265538905086897,-0.13239484193650236,-0.20075393820584445,-0.05021844485456345,-0.2312562286970526,0.007379062188568284,-0.11960630662595682,-0.09807373144308972,-0.08171645626049724,0.036203327027215966,0.24968863587990733,0.059817428477910176,0.11982614213665127,0.06659204575893844,0.11389286666327064,0.049141910860296935,0.12037034231052499,0.021224810524708912,0.096374317372213,-0.14976869183788602,-0.10036503121576446,-0.07088332614912761,-0.2689346227659467,-0.14817292439935215,0.11477606756569586,-0.2844420391381574,0.06762622612476292,-0.13406052081150033,0.10547718827374332,0.06331114631528513,-0.15344612640506144,-0.003296187662241502,-0.35132201356833326,-0.13871723838402053,-0.005957329119235729,-0.20215350056451167,-0.04263072734978001,-0.046049672995030703,-0.14312835938119342,-0.15152040525235771,-0.1579398077939334,0.06800532484814514,0.16948880318116763,0.12477484360179217,-0.03361468357315244,-0.25694396417293663,0.18707593812604179,-0.20231007294266554,-0.018662432075981786,-0.0959858585171938,0.028337193560324877,-0.02223851201237096,-0.27835510444922634,-0.16500757533923388,0.022726740547018717,0.14919047467079238,0.21605810697026948,0.11043520813954273,0.2666745159871552,0.09338079404211767,0.14479270082431,0.045867139138698096,-0.4173588658664427,0.05153444364429214,-0.08305920384591632,-0.04594344788817324,0.07826252895297188,-0.09927739769495438,0.03713074534593973,0.2555063304135578,-0.1791545850863852,-0.008312203314634748,0.13355331082588165,-0.23758503178924353,-0.24085907913582455,-0.027290701142817293,-0.02677800768238818,-0.1564394267807001,-0.00645864853111957,0.18406864415953925,-0.13829941839258517,-0.03767344019990309,0.08297199408983776,0.1060379987892736,-0.17759493569973303,0.3838260724498592,0.09865911382448253,0.26442505123637394,0.20331480207926264,0.14806827908407405,0.14748701695909475,-0.0622302479623916,-0.24114594392139188,0.0050077662801727915,-0.030437124178196676,0.01687487924457332,0.10061920958378727,-0.26455041606387586,0.21388771196697873,0.0737153211706977,0.14807273676542912,-0.2307855904560848,-0.024752901308051932,-0.3904282571689175,0.1614169718742345,-0.17663776144713284,-0.3341050280808153,-0.03033822157284458,0.027536006162672738,0.19541925343267677,0.010872591757034363,0.18011297972624515,0.14419225874502598,-0.08280814166738944,-0.11445637556604678,0.23170579251990936,0.09402394206380278,-0.40228923792042254,0.18256995139869187,-0.1469878966392979,0.0674420904253444,-0.004661331244003542,0.10289357902018684,0.047875494908670685,0.07472766539097048,-0.026560186854147023,-0.04111987654884767,0.0010951725433271302,0.05117066619123569,-0.049900152670553644,-0.03287421802129826,-0.09028861192480586,-0.02121357870753083,-0.039926610162896746,0.04362255158733583,-0.1419357496778516,-0.1314753766841485,-0.30739614527453485,-0.02444679222197954,0.21011618887396877,-0.08043292506051,0.17604344603654873,0.02047586669014169,-0.11657426185742055,0.10567744027377628,-0.18975392340021718,0.05946162555113299,-0.14153712441128427,0.05973302257571681,0.2588558471139764,0.015336879674771313,-0.06839908623321365,-0.03980987122216316,0.02437103153526664,-0.13495259213167393,-0.14084470932347648,-0.023175190361512412,-0.015117021850392166,-0.08007868353020449,0.05330079582940113,0.11913527498340885,-0.09883552125931648,0.0771633093973243,-0.21856986017166202,0.04336687815680545,-0.026816073428764138,0.037398830921897885,0.06331743629288798,0.06928397595375078,-0.21969709273089302,-0.03644464579905341,0.19559616277111258,0.02815388258957394,0.24624462727670396,0.16736032142342508,-0.19128074006224044,-0.04365947267799547,-0.1773107028076682,0.06209890949263879,-0.1833802919302592,0.24726274873982754,0.0577970542808305,0.02627523955618009,0.05904107043564033,-0.09786707323266464,-0.07516809147101997,-0.11912830617506655,-0.2709561376550686,0.02899731797590701,0.1365800992295036,-0.14579774898966058,-0.14931183070396314,-0.052883980365901875,0.01803420337533261,0.17720139860829773,-0.11298522946237356,0.1342524286299721,0.0868595166009572,0.0028379353752533967,-0.24160859639253904,0.1588628951999201,-0.11242703642357775,0.127215510919024,0.006872245270774014,-0.08626783872970006,-0.23016505854743605,0.18806792249214535,0.09800998599342685,0.19241424743322638,0.327281448959015,-0.25429350115912847,0.19062353101338259,-0.04868718022030967,-0.08996451859715585,-0.08192811601876769,0.07182401995410298,-0.041408180512134074,-0.05452928697243514,-0.03839109808101296,-0.008430882101433845,0.025657791771876406,-0.01824999529830156,-0.08251682924366406,0.05726863504608235,0.013850443386822299,0.04421724637132865,-0.09512183252415636,0.01292025191661177,-0.058497997452008565,0.2673606095421796,-0.05409182961472986,-0.07714878495046522,0.0857500483690602,0.11142641034766085,0.09346679161715409,0.09226609560172254,-0.06339718671111103,0.04763319834928,-0.3960000863972942,-0.021100035955167615,-0.032878540106367385,-0.011156593904638825,0.02813079937033332,0.26011645791488697,0.06288759939215366,-0.03400250660618639,-0.006408509914065019,0.18674511892615459,-0.02130740927610217,-0.04943785630514309,0.10279086083377964,-0.0021268798011880702,0.04068095132233423,0.04815776281878983,-0.23691135717002693,0.004191499675139241,0.011476182031030475,-0.005527059802231489,-0.04480907139860153,0.17228757718678298,-0.10909974912447992,0.029513097331962116,-0.16241362712836435,0.08619107456396836,-0.14613533665151454,-0.0386411831997944,-0.1650021409792551,0.18978798601484187,0.09307830841637735,-0.12241648412631519,0.06329976626673907,-0.08033302335322252,0.06544854149805278,0.061410080129998025,-0.2739008938930572,-0.06672742972949294,-0.01888290185593114,-0.22659276634849812,-0.04837182979490795,0.06597991018254715,-0.11191850820784374,-0.3090305534592658,0.04764272282693991,0.0312458528471755,-0.07329676660537868,0.017492044217131488,-0.020031851925376206,0.10514544028658179,-0.11530111514107126,-0.09806369723747259,-0.170754780881736,-0.2150826827754039,0.2272021833854377,-0.07733079356549462,-0.13536632482345204,0.16715802683251527,-0.07670252728040862,0.2032696189984479,0.06347770644255292,-0.05154699078661307,-0.0664673668225024,-0.09505287208844743,0.03367853104907168,-0.10730967463364528,0.0747012864129187,-0.19060246915892778,-0.07601874572606773,-0.06257816243423586,-0.04090508028953295,-0.313918524565126,0.3342473960058656,-0.07334137105531748,-0.0005883952338482318,-0.02565460198584607,-0.15353770542142622,-0.0967250073514056,0.19497202014396675,-0.17585578179055777,-0.3782363456348307,-0.11179005201608733,0.16351789605264924,0.26420717064650395,-0.07862353547899949,0.09246476115751347,0.19164058153204014,-0.1732373342770836,0.12496046322743942,-0.015315579914265645,0.10370983190896355,-0.21042897069622524,-0.24500143026412832,0.18318051668952523,-0.19087655259880332,-0.08953800572417127,0.07590444798308948,-0.09641354019063832,-0.13856598196936434,0.15447028817750832,0.06651867718542347,-0.12767940516368462,0.3035468276211939,-0.19565531881318038,0.07759944067856923,0.25776066911086537,0.22457840492140224,-0.2387334541127804,0.04395667215285452,-0.05867512698683169,0.09800517564812213,0.0965065381495149,0.3150067125954701,0.3532302052426906,0.2835139467285653,-0.027731947369036815,0.18681326557546066,-0.2298335312309942,-0.1315066756680974,-0.2876641944349774,-0.08297972385915837,0.006537783674082511,-0.007898188180135423,-0.013389643691397593,0.1344834504372014,0.13515593941292336,-0.18885994919231117,0.12344801388040787,0.22608041913007096,-0.01661503149430648,0.16308535920618625,-0.004904984916634811,-0.1391524953542267,0.15077708194813555,-0.04344905995480719,-0.299618052509363,-0.07713558078964387,-0.0027673487868649484,-0.23331429917507499,0.13321808285915526,0.0750786065630825,-0.15001600278206575,0.032347376521924646,0.16507678409107962,0.06381989270332855,-0.004131934706713129,0.032616588369451124,0.010268280553328275,0.1570090499206778,-0.05413919407458898,-0.026810382506313193,-0.115350078399383,0.13397963418747028,-0.008195582185540734,0.020377152024142735,-0.0379341913728437,0.1571490984315214,-0.09177530924667526,-0.08279036095198412,0.015352972604107118,0.13116793337915197,-0.038860850661493127,-0.2905032217844015,-0.1863781474887632,0.1364722686362506,0.0029724744489100724,-0.0057623535812632,-0.0042539799547471014,0.13588490840099052,-0.0021598919483600126,-0.039496982320392816,0.16714049507749007,-0.13619208640867844,-0.0267287138678716,-0.13805522516558272,0.2841106342719795,-0.028384194518970424,-0.21381564434628472,0.18755180861860932,0.05510216480157145,0.24140399198922183,-0.22886931774654534,-0.04765512910649206,0.39046444158057053,0.24661338100077385,0.10724739725755214,0.15032900687999406,0.030840924097420595,-0.1761575722496508,0.11749848271789068,0.17815334527196183,-0.008022755501653111,0.08313975670719631,-0.004059733185881921,0.18893853870225194,-0.12969324187903158,0.1398308342930299,-0.06939432818210561,0.13712292882140012,-0.17738122887233387,-0.063619765238799,-0.014432456599705518,-0.14729104214459948,0.022699662320265494,0.10248809736219672,-0.03742466887233932,-0.0935334927715794,-0.11462553145812167,-0.04457056190165752,0.05525471134966591,-0.0922156500095056,0.0032476579076980276,0.23750312090793568,0.030691090887179324,0.01858336273022579,-0.19140723079838443,-0.14194965001447687,0.17100539266837242,-0.2006861093214237,-0.06395118596159798,0.07960307523246858,-0.15464056144381,0.05101129276463122,-0.04040660845250998,0.3339923621484832,-0.028582818793016565,-0.0019374811233261876,0.17072646281333154,-0.23818003078986597,0.09175099855524046,0.072190334462357,-0.43061875881148215,0.03817485727837964,-0.0005403382939012776,-0.2920689841645149,-0.019281163881526352,-0.16527860476081224,0.07917566440520653,0.15234297759724674,0.2519660972079436,0.1787735001977306,0.0601954068717792,-0.06938610535705403,0.003428727874908818,-0.002237154974394636,0.0467844703673153,-0.08309800098547289,-0.009622846676258708,-0.09830487687123562,-0.2933561511892514,0.29418102066712,0.021380568106689618,0.0028125332705848964,-0.18528345635785837,-0.1067691347719868,-0.10011670385992841,-0.20312715283499388,0.2542928348927114,-0.47996645715163755,-0.21883510613265356,0.08652606374225352,-0.12385056775928341,-0.08961254762390497,0.08667160551203378,0.0009493218502477552,-0.04898406915273351,0.10919232637093662,0.08905107272379821,0.07421086516294143,-0.09690836261179724,0.18167539850434333,0.020699702219223123,-0.12424402275651261,-0.013238381291929537,-0.04080099502415767,-0.11571571329131967,0.26991682494932473,0.18206830009213643,0.24799317717145353,0.06597272518579124,-0.16894334374722736,-0.045900393315710095,-0.06540809295411398,0.008309741885537564,-0.11775475121177573,0.09895052600067808,-0.09414749608816834,-0.03914439776057121,-0.19644605784803384,-0.031595944969414605,0.07088321607981816,0.20402890923727052,0.031106247577068438,0.09355809995706334,0.24755054732456483,0.022324720094889613,-0.14632782378594084,-0.06070306544706662,-0.170410191860657,0.02770616810635306,0.07269941425427161,0.060026342183169656,0.0549860160098337,0.06924569253059591,0.07709567528284093,0.13579367017823624,-0.05763195349539853,0.031732156993846794,-0.121724232704828,0.020758420205555062,0.10263343079211537,-0.039259864551268696,-0.09153477582990971,0.02381461198421024,0.019231938534380755,0.14811498863967346,0.0502058611537842,-0.021429930320560554,0.08922643628309924,-0.13208235003483468,0.07765796228950887,-0.3150476040485651,-0.1286620591145947,-0.4633734952152942,0.009968386080176356,-0.14782399821680356,-0.07035851035656827,-0.32226161571113415,0.21884303440317177,-0.05712488462753266,0.04771413179807633,0.03898239768472554,0.13883857852809273,0.15261135560328404,-0.20164957683972576,-0.3463553804337111,-0.20828323129411183,-0.08408919087218827,0.03745170802103778,-0.02229299845285574,0.29573600541303324,0.014984802933309952,0.08759772013765567,-0.07158406452018315,0.07055964412139472,0.17500924425930742,-0.01753790532731899,-0.24626985525575978,-0.43081071976491836,-0.1653862494014487,-0.0008332698714800293,-0.1373856585614566,-0.05218597570506245,-0.1492698425404516,-0.03400732180571738,0.1431638672478982,-0.03684110616504214,0.0324020171734415,0.15184025056934813,0.26708129520114954,-0.26232505949305457,0.09950522358394179,0.3546769058025141,0.014020687874266323,0.0018740284291925927,0.21176521533394668,-0.16417727161098838,-0.22690602659318004,-0.2433568681591513,0.38727089883860216,0.058712027693613104,0.10843499020385737,0.09714157389330307,0.05955209322093925,-0.27230937279849143,-0.08477197771114672,-0.08489883083108579,0.23407074803223002,-0.17587112625271886,-0.2069270160004608,0.19498010896989718,-0.03970488802574874,-0.10255755692860254,0.08431349810274269,-0.26376581200971894,-0.005038108815779992,-0.04090053954933087,-0.21324074255141093,-0.15090751769205263,0.11160007017176692,0.06324547204117069,-0.1150478700853717,-0.17530150895351088,0.014579061758368443,0.2029126507306964,-0.09962329806472058,-0.10286831994498893,0.09193313661332339,0.06348160991993551,0.09876072954434248,0.0054619972236581524,-0.041437778706733215,-0.07672547338774056,0.07360629004505506,0.17621495646176122,0.07187122427098477,-0.07040821886130816,0.03229039698407967,0.16742087091311547,-0.068815065146354,0.0401816308645589,-0.050201673907110674,0.006687240694622474,0.05537245730456675,0.024318972940848872,-0.19802794725521214,-0.16946425278485297,-0.1401061866566178,-0.18261069031229157,-0.22070743768994042,-0.04838896979062675,0.0009679442915016789,0.1486512266930248,-0.04218867605616316,0.15292854644535137,-0.1045625641539271,0.12347601237160998,0.22574205102434913,-0.06387385054111394,0.09688370881995392,0.10156245984934127,0.000238128361376986,0.044253530595073656,-0.14639635106122786,0.02739497588498878,0.1935713724401903,0.02311511024086516,-0.07068273890224347,0.09798260150945035,0.2641360381078365,0.09303224974766323,0.031492145535551165,-0.13280011011041093,0.31137273445277835,-0.12454719604686418,-0.11956380483460458,0.13327216965723773,0.12921272221771188,0.14596950334592124,0.04698842250125253,-0.022413700083455057,0.23782756983975978,0.04605402987062882,0.11529663791341256,0.2657681090053351,-0.02279789018294107,0.025293467289145524,0.020470808761699287,0.016324601900674456,-0.19661833773982285,0.007232092016791231,0.018125077138514835,-0.13073842696460278,-0.08653887629935743,-0.13172141099967222,0.049262461509227945,-0.08957561461828639,0.2344991170768015,-0.016957777268878628,0.012881246949274637,-0.13785655682040776,0.057359608891287224,0.04470096740729875,0.086769823220194,-0.13688698410039937,-0.041147651142909296,0.12394481968030484,0.0852771316408354,0.33483459587222436,-0.03883098849495184,0.1714482075834051,0.11851648793640775,0.29479699412586025,0.11666794013439807,0.09206931927824213,-0.009461661276893582,-0.05068613393023643,-0.2889199385812144,-0.15375619506745336,0.0884622822718058,0.11009771333717297,0.05818474306275869,-0.060376464767892955,-0.09769243701943872,-0.14196781906445144,0.1706459923746215,-0.27502677023945254,-0.05056842529372381,0.04846851827997028,-0.06408726987549217,-0.04400625690594967,-0.05223658227192368,0.0472790350287736,-0.0008751330346350832,-0.021899318837066223,-0.004138384987524258,-0.08491953256095923,-0.010383866983569976,-0.22850285969298015,-0.16889148369697954,-0.10587153529160785,-0.1711031411676219,0.035452331738676124,0.2981484659977894,0.06237979799823588,-0.0452004914430643,-0.19785398575321175,0.0475362733785386,0.0964597464652105,-0.12169629633921508,0.12761851897943838,0.059737738945199806,-0.04017308761709138,-0.06454713583428158,0.26448852332058753,-0.0175126638760014,0.04522666448880174,0.04144814425832003,0.03396124825886955,0.06292288067169435,0.09498323607518647,0.06856292822395353,0.1310247297338048,-0.016614627391298143,-0.14248768897066894,-0.01503031495478227,-0.1247595878824173,0.23003126517349543,-0.08258793295843221,-0.00031455522008913626,-0.195996032134616,0.1255947378063275,0.19506465138602416,-0.047826248787825106,-0.0013838814068163022,0.27063545448167786,0.2435886314612693,-0.2408152962941931,-0.36060556642564856,-0.08559230541888224,0.17059427979254227,-0.03226998210305072,0.06533293237099201,0.020499074416813756,-0.2136532411415107,-0.13055502300140875,-0.027932635468579506,0.029694860121769286,-0.15311206188796397,0.12414487873812752,-0.05446720583741083,0.0602981668603375,-0.08599753197702795,0.03174791248819338,0.04042715665238625,0.04086183739057627,-0.3620003632493933,-0.10243576754855512,-0.1933810546753889,-0.1316137621056106,-0.1081312377338225,0.16693309543659268,0.3355477087357427,-0.16379162425506685,-0.00509626440680076,-0.38860491972096,0.06902951873554622,-0.34162851979784553,-0.02766571760046779,-0.25782584111425977,-0.11503351160687283,-0.04202119815309911,-0.2820883705017148,-0.3752665851504097,0.06558508252348973,-0.07491032210353864,0.05313326150726292,-0.03888345261186256,0.09796108385855672,-0.1334359067685171,-0.04716617032291338,0.1745065976453361,-0.32962560563275906,0.09831342462931912,0.25949616279342996,0.29968911015490207,0.0388004236623103,-0.22152801818568585,0.17983662658118224,0.04587963761794946,0.02635988319284861,0.06780600225326402,0.15586155990777603,-0.25461847852362773,-0.36025586391809744,0.12432288844566934,0.09506851082164815,0.02601023828497051,0.336018571869279,-0.04296506040472743,0.10235327451600859,0.21697782113514286,0.010849393815625228,0.06480132850999666,-0.008866984095348168,0.0717865306917623,0.24821544620256875,0.20474685187761774,0.30612750711113,0.22186456237273244,-0.08152777721160774,0.43120793681737063,-0.0029200567002649305,0.00811180268200578,-0.13602794038104826,0.27675723638317007,0.25204541111996276,-0.320289259087794,0.2760988322290117,-0.30823566476978137,0.033744829942075144,0.029263152704241246,-0.018516615405199117,-0.0687594227426381,-0.14622742118142928,-0.11099868580502278,-0.0722807962951922,0.08856742782060997,-0.10616806932990304,0.21241474134840488,-0.20955670484903416,-0.0398389824159261,0.3079538919463725,-0.2931883441657183,0.23010294634872258,0.11652475309450702,-0.04348675554253201,0.0561693800390454,0.02215604114669646,-0.28765484261372565,-0.0989115972264573,0.21051418345119863,-0.004306677964509457,0.1493724030699054,0.17860263164446027,-0.11805628009664812,-0.033683748726239485,-0.07602039906242082,0.310777041192212,-0.09937978391656918,-0.13095180730444,-0.1057321043930936,-0.0034232314620491226,0.14655984133580802,0.1423064798959528,-0.0756502636780396,0.011849186421214656,-0.045929474622792454,-0.0587282039621671,0.2663877346572681,-0.036818412209999464,-0.007354239999925562,-0.059056346393602646,-0.21166545571534254,-0.2028387682719169,-0.23630412828305883,0.03405566557394911,0.2205776156147159,-0.026621646191204267,-0.2995523231994729,-0.0940295943648124,-0.1679495014670833,0.13756056818796725,0.01885112737190976,0.1400681363778133,-0.036371796584282266,0.1368351624034088,0.007369780018067763,0.07452262732826995,-0.03269816562199762,0.13028203225227908,0.11322861072045197,0.029250608022149068,-0.22952227694656535,-0.07319265231730619,-0.026527231457082284,0.350769074798466,-0.04582855747203034,0.2294727752948472,-0.013567472610381721,0.08197035158045379,0.009465288004761435,0.3340281352513424,0.08099791221327905,0.2090307998877081,0.024803975052093724,0.04065437728675539,0.05988526092066243,0.05857250240655286,-0.06127840361058506,0.18185441344676034,-0.40853714988488216,-0.02203531919444359,0.037084592162256104,-0.07848731769640128,0.07190270995752635,0.030525651816727818,-0.27864692781055644,0.06160873249083551,0.10679435241333114,-0.12448055563858729,-0.03263366353181504,-0.00770224085604144,0.27288418809106557,-0.14858990830751265,-0.12835965248619857,-0.025162971462128998,-0.013547239525297931,-0.12526919256112157,-0.05682587580021264,-0.44885096074494396,-0.08238946856300891,0.4502313256896479,0.6818903593961861,-0.7887036049584252,0.04104920202699401,0.011509941080771238,0.025312375314280808,0.6022464113442302,0.8602489380293745,-0.09830339256218251,0.6537397098650047,-0.22203466216105153,0.22011615094438905,-0.3784162400748007,0.08836438264185204,0.003994364375449425,-0.06310839965027815,0.47407039972276266,0.08370067690800277,0.15984254111429644,0.17296341269128246,-1.3322825722977145,-0.012230601910739521,-0.5375689597754758,-0.2271139792998211,0.2651687709353541,0.0328798101470224,-0.13116947986844404,0.03170233317445411,-0.02017775699931241,0.1280873609478421,0.2713262974957996,-0.07134379888355967,0.20217042394768522,-0.14065914942669247,-0.5026372995420927,0.011284668834875975,0.20785754299103548,0.20399462339189803,-0.5671678016372175,0.1440880550374007,-0.10875598556348337,0.8700325497889861,-0.2683695800451,0.2162460524850672,0.31772837448026875,0.10699601827771993,0.08795137526479704,0.30133469395509516,-0.28010606180877806,-0.06290267598143723,0.10200151537223026,0.009232237476522697,-0.16095824409228202,-0.009953088942744851,-0.015023191955287883,-0.648529840957492,-0.1170375075138074,-0.429026298833088,-0.2997953138934557,-0.15730728651737447,0.08803944282067858,0.7217904315880399,-0.19509073779143749,-0.019275606935855644,-0.05684063314723524,0.88894411560648,-0.14499168617268363,-1.065934321301602,0.1543853510876162,0.48767921805154957,0.5920322015112038,0.3717948845190468,-0.2299014178963359,0.2749416854588094,0.6417510432363531,-0.09247721624393503,1.1102560703078885,-0.03489888935741238,-0.3182256027146899,-0.4485166941263383,0.3852912703053591,-0.05299816796118745,-0.16286493555020992,0.591789960699655,0.5095180004491412,-0.025356974769403736,-0.9713629143133188,0.13509490242380404,-0.0706893572712144,-0.22712724018937802,-0.11607280604026883,-0.25247878415576097,-0.37197823815724995,-0.12951077476587347,-0.28440102995852007,0.8087094771423701,-0.08469088856464953,0.4186189893185862,-0.11031348268372224,-0.3559684925655251,-0.13778688445905085,-0.26284893803977927,0.5911892763257051,-0.7141244382601342,0.07172652760226676,-0.0634579051617803,-0.013326224735341716,-0.005838264095896337,-0.11923108049158,-0.8436774278638176,0.10574059714972267,-0.05337863218300755,0.3345831766424857,-0.7294809358190164,0.10068685558841438,-0.27069560986353153,0.2646914632122981,-0.0676280631145305,0.08267405698345714,0.21289114408355278,-0.6151614823610434,-0.9960795796431648,-1.017078988701573,-0.22379221887491405,0.003933506714361655,0.31533899437417623,-0.2746413134316734,-0.6025662699569926,-0.7632882993758727,0.04732656521163756,0.37923626189997833,0.13012846261303024,-0.019131703587293544,-0.3187529781599811,-0.220613493737018,-0.025494069585796805,-0.5092850415029632,-0.5450197716673596,-0.04308476180240394,-0.3258686109653109,-0.3190943340022649,0.051384449125494225,0.3270210909687397,0.04341146765182666,0.20986161565698658,-0.08602165338625882,-1.2624512808582673,-0.6441007729267133,0.04837651863742768,0.6525151772319303,0.5900098761418695,-0.2950421626473366,0.720195907296914,-0.319348032869332,-1.14562715475793,-0.6346627145204683,-0.03631097874112825,0.800269300760683,-0.19490356456222377,-0.8039470138608644,0.6326236404795128,0.2621431002142108,-0.13111700810420243,0.836235590323695,0.25985835184413947,-0.13877374554210392,0.5020549254204748,-0.013844390342767864,-0.07947922114999267,0.8188218595952824,0.08584930353627311,0.2080911838563643,0.3739801481060085,-0.19908597339085066,-0.2171700863085729,-0.06529955636085288,-0.16230059868804464,0.6048753566080637,-1.452845183863222,0.9564919883622428,0.11843212293122131,0.12205530013060958,0.30188541810954295,-0.6194709123600665,-0.0199151417894684,-0.918351590512909,-0.05503332471433525,-0.07404247000375884,0.08861668240025268,-0.07451354731892287,0.4954247845973298,-0.28553900128046356,0.13571911525484756,-0.22747402466767258,0.0636316655553825,-0.06926939049377316,0.1462434187817728,-0.18432044364752934,-0.05905941393879527,-0.7399595896690676,-0.05193437587954673,0.5550606001519931,-0.16582389550543972,-0.026029992045753018,-0.22046990828735427,-0.10523567431714474,0.08021754192661236,0.7155638253016754,0.48069958130624374,-0.10707510389360463,-1.3879908348806451,0.07843972358427073,-0.06431126852035077,0.2763818995328745,0.5225637710434646,-0.06919565609229338,-0.2537837888318958,0.0053591593913209475,0.5247745068563205,0.6201872597195832,0.14356971378479422,-0.12356681427841251,0.016286767741898325,0.25920371557404714,0.390615163712244,-0.14155961548714788,-0.07200331825404492,0.9755115929197773,0.3270213041132124,0.018302665964902206,0.20034745600138704,-0.488647779623234,0.8530380899020522,-0.1183360226217217,0.8214872656856205,-0.563076882035441,0.03457248356168071,-0.06537548052552088,-0.1925397584812076,0.1322964851489026,0.030155115872159497,-0.7398097482993327,-0.10238396971549674,-0.006935110224981249,0.3280669155643967,-0.06122698375035862,-0.5924432898836269,-0.4398326455195888,-0.22501692944577387,-0.4939169500950657,0.07593555443878185,-0.4240328531610116,0.07093073334679964,-0.004460523711955979,-0.03944929270048597,-0.04828936693350877,0.10326716118691537,0.03773745460168509,-0.11046919967841917,-0.1165200007458192,-0.034519691029491296,0.1834552440705366,-0.010426095397509199,0.00035932986067046976,0.023301303125956418,-0.018086689628916484,-0.08719681822916882,-0.16896564499500344,-0.24186076155705757,-0.09887070821124813,0.006850455559122935,0.018903425224809717,-0.04215348419215026,-0.018945622876760045,0.09883076788817112,0.03929661116924837,-0.018935438370729453,-0.07551882904226608,-0.06754620726994498,-0.16935868550558472,0.08554389582655894,-0.1179363799754502,-0.03307054301676834,-0.12227799663675834,0.07201893242802945,0.07114264225173554,0.068881288875214,0.03250356939825856,-0.024180949287761006,0.02518209885441215,-0.13696606024758123,-0.021612535349365514,0.02649587614836625,-0.12698584975453878,-0.2558122019878946,0.17995663117676763,-0.04344048328050246,-0.008411925027218842,0.17505956374818957,-0.0793218125694953,-0.1857390392219234,-0.042282842615528025,0.09820823289185071,0.10404148833760153,0.10844603193934127,0.006555734641614612,-0.12293767968488516,0.045044597043609524,0.09600502967609986,-0.030319726507988826,-0.06904240126719335,-0.09125534971934869,0.08063137850490225,0.04123038944196846,0.06400022535759303,-0.03459169898678993,0.13259737221223591,-0.00554002023846984,-0.10739313082953329,0.017501528015167384,-0.061801303712840545,-0.002127730918590567,0.06881206500282587,-0.050649497939296094,-0.07169403819565781,-0.07053250362978636,-0.02055908700750067,0.01959008842279788,0.03670888797445932,0.03912491832359689,-0.029248393373599902,-0.07117679001346355,-0.017352211921821445,-0.07574472806148783,-0.18077906140422303,-0.1088827568837069,-0.045585151009414494,0.006269869339574313,-0.057868578639886294,0.09790128501177706,0.0771307072705232,0.05174783340518308,0.1641320483702004,-0.15542606204629206,0.027628128524764154,0.020740419525778805,0.05437537153135039,-0.3370644346515648,-0.19467024875627126,0.12480044263828302,-0.05904990932546741,-0.03472197162745555,-0.1204764951415908,0.03145709438771683,-0.04724693059219568,0.12742993564563834,-0.41992832883867753,0.1980223495263496,0.08745184593314972,-0.04961423701658553,0.01190002876698805,-0.0860145493295411,0.029192271983874505,0.02920631560513331,-0.11976834914949876,0.08005886400672602,-0.028662343261086114,-0.1517772651607461,0.22363133007467953,0.09545925179248696,0.054084206995167874,-0.2204403400817993,-0.05246676264334368,-0.03722307396896956,0.04444694005150369,-0.005316129060873194,-0.011804934048673438,-0.219069401515477,0.178825221890581,-0.078584148743249,-0.10645858726168643,0.07470176641805318,-0.03042610697201611,0.01813062428026917,-0.3232587439880041,-0.11621943623498428,0.09565402691584415,0.019290408754006994,-0.12696603068196224,-0.056208356129632896,-0.03866443829912006,-0.020158911099328915,-0.08517651573643359,0.053090925030616284,-0.15820612463563125,0.05725907960532999,0.203601840990767,-0.08668166757495127,-0.003792329288352674,0.12045157616174883,-0.04983682102612482,0.022689682314790783,-0.022286460173980744,0.09912536081225402,0.21885979758550328,-0.015840556473870556,0.12196409449075965,-0.10633666003684654,-0.017034114758419525,0.07531133652075948,0.06016803740052214,0.15572013997687023,-0.19417770202592113,0.13414545585040302,0.06665080175957944,-0.029021979028946942,0.17369092029332572,-0.1336780702665071,-0.20165844923819273,-0.09084951500136117,0.14600063258454662,0.037927991188025985,0.0054824999517034565,0.0179855988449991,0.2006319990443675,0.049395136034021396,0.11488489325067348,-0.14886625331808517,0.08515490095001736,0.13314631064084131,-0.17383144006565115,0.15315316380357197,-0.015984021700369076,-0.165482006985352,-0.05570160382164592,0.0030215576534184966,0.016899268384704957,-0.2332137238355374,0.19887370076737781,0.02211592581140572,0.07707222164568273,0.11595640243063082,0.024685421835271382,-0.087104199537253,0.07823308163244352,-0.05502209523449468,-0.034555333538320646,-0.07648043042433758,-0.09357425912549996,0.05999985646406124,-0.08539364405039279,-0.10143598287636128,0.1470428345160107,-0.05605894371112452,-0.3456966452657823,0.18571648412822653,-0.18025658730198568,-0.14214167530194372,-0.10029892698129923,0.17201596743954287,-0.06178412779868821,-0.019918662894535557,-0.060800429177261014,-0.020876060041407636,-0.1921438449208299,-0.03306096334426793,-0.04159116491959993,0.12377632482267961,0.026673810299036014,0.15674761787954453,-0.10416603261063878,0.13231758361159743,-0.012261532153858374,-0.0026189951487327933,-0.11120218782530233,0.23611853577444317,-0.16566514873397908,-0.02585608633192153,-0.06404525568951307,0.11708208083050421,-0.17625749949340255,-0.13221570179047526,-0.005718951686751624,0.03565286686334891,-0.2597204710204136,-0.03183547802440256,0.15365578363311194,-0.1581504322146243,0.05532001676422885,-0.18882582721461538,-0.07626936717578858,-0.09196519592584261,0.0185753575645046,-0.0833384169126449,0.07524618950535095,0.06501310735929085,-0.13706034188896302,-0.06715471277295228,0.02654702001233951,0.0883958640119219,-0.20024372183486827,0.0036670171853624913,-0.12885049737283383,-0.10230924352807162,0.0616177823661035,0.1305906759791412,-0.013655117752048543,-0.04516387822456768,0.0548592267869026,0.10082820485802063,0.014278729294756721,-0.1807499262314593,-0.07484599901889696,0.15030927316430875,0.14544949912304364,-0.01817716299482842,0.0066759567779101445,0.010984254932040284,-0.03849449142534125,0.006129046153985106,0.09460590515456847,0.12512819985670878,-0.24640150433962166,0.14458889144863993,-0.2797718932715702,0.07198206498478889,-0.15298436758442652,0.005978131756505378,-0.07405172612179314,0.053376073344944625,-0.012223045430093383,0.07158333978366017,0.03371443945394774,-0.013571185885896734,0.15559556858431373,-0.10963186098616448,-0.22904741909258244,-0.13455756975476812,0.05721364220200565,0.007060430186746616,0.02597236279040283,-0.17202822963531525,0.058369457129029,0.08140707786413122,-0.007536336322547556,0.08261410753239802,-0.1976565162173825,-0.294029646730976,0.10370451998668843,-0.16633801802321763,0.06316075566966435,0.03396965202678836,-0.08491201739474198,-0.15997939145699658,-0.11562926267654809,0.038730386091650915,0.00001893490115716677,-0.06197143511515786,-0.12182874966849867,0.12923129576444084,-0.10084129929003588,-0.06594799361312152,0.05020911870909216,-0.16569592428970437,0.10793767746186501,0.07232765411541557,0.0368371681951828,-0.08688304214903637,0.09561097738963256,-0.007481733659465365,0.009284161096358602,-0.016354068704724563,0.03177509293208297,-0.1832611031428203,-0.3028868086933953,0.007296918381692859,-0.20976646712728633,0.04678879052568967,-0.1353622476257394,-0.08772387888942348,0.09892099308909391,0.04807848967556132,0.016980377534095186,0.26858107416153554,-0.10933583021132645,0.15948255614065912,0.056382082816885996,-0.19641695487733707,-0.06944792247686034,0.037449829671102254,0.22853972023695796,-0.27718318780287526,0.08663918100667885,-0.0323233358974943,-0.23016021824315644,-0.09888392005353883,0.017422456998321206,0.005034656537537874,-0.007849220017327617,0.19609241151367332,-0.09528578135586091,0.11766131972099411,0.027058857543282674,-0.2164224404240018,-0.16631532855147974,0.07065025795056816,-0.17001550732456283,-0.030508485274283355,-0.08803193645512661,0.1498933952652434,0.025160175402969633,-0.00033423197771720363,-0.09068963447247745,0.12481201105108815,0.12493829751881627,0.09771280876320532,-0.015700526507361312,0.033521048189775554,-0.30973114848728867,0.027571193494566337,-0.03374880913350363,0.10838418680340302,-0.13263273977892262,-0.11538376226352812,0.03571002129225981,-0.22765145311659282,0.16392949778482319,-0.0895572235027383,0.13141520214965607,0.05465425181454509,0.2362112876900156,-0.08152939533265036,0.031308511708998434,0.06253581567555835,-0.05117240620806361,-0.2690254377109496,-0.0984272866019124,0.11873371475818541,0.010379681875782117,-0.25233827059739755,0.02447630981563874,0.18316130873474318,-0.08798070760075459,-0.01678145363135859,-0.32509718088343975,0.0019330188157984842,-0.10908089666116827,0.11682516153311477,-0.05652825938937171,0.21627991334128782,-0.1652877196025523,0.15158141784993276,-0.11878796525549642,0.05604733686379043,-0.1986543461866185,0.049760014958300326,0.06360727587307034,0.19691409638517698,-0.03516320527250606,0.04914305114724508,-0.16914269208135985,0.17558709613097725,-0.07030789968073096,0.19034822651708552,0.11349712464259124,0.05017649454999839,0.03254407176953913,-0.1769069463342207,0.04587358734389361,-0.00825390162843296,-0.2127420792095483,0.008695600107547058,-0.007234351876868146,0.08953147470614899,0.020851418703878577,-0.04408749605536126,0.11432844583955173,-0.044527815291292704,0.07974788690961966,-0.1497044128873845,0.14544181101385645,0.017220683748717158,-0.04515699619200874,-0.148327073763796,-0.24871553894146778,0.15946499619298313,-0.04540110769046781,0.13630384334365517,-0.1596176124330623,0.041104054325530465,-0.03461264973823195,-0.28352983139035487,-0.038026880239024397,0.1965141129436024,-0.06182432905662867,-0.06928529955294958,-0.21176348029470204,0.09439330761728211,0.0610398738356918,0.05133191005796946,-0.12198163086408194,-0.0326777786751493,0.11460915355875492,-0.00520595462587606,-0.26086025144704583,0.12404178436063208,-0.009624334896097552,0.07612857710461775,-0.008398206516896522,-0.24759541255009188,0.11278685661530789,-0.002776922699931775,0.11907180445719769,-0.054918349929936466,0.1053857232218576,-0.03851001769060694,0.07426543963401935,0.014668494918283027,-0.05173720634057047,0.15714828503851613,-0.0796077299479166,-0.024242574858915567,-0.2126208843862735,0.05364642027581651,0.00743306201908218,-0.007045088458201365,0.07410260678137563,-0.053581104785794594,0.08763292951444294,0.030527628390266695,0.17053632585421613,0.061796479508757274,0.09411647270917338,0.13666241563653816,-0.18491903985378846,0.017545559148239062,-0.03850862946530794,0.10701416465079934,0.08023584779994565,-0.11317622492349344,0.14479799378123892,-0.03478265954935743,0.2749118348104114,-0.07964943604239716,0.04740501838879499,0.011233920379331339,0.06875293303218111,0.08259933545838272,-0.02769903799310572,-0.10058309014892224,-0.0671214426210919,0.1314095377035253,0.021966184572665824,-0.08922588986126942,-0.0006037958880576407,0.1653390692965054,0.21901294255759846,-0.03585757137392433,-0.23183232662627834,0.15531830406269956,-0.23162802499167665,-0.1988521844896118,-0.3941266547885258,0.1186531418923432,-0.032728864616472675,-0.10343334518377044,-0.26788855541837264,-0.12535858684226464,-0.08709730945710972,-0.08398251896741954,0.021756066076265995,-0.32066864989910826,-0.04468688153309614,-0.03490621715399152,-0.07215894079016244,0.02131909004295694,-0.03900424398584907,-0.033008113602469163,-0.05787097075873493,-0.09594507156561453,-0.12032971456852837,-0.011688763574846201,-0.10173245163784761,0.1053008786702717,0.030641387562105115,-0.1188990278171231,-0.10911060336832465,-0.000359453905906886,-0.06029075621496154,0.05612764221619124,0.03833408079559214,-0.08472355171373265,-0.03161691975188551,0.06179401133642513,-0.05769668357358422,-0.03454483046469892,-0.09285876742911535,0.10900007155208599,-0.06091086841607256,-0.04810743099650698,-0.030772454507345812,-0.01582542311740138,0.09898886710766028,-0.09023949278095518,0.11324492720465601,0.20520685647115916,0.05951069789646694,0.03861717489330251,0.06443487738487243,-0.11687114867406818,-0.12675874205503931,0.07257081360615462,0.0846371840395392,0.029388533556936675,0.015702194035135574,-0.12057266075592625,-0.08341341509265396,-0.10104868172669419,-0.022988884532678368,0.01769160810570804,-0.0958133211250489,0.015517589492966614,-0.02444739379492922,0.05143037651613377,0.03040480599356251,-0.2645677830085224,-0.08776703910602113,0.061769724323420226,-0.007834926864701774,-0.012222868512438907,-0.09616122485944402,-0.050241697306148234,0.050024316442586265,0.012402922259896965,-0.012430399077811074,0.008549062095147025,-0.2028108622637123,0.05878582310498483,-0.09308529407918763,0.0983477711503944,-0.028442341968498843,-0.14209060147545535,-0.10623121658575595,-0.012959633960465804,0.12173377404843644,-0.012126501807604356,-0.05825614009024981,-0.03646542955596617,0.07991778613902778,-0.048687039090565765,-0.04765616049904239,0.07576615179682693,0.027253576195029057,-0.04115453765337205,0.12601662665325777,-0.14229879279593005,-0.10982650984337428,0.024879920213073996,0.0341924779055259,0.10207036900587516,-0.04869055076069367,-0.0546760592830205,-0.05584647641079423,-0.004890166088439636,-0.1176639390043076,-0.03183266202201417,-0.036354179792775235,0.09528286388704311,-0.036357005786091016,-0.11326487682420847,-0.1904186416063653,0.08722366186698659,-0.13380280083445348,-0.19081646733543053,-0.0681456655085632,0.043803859554482585,-0.12728504859044562,-0.18751087308754194,0.08459635752736161,-0.103612989160528,0.03629771367412192,-0.052556304224156636,0.11664302649993236,0.12019703553315504,0.05832008625280209,-0.0314481394327232,-0.1829359980625329,0.02230749880785125,-0.06706625433820589,-0.11687761700799779,-0.07249365973574406,0.02336494672327432,-0.0037455834539523733,-0.010530020073170861,0.022709624129922085,0.016901672803694208,0.10339739712738175,0.0947312092079435,0.0935890922966346,0.14513362544671232,-0.1207190953924945,-0.07395683856459268,0.0779697012421736,-0.1886622548231606,-0.19687208077436125,-0.01429860161638147,-0.08147122577265897,-0.02466486895812324,-0.024254924276134588,0.09483248537616193,-0.18910702675453067,-0.12926982812315618,0.16233017113897524,0.08539654672445474,-0.09954464070090073,-0.10776069477065288,-0.03474619086822704,-0.08530171604822692,-0.06556132851762908,-0.020387503429788043,-0.018726783289697114,0.068054282237751,0.019316253703005038,0.09681511706115897,-0.022671598657560216,0.15008716532752833,-0.1322474973719047,-0.05124928098177028,0.029707119811982898,0.13260634144284653,0.0838597415362176,-0.06232499677805491,0.17925504291997765,-0.08485287883742358,0.058172209193856045,0.21408519434355297,0.03005966167642679,0.02788285972134143,-0.0935036642597103,-0.008991016684382661,-0.01804924329187637,-0.03926185826057323,0.13106506108038338,0.1618449008863284,0.08133938052906194,-0.05702930658851324,-0.07429178096028341,0.06788524937777572,-0.04185504859366725,-0.09372958194447159,-0.008255465425413805,-0.052768093090326644,-0.14313530605553884,-0.023170851617975104,-0.10489487485535452,0.005932702860607575,-0.04562327660268747,-0.052549332656708456,0.0363989668661861,-0.06706370953089595,-0.06539885506522854,-0.06125159635341452,0.017295111698993247,0.0006071295629774949,-0.03248404791340592,-0.180545637825847,-0.1884908625195774,-0.05812363630294922,-0.174404567724935,0.035282438589073206,-0.07783776740966708,-0.06426244075113778,-0.11827937182880666,-0.20939408477324342,-0.13652775321209862,0.06634846782634411,-0.1818009369395651,-0.042446779974842495,-0.009065334837063269,0.007756490660947207,-0.06420048401549296,-0.029817228688227334,-0.04160109485508024,0.04291367554263573,0.020216151000141482,-0.08276779436191593,0.08201320634006953,0.2624078675000003,-0.04776289166026033,-0.09449113324930666,-0.005491864313627344,-0.03750676248150075,0.15037732889492797,-0.08690627109834163,-0.1351333705392627,-0.09979413020487862,-0.016538972814746533,-0.23587349877501484,-0.058278862174689,-0.15861760057623228,-0.10098273759811112,-0.12107550333268043,-0.07229813272622868,-0.008372817351237585,-0.06272869989564171,-0.03273939365299446,-0.05508540774149892,-0.20157438542588463,-0.01437293292326472,-0.17664969441925224,-0.05389535931017265,-0.07434161790341087,0.1453564684278564,-0.017942328799216225,-0.12033203067111894,0.04045307009308132,0.019659082841843742,0.022861490895016132,-0.060503084693435745,-0.15670039758019175,-0.1064570740683293,-0.1685752991211143,0.060535933568538376,0.1347628953874753,-0.12334067644882432,0.22948177194107924,-0.005748693479352121,0.16571816298446243,0.1419011293679155,0.0468060822825428,-0.06517987968969657,0.08703123047875538,-0.014068933154133415,-0.028765158048520926,0.08382061490267138,-0.0767763148943866,-0.05324681295685548,0.0385750629762489,0.13295073487438366,-0.05271240802888965,-0.0414162273707283,-0.031809258647577186,-0.0735490155890968,-0.011565983673009218,-0.023967725305066377,-0.1408115492830737,-0.020432165911958473,0.09463467984753389,-0.17398954143891948,-0.07944054763180408,0.04868835110224549,-0.03915302942457757,0.0697812564910194,0.050561260758222856,-0.273630608962418,-0.07558900455761873,-0.05919149444187447,-0.14491788663783245,-0.05781195628028089,-0.11041170946720555,0.044021177639069785,0.06852198427893633,-0.19384883810922965,0.3777280827799846,-0.2816552165426583,-0.14159478456287655,0.03989795171942129,0.01968765457355046,0.07496310455247893,0.2010974575913022,0.0720602330024042,-0.08259138827169756,-0.019980262035350253,-0.03547558777106595,-0.14279635651679184,0.035212331319512714,0.039844342091249825,0.00018282835596754917,-0.011606801598708706,0.26634878296737435,-0.13141798484193024,-0.09472887180609084,0.0022948268309596932,0.05592734485083203,-0.008283940519674607,-0.16498853662086468,0.03833516243090785,-0.012391848224910459,-0.03125057012879435,-0.012098203920058876,0.009781378971941094,0.06350368385609827,-0.21616121670750582,0.0315689373830208,0.015006005772779813,-0.05238568335130401,-0.05755419825639902,-0.0436460247851524,0.1441182278572013,-0.28761958174385965,-0.23693709986571157,0.0675274479353923,-0.0569410459684332,0.14847473880475617,0.06494243082833961,-0.0655866035061015,0.1627249298502557,-0.06589179974355068,0.003124708323948464,0.1155983736419939,0.10176648911604987,0.009388024085315411,-0.23554198926001307,0.12625532944990067,0.2656723906998476,0.09857393822615458,-0.09666121542735893,0.005020017899768358,0.034022179735869615,0.037882648624970164,-0.002701025131628772,0.07187450376692332,0.021126222373012704,-0.055082659944170706,-0.02384136209087092,0.07734716350348636,-0.13152068222364088,-0.16077882892645043,0.005074219794715834,0.048602950784982175,-0.09991814968311995,0.10679674918931041,-0.18545797773518127,-0.31321563898986166,-0.12086767212309539,0.0373739454973952,-0.08825978813296492,-0.14948256291094222,-0.0846262448420722,0.058469324698116935,0.057748219349541184,-0.09911994572838746,0.2463398991776908,0.04735647524340357,-0.1565482146921334,-0.008159807175845074,-0.0012827568637960815,0.06926922453151313,0.08815366610911501,0.11791777834261652,-0.20673587867704915,0.13530705853492017,-0.07706947152736408,0.19272894892810183,-0.16304835977141807,0.04801447908152213,-0.034585591678730127,0.03845949578631973,-0.16496824459978585,0.06991330690588424,-0.14621260751815826,-0.13200578937391494,-0.19537274797017115,-0.01501763912746093,-0.02486304913867184,-0.09842679112935565,-0.08464903440564778,0.1343876899684065,-0.006519418321456573,0.12714218386913756,-0.09105675511039625,-0.01869086914947083,0.23314907103241914,-0.13701079129194718,0.096439785836767,-0.1904807854206333,-0.060907331056197785,0.12271010273651191,-0.2003929498545923,0.06092357253838369,0.15710322849763436,0.010246803026166876,0.11736673600295522,0.0930408409375352,-0.10247218511371274,0.2007339776246271,-0.06327250987855992,-0.07113480959311129,0.17036258935910542,0.01595017807981492,-0.052653344125798675,0.15519535089405032,0.022781855465894254,0.07568926509670972,0.1283619375128657,0.0033458167720820295,0.17124969182884245,-0.05849126713103988,-0.025311150888936505,-0.09317596951139058,0.0385599534981072,-0.282272265798602,-0.15415941051237275,-0.014266402263200379,-0.05957083750874899,-0.057063564532726964,0.07328054964414157,-0.11660765376122242,0.0924839540995178,-0.07297545606513134,0.033389735536524724,-0.0594837788075584,-0.0973265943146396,-0.1680559835032039,0.05463022884147355,-0.17481279675293954,-0.026966921113095434,-0.34421258023367196,-0.12176919544374916,0.06012674521198068,-0.33362041963573913,-0.053098426325797934,0.013474571223896094,-0.10829827897788045,0.04098363468661748,-0.12172622043939701,0.10680242051508053,0.07771287949501302,0.0791532120073597,0.16672156855644832,-0.03835354044867073,-0.04327766026150605,-0.0052908083861468195,0.04290730981972306,0.08883849625212391,0.09627001171535657,-0.04770595163319005,-0.09680998463916538,-0.09522529343183544,-0.13639740138612064,0.136729636888782,0.11580070138780468,-0.0004930528477380614,-0.04744960817608725,-0.19063351875845364,0.0417843760561657,-0.025188017925615844,0.10161249304288897,-0.20527030893238415,0.05863037293086859,0.2840687725574592,-0.03369528846534291,0.09256928894453717,0.050821697019463825,-0.07596265554454625,0.07262406788928104,0.09285605023667652,0.2287435339941172,-0.04517539836515349,-0.20363907223882435,-0.06458753882147335,-0.018377552696024896,-0.07744943685159061,0.14319356566979147,-0.06700987469039685,-0.12816014928726954,0.03403032052409957,0.15678886900523603,-0.0055331356324630114,0.010155205910533545,0.13144083204931115,0.16115362845671757,-0.11968657054120099,0.007750454356160312,-0.05215818632089766,-0.021619434330938946,-0.23480594035580524,-0.18300281013260838,-0.06084546395327239,0.08030092908427586,-0.11800048586862251,0.20083070351374718,0.06211354763615297,0.03977092083739123,0.11005068130142723,-0.1238138210752804,-0.14700309993742403,-0.04921922232918608,0.11160264023575185,0.0296979364111207,0.037928536959011695,-0.20569390418200229,-0.08251296095956608,-0.04195464799936654,-0.13268098123802605,-0.13152398715331928,-0.20136602888790833,-0.03736910549960805,-0.06465595775644062,-0.07196474384308289,0.07859762744259817,-0.21814559441514486,-0.09103548451524625,0.1502632852395102,0.16666926532896925,0.09445135068063452,0.0011460070404248923,-0.10843201691953458,-0.003301882221081391,0.13829295441839137,-0.3924516521880804,-0.16267423027614636,-0.015909438302452627,-0.12272058510719223,0.22915424437749055,0.04311572944340988,0.12231389415750334,0.13855850930669653,-0.03725582238584093,0.032025706345956195,0.028430272168348997,-0.1289330703591926,0.07806580292975968,-0.02698777218413762,0.19511367721718476,-0.037349701303589916,0.03762151558812647,0.11273684054227726,-0.024485869387295488,0.07716920008402246,0.18770258369375753,0.015289275104716895,-0.08916417140476784,0.022724008043700724,-0.017387005214747592,0.24946358282039557,-0.11178808420093633,-0.08673632441778767,-0.3384203731473082,-0.0008583945629163721,-0.0740661651475704,-0.003672686119467086,0.012403091135103794,0.0560166453840686,0.08509170753346179,-0.1382945553547624,0.04039591346250111,0.06574715033154278,-0.04888489395449821,-0.06706963470001213,-0.12236515336079468,0.14124462777487604,0.018664276089780885,-0.0025140628053844202,0.1776495214513269,-0.27805396067921456,0.12605859538599487,-0.12143336599569134,0.2343975872227856,0.16137161196802474,0.08355258276889127,-0.004908799744474014,0.08809702726847343,-0.18148670997461264,-0.012810871917810813,0.08299546508132075,-0.09899375111083603,-0.011232913721842052,0.04753974056480075,-0.0707028043283184,-0.12142091134185828,-0.1445020730026593,-0.0017080317693635842,-0.07948745732047371,-0.06453584911448373,0.08442775578844727,-0.13197254600550712,-0.1752671091014364,0.008368881461356868,-0.12853164418201324,0.06393865454084362,0.0023817233984515383,-0.1663933578662709,-0.048430828484523854,-0.06033768835985772,0.09629435346933676,0.09447125018791064,0.1354201334920385,-0.06748122327492499,-0.09069821172767353,0.15057671737663558,0.1307995494774056,-0.2178161656966152,-0.09085725509764724,-0.17043572234296744,0.031180123422327462,0.3070176351336491,-0.050388835569567275,-0.47880453659810207,0.30919272722343816,0.10941312412116928,-0.04295104006443683,-0.06917670299790746,0.19400062548367353,0.13814485631483975,0.04237825312465924,-0.19353243567867495,-0.012080038007506013,-0.02747824978336682,-0.03141272981865216,-0.19216288680874538,0.2653167128212116,0.05537612430707297,-0.10688415963971182,-0.14840554111424992,-0.06805100816961365,0.11872466137839863,-0.11360397399331622,-0.051354847406132095,-0.05361114503950468,0.10456375992735434,-0.06416417122329457,-0.18772109384513366,0.08533987707270363,0.2082437262405596,0.024887445023315122,0.1413069786934208,0.14120364263405719,-0.030566473316802657,-0.08835448834799507,0.011324410951025266,-0.0448552827720991,-0.04366910148036761,0.12737473026866566,-0.07572587311808318,-0.14003259640136043,-0.25193967507895404,0.10377268850062425,-0.01995079136174785,0.046267059500778404,0.02506307946422737,-0.0013126963646989864,0.04781889523437858,-0.2736377938960311,0.01759567997607594,0.0025507779932830883,-0.06640202765590834,0.03503308071453479,-0.031194692887571297,-0.08412623308168979,-0.06895412311716251,0.23637345065519302,-0.12616687099894536,-0.13195402712206933,0.18412178859293524,-0.1398376585956206,0.08214713964919021,0.13952772035713137,-0.16908709708943162,0.0385134072433822,-0.11426190125457114,-0.21502290657127907,0.03188648752460579,-0.14200977845275806,-0.10550977414772428,-0.19068317580596028,-0.0716658795241496,0.03373854127651877,-0.018479643544445017,0.06514993740027897,-0.1415541127006088,0.1107161700950096,-0.3727253405757284,0.13119106980145714,-0.08982376277513189,0.17874051482874095,0.06110974196139611,-0.07424270753011553,-0.07589753928226865,-0.11811051757598316,-0.030395974578468495,0.041528436270738704,0.23056415132539768,0.06114881860059287,-0.03240698407842749,0.19851005305540584,-0.10968638322492766,-0.05848332168210488,-0.10599177506909589,0.006095756633438738,-0.10532674372434582,-0.03182138368944233,-0.03824977653904408,0.08299133474180971,-0.21154356049637055,0.10851322190654814,0.2285952974154517,0.06445179865579734,-0.1405502031967914,-0.01944813981802758,-0.11006944045480134,-0.2687844758127898,0.1289882285161136,-0.09902477973536795,0.11259320628171354,-0.12899472310844637,-0.05760405178892466,-0.0633505008986906,-0.2718757993501889,-0.06851929623636888,-0.15907253949447656,0.1897200805925712,-0.03865271603656979,-0.04740853988314975,-0.07584865987763088,0.049000121135545416,0.08504176642022832,0.15928602274497308,-0.06856285344847922,0.0867407127832346,0.060347179581852275,0.06950871341266747,0.1865320113456315,0.2753417732003665,0.1650103011800785,0.06607904918754601,-0.19390816665799768,-0.07498410996966406,-0.06637270085079205,0.10432891003875717,-0.4320408649556935,-0.049399930174621964,-0.12584805730477133,0.13986839336676135,0.07664943832536902,-0.005560045486785689,-0.188296439067022,0.004866274426504943,-0.16676333834559326,-0.06963723598338546,-0.12149501459102234,0.02752724686370262,-0.20850761033277748,-0.2965064163798159,0.0493528362004835,-0.06928405127752679,0.01727148303741061,0.14386645186084215,-0.03596720818552187,-0.016881801965040747,-0.3573664070764125,-0.17032282950635388,-0.039342271773375785,-0.045163018813614626,0.16772971783377438,-0.1382094702074414,-0.1629364797270008,0.10936477210992814,0.09045349821070178,0.0803511415810165,0.0747541345695944,-0.01222327344013167,-0.05020166730154315,-0.02723182794397623,0.005482275412192423,0.17292615306815412,0.10273383566358932,-0.24996350608560927,0.10189520233498417,0.042076091189381284,0.27950158337656944,-0.18352103633619182,0.2178901508426766,0.036207016592920194,-0.18247189874785005,-0.012575551363686157,0.010009085995205693,0.05673589495585371,-0.27133870052316533,-0.0019549270923228113,-0.2502981480616036,0.10645150632300136,-0.045213049776051034,-0.2095344244520242,-0.02876684209056563,0.008806257972468898,0.26341107138484826,-0.07297637036317488,-0.2605800394535422,-0.08605299153140007,-0.018089856730975525,0.07984273203954727,0.08376775734241663,-0.02844396798671018,0.11754339275413865,0.05454884940085931,0.1209023089588199,0.10131509125916276,0.059308288017295346,-0.025265292900198362,-0.20063901635491938,0.018404038404071912,-0.2386190160897774,-0.08631749725268681,-0.13728984306782982,-0.13183645113284756,-0.1601712154281875,0.032065970534032213,-0.13524061423052647,0.12161933730034072,0.020138593649854732,0.006401405835264603,0.15426184068585433,-0.05255777891246014,-0.04741375331150708,0.2692384963801193,-0.13212543558415052,-0.021946346591958436,-0.18113170250046715,-0.1025851167002792,0.047219713018239184,-0.03735788314781987,0.16065150564577607,0.11728874756724414,0.07821435800163701,0.1506050329807069,-0.01700964229538957,-0.19669621313930993,0.0866631651551438,0.13123491602118198,0.1743387182535894,-0.1939201606214099,-0.14143091644194428,-0.2208248149776536,-0.0632473523639835,0.009096318440934602,-0.028205963208973745,0.18288267972350986,0.046853443684231236,0.01737666094228036,0.07276086254298761,-0.07531825855544465,0.05279299667712156,0.25870343812895685,-0.1908612901805062,-0.3059231076781084,-0.2038958017297239,-0.23959404460863204,-0.2476895407137457,0.0026145708237016825,-0.14936367186291877,-0.04109818982897032,0.36538684813219147,-0.039530156743412974,0.02789287559474727,0.08749776273190817,-0.05057936405466896,0.007163822021124095,0.05253917124096783,-0.038169861738845075,-0.023760909871263825,0.05789904000018453,-0.1733034735369133,0.23521587433812438,0.2812254485459574,0.05496363289249253,-0.07161895537501212,0.08379117644108001,0.1385101850307216,-0.09376671212150461,0.06244643686221649,0.16934717061068855,0.01357699203345567,0.11661190205320501,-0.08596634336246392,-0.14787319672147187,0.07189182100758729,-0.3063304018092042,-0.048985325093945174,-0.16862184977082453,-0.12075854680638086,0.04032865980897017,-0.13846281831033377,-0.0960321552621969,0.12087406623456755,0.003216574780290518,0.021776908264016327,0.16550727765791096,-0.12144903952003502,-0.06395884003151726,-0.295230384853369,0.0284989648724962,0.12341295342824211,0.3522524895218656,-0.016621612693015073,0.18658069010729905,0.29586841448823403,-0.0006111847094276618,-0.10510206427587059,-0.1879816548584466,0.0335883337732432,0.12075857646129849,-0.09881232302267118,0.11674964002914173,0.179482662086334,-0.26354584129809383,-0.25522990239046495,0.13874324404111832,-0.09066615014357594,0.20863977648678605,0.015541043701603072,0.18444944819271847,-0.22397738890170263,-0.07359639301627435,-0.2176400578702709,0.006033570761487654,0.05791492624696808,-0.05501431477703985,-0.01098976588338224,0.015436705134274933,-0.003588385559075697,-0.03402319357715703,0.09438049846992883,0.050976898764758666,0.016114725519894166,0.05911773572832377,0.13803785839444319,0.1923895212935813,-0.00584836806204231,0.009533247745730795,0.05673324650114871,-0.23687187228794016,0.07317687900687025,-0.03407622097821428,-0.18704380152754782,-0.012085346226887122,-0.23434716122601948,0.09756067552750212,-0.1346827555938717,-0.24769953927118338,0.12972006198114253,0.08873068362602501,-0.03068243572888051,-0.13452944434199707,0.24156087101308577,0.08824238822152727,-0.0039738067085694625,-0.06180346835920615,-0.03407994750219414,0.13030055012279587,-0.2917986967665171,-0.10359247904410131,-0.09115201308891466,0.43736181716722616,-0.01494131218670716,-0.006546556992223263,0.05137288022163087,0.082041068634624,-0.05157498670785331,-0.022383195452160956,-0.053892937573301464,-0.2544070270732449,-0.08853884470416624,-0.11740108286141825,-0.02107952583071394,0.10912570744693746,0.14245169863961693,0.04294308048492657,0.006762470728383116,0.07812755284344575,-0.1609858984344221,-0.17243361128698795,-0.0747341302521976,-0.14806670304233138,0.05042931173768289,0.11882751723380469,-0.08437600549514392,0.07014802507028438,-0.011798331928542969,0.12551406067894635,0.2076827238920325,0.08087441349287225,0.31680568772299683,-0.09158706608246064,-0.06270241304620061,0.13925228858974262,-0.12030209482206998,-0.11964196330693505,0.03497258033178876,0.2404417199403662,-0.07531828529299218,0.0034929302395841403,-0.14511595695570034,0.12905146106856372,0.1252522769940393,0.23691266759425236,-0.05358500130988217,-0.05910791163414246,-0.26494810939230035,-0.3047903358479737,0.10988640662377346,-0.07106339881362336,0.10873689988470957,-0.034958839427306425,-0.12690747183923173,0.010033246941732639,0.02468284121368215,-0.007968259520560688,-0.012812608004612919,0.13725109911269526,-0.08942351517243013,-0.012603949868866943,0.09491809327889225,0.06976131874383826,-0.04720564995944976,-0.15214417337752112,0.21519739113079053,0.06127944999324774,-0.028592726872229777,-0.019920929509409376,-0.01033356658387548,0.14526620840239612,-0.07268359823439756,-0.013550787634179499,-0.13662327688240355,-0.12622789241084278,0.023472746967399878,-0.05799174228813919,0.23014098130776534,0.11407022533216375,0.23105413628083618,0.17856626216408925,-0.051477935502803655,-0.12170590773368672,0.019169135925326496,-0.030714472663053882,-0.1791203214499916,-0.24267877016400163,-0.03997988354591353,-0.08577259430418946,0.05345111339296563,-0.029855779661532845,0.021222587300357303,0.019617067619793285,-0.00005702131031337284,-0.017900637610747377,0.06882128127072433,-0.02493690669322691,0.1082578898580991,-0.20361516860686968,0.303974552048915,-0.05865295821726114,0.12166528775260942,-0.2446479348501279,0.18067014581240798,-0.03745519281440045,-0.1678605196873095,-0.38056858764471996,-0.003857066682168706,-0.0649881437896586,-0.07147991272919993,0.04854574191989042,-0.04931683296376038,0.046182696273490365,0.21749451322444094,0.0003341974494881693,0.05600595696672058,-0.013404340265684688,0.0108322484632083,-0.18237889568351345,0.17985251026202045,0.31918009189085794,0.003635613672370351,0.015750538477122468,-0.02681068558832653,-0.023819605588035798,-0.06494596853678844,0.04933595013104766,0.05661005652813171,0.01312705931123475,0.05247622043695132,0.052827182399859264,-0.19922022050709717,0.11192093113090044,0.18873427953628724,-0.13022764576545973,-0.04478090632770256,-0.10801539568215111,-0.05027776810487073,0.10316432605949878,-0.0304175829780569,-0.1444315381001357,0.004952787655147722,0.1446146963558728,0.017787382204220974,0.14887743095230094,-0.19189023859971643,-0.039851781344934174,0.0837792326500343,0.1491895420240433,-0.2152832410932986,0.007207292687771988,0.23448482580634714,-0.08265589390465582,0.2809055483561471,0.03885266644370401,-0.025065133605398332,0.23777266058779425,0.21264728025827948,-0.0001363879791592862,-0.02213749934537897,-0.23332057728767536,0.08787210368650218,0.0664937092045985,-0.08815904013132739,0.03498073061143973,-0.026883927653409093,-0.09002491564992009,0.08257457919280667,0.23299476586976905,0.3348929523108397,-0.27005102609398934,0.16294045565371365,0.025926206415108448,0.11314978485947867,-0.0924534264934063,0.18567075517192974,-0.15903393935266882,-0.1513837918712666,0.20689028625413794,-0.1277316298511526,0.04200798802315076,-0.14636124929024927,-0.010160398476474205,-0.04571709815732946,0.20282415576976964,-0.08999724111519736,-0.15646739156976583,-0.17317924430531978,-0.1213851839194326,-0.22708995548429398,-0.2777441053232945,-0.3768539826817344,0.21708063763904437,-0.19462034434730044,0.23642817789718196,0.04052364634129943,0.21847297685680797,0.19190188502784494,-0.15872413271047894,0.3606381650840216,-0.051214435605586806,-0.03410573402641269,-0.15774544424483652,0.16284577592186128,-0.1972980637240449,-0.16514035471142502,-0.0029152002857122444,-0.26057550031645127,0.09627448499054354,0.13860303645441033,-0.19322030349133335,0.1999187866651057,0.17222350367422637,0.11565909230527431,-0.2569132751268365,-0.01759130856210934,-0.07947154255903421,-0.10950898169613715,0.001834852547007673,-0.056025238818729096,-0.35053960758997005,0.019207895057147026,0.019904737266450017,0.015987326704557082,0.0636202773950916,-0.2562128891917157,0.03266857668172147,-0.03679696677277121,-0.00527944482688556,-0.04750469042820747,-0.013729667185024084,0.006188407747511774,-0.08034440245989942,-0.24137024751273833,0.11818984854034012,-0.15672845082232284,-0.12114723871472949,-0.2988744467346392,-0.005438631197442968,0.27623291318581683,0.013247493568972936,-0.21848159348124382,0.030604440988643487,0.0704767399883313,0.03835955605552309,0.11376954323980479,0.0006650952898887199,0.06973568026704838,-0.11859380910130603,0.1594208545117011,0.036576873759623145,0.1688920746964469,-0.18278884498866463,0.06730471416630804,0.26960051116604544,-0.31670707274292265,0.18004376525312304,-0.14913370372474,0.15364880952155235,0.015096448100322929,-0.2643587982669892,-0.156581730433056,-0.08985495712719156,-0.09602176080380043,0.029349780775395223,0.14969173735744448,-0.015014575336977141,-0.003370126685292973,-0.04270227900060485,-0.1713617089017308,-0.02574915508863772,-0.16339655162553304,0.16064232646962112,-0.18668444114258384,0.03773139777263606,0.015602050439810897,-0.00661890412789387,-0.010155869670081245,-0.05457110654988274,0.2624906649305987,-0.12057822214904297,-0.05815083979781039,0.17437623459203808,0.08783802345955481,-0.06536972865100192,-0.04785288856842291,-0.01398482673994593,0.12705918307831957,0.07255258202447297,-0.19650556770316285,0.01862670726227359,-0.18125886002660951,0.154404158037023,-0.08059591251692085,0.003782310043598741,0.25691228536864247,-0.04993922862542188,-0.16163281987444922,0.21876350158415314,-0.11943899108547457,0.07158056370188612,-0.3284527255314096,0.005150760749267558,-0.2542007353498786,-0.21897730104687602,0.12941662024632045,0.0716900459689656,-0.19852708100474087,0.39731591447309517,-0.03584047805771156,0.04791796334495006,0.19530109718357214,0.0525020753011106,0.16478810326484805,-0.15063874393969978,-0.11918879355434463,-0.09375036568227967,-0.14143692638677846,0.06879401351012801,0.05259512581771579,-0.0779538267230558,0.06834571248216376,-0.15394045318142097,0.038278453509865196,-0.10412129299395922,0.16098620339534903,0.5067357777980815,-0.33444386137417303,-0.02222880502260689,-0.09511702974652596,0.03185975963322192,0.2090976193659978,-0.08390688391513698,0.09245005225762387,-0.021729995211649027,0.10157003391216879,0.17949298092330643,-0.15293262262881938,0.16690588695528036,0.15573068281338992,0.0925259986991979,0.04576373300197727,0.011511501585485582,-0.008352501298990133,-0.10604835846587768,-0.2476395114178795,-0.10552352763705672,0.22835657865108538,-0.016163921851670968,0.05878419000100299,-0.03296352128261663,-0.026322260511952206,0.39177248350980376,-0.2736536582231859,-0.21504176181911963,-0.13663271785339576,0.09062504959695496,0.13291846085853257,0.05900772296161161,-0.09362936934343734,0.07459890782930681,0.12617066718694833,-0.13716248129061182,-0.05758188844115592,0.0034235466578339496,-0.04876572479236261,-0.0025517369535201615,-0.10140424075939201,-0.2342564421957076,-0.1054922577958319,-0.04957222729646037,-0.12711412247669898,-0.16474697203968683,0.14960274233010093,-0.09318735336230766,0.09596806334090528,0.060323232805027216,-0.22405700403239504,-0.12665187009014806,-0.06302978181953689,-0.02515884331266434,-0.18877744870241941,-0.26760525673217966,0.004594704914827506,0.08210873471997301,0.1769079931541622,-0.015645144112680122,-0.1500713956694405,-0.13486041233849153,-0.08310241542486953,0.05119038520684949,-0.2135169525220752,-0.15381311540064307,0.018172143557160982,0.023658214027682648,-0.06325558713350599,0.25038166678777557,-0.03970938060755893,0.20591774597427373,0.1889540039215502,0.33365959050714233,-0.005239372837884294,-0.052338783872157485,-0.10662776619920068,0.4560966631915939,-0.26031713237763116,0.1286119290517389,-0.015729103259673142,-0.036183933409218764,-0.1268825492920825,-0.043885186293629724,0.3102538014285586,0.1723207232467517,0.26577512729886865,0.04192801674767567,-0.1678639047990311,-0.020086898267636873,-0.2769306361689931,0.055687290069438726,0.07618126472148137,-0.1350376626058816,-0.0873136581271983,-0.13278543468113388,0.0813953448844677,0.09868575138250273,0.15969023179762334,0.03047313737733224,0.06871540134061603,0.29055578226191964,0.023965199170539228,-0.020323077449871333,0.12731392674580078,-0.15310499909377387,0.0032888004997748102,-0.04861340572274481,-0.010611339161129073,-0.15834314397190796,0.3016959072001721,-0.11632292838940016,-0.32730031203521276,-0.14629173162326145,0.07488438367534003,0.10595135549696175,0.15780947513458574,0.08889535816635545,-0.06482801540873034,-0.17734747358530822,-0.07628491441345607,-0.13315796854867523,-0.1502477713731342,0.08420600122165746,0.16294711856720157,0.13204482755347757,0.09035671311345017,-0.16944228484238286,0.2782241579076355,0.0273706805345926,-0.3240072184823533,0.12484714890791077,0.1259495587976107,-0.03315918780547717,0.21268707813087445,0.11638776256251437,-0.01851948950446024,0.1643952350937968,0.10572652419828026,-0.10148000132198737,0.11125145521983121,0.10255620922321357,0.21654378784591505,0.07163492793554727,-0.16000957641909727,-0.1627392635358923,0.06347750393491475,-0.021481672631950402,0.007585493525717473,0.02754641584489086,-0.007639717380214331,0.00793654473134467,0.09319608080695577,0.07715180064192056,-0.06326341086816323,-0.15905985487854643,-0.08309813101120091,-0.09559081408705236,-0.4221859334714555,-0.11061125646126535,0.005299001061036206,-0.051413744288871854,-0.01587839025726142,-0.27978339163969246,0.027547231551281907,0.11095713374350805,0.04135550653548817,0.2820613275542948,0.09086874039047603,0.20620299409515935,-0.17973526431994707,-0.012623233127783205,-0.14308143606099194,-0.15429729072423584,-0.09358496122115967,0.10495512267531071,-0.2971571807624225,-0.055415066721914305,0.05704586055873633,0.03303641664100369,-0.3163235523316727,0.032627758695019715,-0.0656105657012748,0.19242888214870643,-0.08199569281952633,-0.10243299446667939,0.0672584019726796,0.07592972502240967,-0.1375918648992716,-0.2026127399846635,-0.19511540412674136,0.15524618774400048,0.23516639482174959,-0.25080620025476474,-0.014242988172919725,-0.02856743787721617,-0.06608277057992155,-0.13069772155168138,-0.1593895676025137,-0.13519505293792147,-0.10242702439736338,-0.22148280920415925,-0.16488039024177886,-0.009558535196824208,-0.22125795292343917,0.10161163972374478,-0.0293969978437874,0.0693251176700348,0.27498645070930683,0.11638240230222001,-0.1934392936922397,-0.045212808879181006,-0.10150421014287686,0.15371719550482504,0.22564696946446286,-0.15160348857312228,0.02289775003045256,-0.48256424357366595,-0.12468269242521902,0.05776093722395216,0.16881642509675793,-0.25584438023744105,-0.06473109777017075,-0.1784207441383169,0.275468330869632,-0.12002158872508031,-0.15240913365922007,-0.20315695679768966,-0.4590354490290967,-0.21285372640946076,-0.12835115547603507,-0.03927874160949302,-0.25836738827499595,-0.1071977859030732,-0.12269102654889966,-0.2212273612919494,0.02554801292208686,0.11553019311691425,0.07454200253570507,0.0678754525607235,-0.09859926819105211,0.0030531680063131833,-0.1295715989236432,0.1341769438979839,0.20562371513386882,0.03286472828584266,0.04526572500281963,-0.009735684573420824,0.008256123501323334,0.049860967184286516,0.08400577050004206,-0.0027151621452361093,-0.018077501216553646,-0.00490697924629513,-0.049089100290149616,0.2009067461567162,0.06326368150305597,-0.1311715407244043,0.3267527864970177,0.0596056926030337,-0.096831839916024,0.08902797762835735,0.05532369214089265,-0.16762082512135584,0.02844861067133664,0.14216991825183262,0.09339026005456817,-0.1231269999378087,-0.2131770382676509,0.20567664879358696,-0.025481534360091578,-0.03591848847303371,-0.3044738812787771,0.03149682403084016,-0.10334693055920473,-0.0028120290170282045,-0.06305394586979608,-0.14307258121131286,-0.1541476838686093,-0.03311970485181411,0.04545912471211003,-0.0809691517099899,-0.041633946948525964,0.007168067345647725,0.0653894585417008,-0.016313638930008256,0.029748267291798674,-0.14570256723938438,0.06175015664992747,-0.012737412856043804,-0.006578610944863842,-0.15936326138621465,-0.03697264907846025,0.02644882069401951,0.09232123870993304,-0.10603880744722533,-0.2477755894661947,0.18158247747160608,0.08298742147139423,0.012515820449479558,0.012771495453871528,0.006883184182439107,-0.019993750285722166,0.10212806904403303,0.15039306279775036,0.10498001186643853,0.15506400321151242,-0.06382211484027327,0.08562040807753844,-0.14041557494880227,0.04032580271029519,0.12380448511260206,0.14779791722000593,-0.040138443924891534,0.012861792024404193,-0.09829592165427994,0.20037602527330775,-0.013983251890580795,0.08706970687920823,-0.04813092686950828,0.11570660110926308,-0.21162796470765124,-0.3662979285828921,0.05369718188310379,0.0348087217690161,0.15740193829439672,-0.03363195856772656,0.3029098367207542,-0.0728660388341005,0.1825050425692669,-0.06718130747325374,-0.11407419619724193,0.20825770937465968,0.10049083059101109,-0.0855733012822908,0.14531525723402416,-0.08453012493689928,-0.0861347235927663,-0.15898850057647174,-0.009831559559621969,0.16882615181763613,-0.1664815403544252,0.2857559597187106,-0.026122081011645076,-0.143747421218779,-0.164146868695268,-0.09930682105196548,0.22670030186289764,-0.07229769489562017,0.1151302050039277,-0.08112157568882085,-0.08856875199915595,-0.13660818413697715,0.0765138652569389,0.11013186602062768,0.08644953674472837,-0.15026807068867595,0.19152829693476958,-0.07905918311532271,0.1612586901278567,0.06027479671646769,-0.1118728355818568,-0.1049602644564828,-0.011380486813631375,0.09266488317393472,0.014871828945723402,-0.09243781124646794,-0.04459217805584267,-0.35530742204542815,-0.4032726471001669,0.22001906399436705,-0.14458484290956292,0.02137644863397392,-0.008861652248682099,0.05698113224860289,-0.34249185920964464,-0.3725280729163269,0.29805171351123777,-0.24773644216826218,0.16615528799130336,-0.0999787708035292,-0.02122655404082292,-0.15676248641733057,0.3008519004401206,0.2472899323860506,0.0028607653549711375,-0.13286328401702244,-0.19979531844293946,-0.10710188185838947,-0.18567290612980333,0.37458649391540927,0.009813081336705231,-0.3516724219871454,0.1527164593635278,-0.0037243993343794666,-0.1440041989872666,0.0155706989497515,0.10296578133232616,-0.1277964731074513,0.21494618678335609,0.10735656471199867,-0.08478000193013291,-0.03907419288821424,-0.26811179253449235,-0.20247078714020894,-0.07780774627983711,-0.017354696172555143,-0.17765569445855675,-0.23815062685733496,0.05704876576408848,-0.12385086284071638,0.07156697652943612,-0.05802153803016287,0.05688555205515172,-0.08562621974822242,0.02972709894356536,0.06744902364495473,0.14588485987405597,0.011855004021963706,-0.029468370229148836,0.042122126304048636,-0.17683785470018487,0.11552631591207252,0.17795460134225105,0.0686793543432936,0.09487842673285492,-0.19247885229917283,-0.13836617957557962,-0.11297786029739276,-0.1831044558923634,0.12985014765290243,0.2761808552208207,-0.10447932122435752,0.015390012912374278,-0.14963796470654003,0.013694828991498742,-0.11027591309675971,0.08021814985775089,-0.10968094715882572,0.026246177794369396,-0.0019133642230086858,0.13646673492078468,0.00927522992296349,-0.04045111866029327,0.09251117761164557,0.08084291606315527,-0.11796725861934493,-0.16798347059118054,-0.007838457502935455,0.11807813878589712,-0.13588981534201727,-0.005192321602089085,-0.22242476556711055,0.007278570931189781,-0.13694698814133938,-0.03710940999946558,0.12463829120191126,-0.07690368077405883,-0.13545528382777766,-0.1868412877070301,-0.1350027294685256,0.2177791632447846,0.002620286491725066,0.13068046016492313,0.2784447603891291,-0.06255422112843136,-0.01133038982137657,0.14094387504984196,0.09860238875142087,-0.01701802273581102,0.08630624795724297,0.05783719598218232,0.19082524364873424,-0.27586482563009623,0.07577859577639734,-0.10082276224589548,-0.024045523343863385,0.15891775238192346,0.011128528460710723,-0.12818264740952112,0.1545721065174569,0.05419332934797106,-0.3830812938416952,-0.6684354258897295,0.38265213564889655,-0.12582169161838866,-0.2462351105983498,-0.028509578440841125,-0.4382315937758196,-0.7719692804990543,-0.15520120964228015,-0.40520335290651777,0.08108037135701708,-0.27909622114981925,0.19631841603942576,-0.027257779836193825,-0.14219903045362864,0.020073042304845617,-0.6250006316950121,-0.0319442972605665,-0.36515872909609626,0.13759924811597113,0.6898097107376667,-0.019560102616391125,0.43223715809472085,0.05306705677244818,-0.18427344991866404,-0.019952190166535932,0.05280365740021605,-0.02848622242231193,0.10375886708654168,-0.3726109438334962,-0.4313581290756861,0.042487044600700366,-0.19775735182304274,-0.008360741591711648,0.32156944770355717,-0.024014603675524483,-0.05584604653425618,-0.17742633320713458,0.6208078360542869,-0.11836945762956079,0.05756641525691399,-0.8636441950022405,0.026382596522323425,0.046024514347116185,-0.20783672222316432,-0.09939512048019367,-0.10249392752967625,-0.17245310134930078,0.06808861226708694,-0.07868656946005217,0.07577385222656009,-0.17796060235368558,-0.1051132025123858,0.022812493710865977,0.006510663103135693,0.6778590916137087,0.019341477210922307,0.2259720404013185,0.0037176754794292274,-0.10907242946102068,-0.20462501039560418,-0.29917112475987073,0.15480844953356726,0.11178631317791721,-0.05861634889018614,-0.6713210076097014,0.3319822934451976,0.7187456523218284,-0.1786749560945244,0.020722822605667567,-0.5898317958202896,-0.2740572430013071,0.08024033302583555,-0.3239635072057173,-0.8060828431983457,0.016274697206014637,-0.6965595849045801,-0.08121313381563242,0.21820027170981432,0.27250367461592084,-0.719217119024287,-0.0559349731527158,0.08537483396909837,-0.6310520554975316,-0.4867599000265359,0.0168308555716483,0.8317304335136988,-0.2929533004930878,0.08853975416883916,0.04255868759319885,0.24411522833001528,0.12311763496706533,0.2186403514982907,-0.05309473890058699,0.17494530412107714,-0.5490984581960877,0.0985978535652325,-0.36684465260779214,-0.08246583823386011,0.056023802682616954,0.06609386363404889,0.26354951905280044,-0.610108395642301,0.40931804380473263,-0.03203544062637054,0.005107831433834505,-0.17884050476248337,0.06306573303760003,0.04431185110458883,0.4176043835071538,-0.25184012092738167,0.16955384084821215,-0.44322250365306387,0.39218780223555755,-0.06142895818007234,0.13419519776781763,-0.22379409987973078,0.001104588550573473,-0.10994296836464348,-0.2008017508511931,0.44994032308648174,0.6268271189744786,0.6811374104491216,-0.010297286809083544,-0.025938920931191083,-0.4555234327307792,0.5619561515189435,0.5201758716987339,0.6646861149461903,0.04761673976259427,-0.2434207559449051,-0.05236577481470262,-0.18843994591799884,0.3276377941196543,0.11107793793680601,-0.04574665654563813,0.28120271482936543,0.3984654617914207,-0.11426191049540178,0.28236714295483956,0.15246594839176014,-0.09542272841145355,-0.3006506003295209,-0.08236976177884696,0.10290183625507128,0.08355864824543009,0.7259751888818139,0.4477395902826388,0.05747149014099725,-0.3808180581266414,-0.5851815183438247,0.10222413523324085,-0.742977618839945,0.1952722731528732,0.4923786628900775,0.26707884459355197,-0.08018515604213886,-0.8591238362348564,0.256089135466294,0.7427019908535124,-0.738967330037528,-0.32719542804050544,0.2015178548462825,-0.7138965984615715,-0.39535093575385194,0.006012650898766882,-0.3792267515815376,0.00019766429475785672,0.06727732052418064,-0.6322699212084248,-0.24207817071169416,-0.2767942275372895,-0.6745644202894627,-0.010619617082724042,0.05672824898329785,-0.0459111290781144,-0.046932621382689964,-0.4476639349335566,0.8480145618662444,-1.0949698974178284,-0.03530500498419012,-0.37165941066494734,-0.39358776014290464,0.32513418084074697,-0.2943938753409877,0.511151794271269,0.009549690211800774,0.027421958107033174,-0.018874123084022455,-0.07135419684756354,-0.3221561249942082,0.3598554706440201,-0.2825935687549146,0.1567231520677543,-0.019356071972047202,0.04427327424560529,-0.14474852190376722,0.05674356176843941,-0.2708691969000498,0.5672333407745676,-0.20972013563278738,-0.13222481620966856,-0.12042311782526376,-0.11823221723178083,0.14234198505366247,0.21361806173245743,-0.05569756728554401,-0.5757623821938012,-0.37199262203031513,0.03244879002833377,0.8689362496895852,0.006705819942033092,-0.03721367042011567,-0.13216118741315774,-0.46744021262019186,0.08570029590486829,0.1349926818595681,0.1541602740776684,-0.3925539276459055,-0.524175840617921,-0.219720716893032,-0.08322338450537815,0.13946166724019277,0.017915705755988796,-0.2232308929711942,0.04394267799206969,-0.057933125291014555,-0.7886857901237068,-0.451190382626033,0.03724725126185346,-0.20162202223511158,0.2731488850411846,-0.6247719576722739,0.06901466539660328,-0.7549950004094963,0.34824651501646464,0.05598550638667658,-0.043507132153302396,0.13946518712314215,-0.2100210043805733,-0.062055641722967896,0.47639825462068724,-0.017610566626715778,0.029763066459215247,-0.20380843656793957,-0.009105421659232508,0.3189498703962801,0.15912851744389447,0.03120531466545789,0.34517961266891467,-0.208741803355771,0.10978312724534052,-0.11588841282350906,-0.0782838822850487,-0.09587892018737366,0.08665073788092212,0.03942277362510288,-0.028518081379365474,0.025348395265756593,0.025571919167514272,0.03036885091957747,-0.13340398335192166,0.06774084119214199,0.011675125020362108,-0.24460027868376027,-0.0021935112901747796,-0.12160671385870102,-0.01473172067933308,-0.013601937602445522,0.09565735596064633,0.07636412301007293,-0.06858504365994801,0.031121922319322513,-0.032506054096723344,-0.07295107833174372,-0.032647996198103046,0.05970503436394211,0.03152009586813823,0.09750222069168407,0.07327240596343473,-0.026870921277505042,0.009870471044979616,-0.05692336882658839,0.14105731013042422,-0.10379389094651867,-0.07804113030301167,-0.16027214695736205,-0.06889710377497003,-0.08730354419021033,0.03767340402905288,0.14671502393729383,0.04214413915351684,-0.05311094954213097,0.054022785948834244,0.20884279955575377,-0.15990725401433645,0.1383315837435249,0.11572324582466077,-0.0935612303070477,0.019462259894899997,0.18660157098309943,0.141290274578101,-0.10078188842465473,-0.15451452750509273,-0.08232642816412644,-0.04524545491036491,0.16409500669672766,-0.11209664712337762,-0.10327847336057987,-0.0922219188717638,-0.04163915732773942,0.13054717768149038,-0.045826341242129115,-0.012958402613342709,0.022975841529477972,0.019224373710337802,-0.18439257883168142,-0.06447826459612384,0.10364056395441242,-0.030572515707265345,-0.01996686287187227,-0.03775275676356528,-0.08112875073556815,-0.046589129407204624,-0.16762677027380116,-0.06294652566082852,-0.0480734161566269,-0.07352329383059743,-0.031106609458594316,-0.16992915547779924,0.026418376323198368,0.12817626987186861,0.07375268717439253,0.037053416877262976,0.15024229868963906,0.09108399098522933,0.040180142350979345,-0.059166878669324525,-0.05011148433987025,-0.1785469206096577,0.00032122116091387094,-0.04130257288507376,-0.10939620038537434,0.10797817405811484,-0.12159090452891627,-0.10959572641611752,-0.2062473935550196,0.13098114488350143,0.059359444767161505,-0.1924669660860329,0.02198544193067692,0.06945534033860766,0.11649534060902152,-0.04630751056349,-0.03409259964908845,-0.08466218404786116,0.2163432458444256,-0.2454057330606893,-0.16216261895396888,0.0753455359490169,-0.09563488164426387,0.010537873145381597,-0.0359088036117807,-0.003894396085924261,0.25932136507530235,-0.045416660698757785,0.1303238085053917,0.20273113191683406,-0.1792400585051302,-0.01368085639658151,-0.06681147509791656,0.15374066390155694,-0.02420164447417902,0.025659576615543835,-0.08777786015999303,0.033499443750341286,0.15916348044936057,0.06654992101438503,-0.15560066221400495,0.01299264531121053,0.02310483510625192,-0.0020379304248987697,0.06797419115047532,-0.05462401857880479,0.1505902143392561,0.19912768538508377,-0.07510867712127905,0.08223275968148826,0.08787703855667772,-0.14570258087965715,-0.18578631219430167,-0.022551452439999408,0.0472297610871961,-0.08837049163820206,0.09655228296809701,-0.14350819678395377,-0.06322930193106467,0.15509490821953992,-0.03485058129848469,-0.2749881677785569,0.14067524640461893,0.03245761027369374,0.03588660133709815,-0.12425842105167621,-0.18694114575020343,0.1105993635506789,-0.14370929045571512,0.0009905300318810352,0.04699371433221267,-0.20400256386138912,-0.022235009930619616,-0.1438071716432371,0.19419728580406614,-0.07092453475980963,0.015215639519283786,0.04084892940928121,-0.10462137315935283,0.09868845630847416,-0.06281873924452332,-0.03408591710669878,-0.13737409509730092,-0.043673403844127205,-0.03967889433888357,0.10609389664617033,-0.2461288586254839,-0.17881768135363824,-0.23333680127720643,0.29632192426596626,-0.17387814986473885,-0.19985137473013212,0.09109947453092367,-0.21927699490787886,0.0021986836936562083,0.12106726740475751,-0.08446653040940934,-0.11693096939337949,0.06272836293028068,0.23250260262939765,-0.1521521194904438,-0.0343313635105741,-0.3236696437692767,-0.15637412830396386,0.05333722563062178,0.06362618441634325,-0.17948286035909947,-0.0036601621639558856,0.08131389959885313,0.20113652060002565,0.0250318044401297,0.018343765379089435,-0.0588574915490297,0.031550828364856155,-0.1616642835964344,-0.0034885337270067103,0.21667194207823703,-0.11144661428771277,0.16623254875375418,0.15101829223529734,-0.028886215699485573,-0.16125771976551015,0.034527489191745635,0.019400445829426564,0.2533925134507111,-0.01996677885258456,0.23001400483838405,-0.05780787735128263,-0.14304245263141277,-0.062283107369621574,0.0484605990037835,-0.09001374515370578,0.12378830792448527,-0.24418277127616655,0.017963317359065156,-0.0070805947965246535,0.1630808412776822,-0.24295042418483617,0.020273229078666844,-0.0248332132395399,-0.022982627068843076,-0.1518778207678047,0.005663436442092509,0.13357125501845185,0.13188226615790347,0.03346295109397759,0.189536694323308,-0.10430080369040588,-0.2467445141574598,0.14961600696231636,0.03315355312321052,0.2549824869130738,0.0658705598371098,-0.012202149846841037,-0.044548017689920845,-0.009140822398282076,-0.1932528728758488,-0.0699285692254994,0.04334897923249129,-0.05851572659097863,-0.10936384389290198,-0.0643320509166291,0.07858415754145368,-0.03220525592861872,0.12894491610629275,0.01833246805944887,0.050482030729944546,-0.2602882519623352,0.08674388957124698,-0.04714644366584493,-0.009853424365307754,-0.2260706782485617,-0.06714487311345559,0.07045313233555266,0.00982427992639039,-0.06589952329281408,-0.17511032942576518,-0.019554174207248094,0.10137433057000572,-0.017160812663399645,0.15464951345862407,0.05789817376503976,-0.09127282717896999,-0.021077739977326555,0.03559648492946862,-0.2918628901175457,0.11577326064879384,-0.12938649818873316,0.005643800865149737,-0.00815741655335,0.0013598911620340975,0.02630886280559936,-0.009655709192967862,-0.14624536157695073,-0.16530108299695506,0.0029471152121001436,-0.1197416427999574,0.00780461256802836,0.07392778978283064,0.002715574369733083,-0.045443334964520146,-0.09934548848012435,0.14803939281372816,0.10279518459576037,-0.08644499727241052,0.07772687847629124,0.0067001526090665195,0.137901401770432,0.15445015471950335,0.2265932990731034,-0.12329036003953703,0.057428381358182616,-0.05563236543165184,-0.07625210865928506,0.12409308341299223,0.15630163143775427,0.025399844044890464,0.0777410280849806,-0.09015489552406512,0.01881528063251305,0.04486813061798872,-0.18218258987349933,0.09792634637037516,0.020465727479514653,0.12969510232648138,0.15848878590177085,-0.1694555150821319,0.05233869601094291,-0.004298497621504254,0.2147169205847687,-0.044572617734343796,-0.031682205414450444,-0.013739514668208812,-0.058820727534197835,-0.2502199581780226,0.11870658013470453,0.12365623593769653,-0.003050509072265944,0.036339056357027485,0.018006210826940105,0.04777743935274303,-0.018329900051446118,-0.18479692075429227,-0.2025141113617557,0.001732801801610863,-0.2758662791196238,0.09784266099543952,-0.17622845222731384,-0.19624675303050654,0.06879265268660206,0.042378034804501453,-0.023157282999897465,-0.23811561915586538,0.2757521470376112,-0.09454636630500111,-0.004447288041322084,0.21833570519838627,0.004818076248692432,-0.1038815188957924,0.17200373005656752,0.0014544039903162584,-0.274061042401264,0.02768208332680496,-0.22399318682734035,-0.08556892246117576,0.028538773755261503,-0.02445505355279867,-0.15685594122943844,0.13618045126331693,-0.014103549483530924,0.007672751415970863,-0.36344930049837865,-0.06329791133107808,-0.21146800648336828,-0.017076684801232506,-0.03931483190719486,-0.07342364385155362,-0.15009993103433894,-0.0902522821950248,-0.13414673155911178,0.22725912151964295,-0.04080368013765621,0.10443660181539115,0.06793191199631532,0.2734020842945316,-0.10352380271141658,-0.08472990195194842,0.13764757086911392,-0.07494124175365605,-0.04507322319358194,-0.1357361869708833,-0.03138483671795947,-0.21295421689946817,0.2094799075887321,-0.19425561004550201,-0.03127835959093927,-0.09899667125995176,0.25717982001372824,0.06192490198934496,-0.09355646067296358,0.06056259948605907,0.2639079280874703,0.038586402579641334,-0.20101257653304325,0.19893109407903325,-0.007497271537882429,0.24236939124916146,0.03231332708983763,-0.06632588033334585,-0.26611148530406287,-0.15004698356525328,-0.2886973371534118,0.19318453629340362,-0.12577840015936703,0.21955268283731819,0.009578331137071898,0.27087610424764114,-0.11042560431552535,-0.1002651128143886,-0.22178417084379426,0.053203042538965975,-0.1355026532262194,-0.03918674746389108,-0.21742630526263368,0.06269326063409784,-0.38968459810574546,-0.021843406902230012,0.025325141364168205,-0.16140791315485017,0.10005065815395929,-0.1424136692678165,-0.05988463371274929,0.12310119415173906,-0.03284278620748104,-0.11385969744038048,0.03821311526957742,0.028882923697764965,0.06476293414011836,-0.03869493748720355,0.13807460419562673,0.04986889731773143,-0.021423315493819657,-0.18715959812213268,-0.04070332011394975,-0.0491692880486888,0.04741870764193986,0.15767184251917993,-0.24850727009191026,0.03475877063933574,-0.15619422717123474,0.04797533452256819,-0.14401495366036213,-0.07930313668357601,0.19462056415244045,-0.06559744802095181,-0.22455772995351356,0.0757871990438787,0.02195527457737774,0.12872240831835738,-0.12967038878366693,-0.038862314185210904,-0.02148314574147607,0.2248818203200382,0.012321458768162461,-0.17736543087725393,0.0169855949842075,0.25558932200761164,0.004359075623565912,0.031174562458088157,0.09895141213571144,-0.022771328010859508,0.14918754743759977,-0.19115286800660133,-0.025569148654979692,0.0008861330012049848,0.11088410609666743,-0.17858628637782376,-0.029961830344442577,0.07854483072160773,0.021978441649208234,-0.00161501019023721,-0.15837222458467567,0.08536277441552619,-0.0796693188261677,-0.009724238958903285,-0.22676149633365023,-0.08274629529823094,0.21483647887694815,-0.12487326619068609,0.025192069703363414,-0.16236933615359656,-0.09924884539954659,-0.07398737397375689,-0.042072870941975316,-0.12193819281516696,-0.25176135447048015,0.17852245880662607,-0.05745370602191024,0.014059181699056714,-0.03739469596911888,0.01640603882782881,0.10203582782329132,-0.3564749942083122,0.06913359191459227,-0.21539902650620235,0.049484985078699965,-0.01994284887117207,-0.141933856247568,-0.0804842287551839,-0.2000805858089123,-0.025978296044541677,-0.04476980612150005,0.12606945746413126,0.01511703605039323,-0.15382585324048204,0.04575514622191651,0.14155039353826004,-0.04582951326152491,-0.060569591734360724,-0.12763239951038652,0.17393829558684024,-0.16674131098948827,0.13549498801446488,-0.09485515796483468,0.1820637352192235,-0.19552215187556354,-0.06442365382099294,0.022266632961148166,0.11507805771383882,-0.04944655752485973,0.10435646285463916,0.04278598612736201,-0.08358177316264184,