{"layers":[{"w":[0.039015013795164234,0.06565939363194098,-0.06437793191469368,-0.18520143445787535,0.17227652328338752,-0.004321372960139256,0.166424061075091,0.16072219288553738,-0.10449001445773685,0.05096551378865623,-0.07546370336915942,0.0549991557127508,-0.0520142358755574,-0.05654688613190373,-0.09927392537140527,0.11301569312524452,-0.0042347403679930395,0.015090974498775311,-0.14127514487703685,-0.047701453814475527,-0.06701387215494724,-0.050107017526198616,-0.19550002659841897,-0.059846153342066305,-0.13384909378859824,-0.021367480033299226,0.025908886851311135,-0.038025369502149284,0.026977233943382195,-0.011422136472120354,-0.14115225244795862,-0.001647303757135596,-0.06802130830160476,0.007177470194214057,0.1827596876021317,0.03976923667590886,-0.06541054089521806,0.09386587521882936,0.3266092923955237,0.1214182717484537,-0.24064896426964372,-0.011011989517264068,-0.006257742347623923,-0.09502548657629432,0.09190883687476947,0.04957230491692392,-0.07902462925915307,0.10637171034979277,0.05555976250819504,-0.10315621936122406,-0.15775855914580594,-0.024034880360396544,0.02640344950056065,-0.17274392879897504,0.08441207506483078,-0.08385048294611767,-0.19363772289357029,-0.03297661988870035,-0.06690485542551,-0.10004860285132752,0.05909429629300723,0.11835751235576825,-0.16463190010270987,0.07994597007453873,-0.1610667555145583,0.05827355026888071,0.06283879517103524,0.028121406812518665,0.07810551289192946,-0.15700062829519576,-0.023525512088605992,0.03897610750318925,0.1559279016114052,0.03560197327912309,-0.11518364475410546,-0.04067073965189606,0.029161150195284483,-0.11686765896956146,-0.0180415200671115,0.04332586033845281,0.13421997978658265,0.01286728414252888,-0.11574448078872852,-0.06346772956419201,-0.12768190667582863,0.057225817846311276,-0.12280530753867802,0.019971464884008406,0.044727233718724606,-0.11333993963149785,-0.054493709761938056,-0.02694260317626584,0.07930860182158052,0.08140995740175438,-0.1313515318385756,-0.02973337729313715,-0.059049278574324515,-0.16040861054319552,-0.19406912973272894,0.0780256014824613,0.04865174920407744,-0.23759287388338488,0.016661111259570368,-0.03694468808571297,0.06902403110255656,-0.04221672683207962,0.03732772109204407,0.13992314446859921,-0.03132125436691535,-0.011202506989360353,0.03293703358852382,-0.11545462291431037,0.057535819972573725,0.25618985401673755,-0.024323581229601144,-0.09164825017924022,-0.02552378168226167,0.11135299060431066,0.048207899900804554,-0.13244550021363258,-0.08071968878172077,-0.019011379443342323,-0.19717406043034863,-0.09606111969629055,0.01793167735481947,-0.053961401750386204,-0.14939876773145946,-0.11576250826807592,-0.05226863104098471,-0.19471664374971018,0.2592948769544305,-0.014395664406718387,0.06475813860416792,0.11166682750208681,-0.025165993255836332,-0.057025152623654006,0.001520578375486396,-0.19861450080020124,0.002085144681689139,-0.10540472735217087,-0.0993156401959395,-0.02584235141066091,-0.1252205359342283,0.18627623410727348,-0.057446315638271704,-0.06415239309065458,0.1375001621654888,0.030351476694310264,-0.005095981357899033,-0.10889134314056095,-0.002680956519684214,0.12278364502476628,-0.06262254400229621,0.11029592393791508,0.08909518931216533,0.1324503112845213,0.00242473128505281,-0.12825680952205695,0.07315182522281997,0.04598834030629866,-0.04107150763799769,-0.10385799165773482,0.1250393708402858,0.03837428534095252,0.12598285223000286,0.0315319826683172,0.11364649547587201,-0.058928284083656725,-0.1641011052308753,-0.041808159196482154,0.001959318611663929,-0.06348906393070607,0.05266334371019879,0.021576633829245743,-0.0933550559786815,-0.04778474554640461,-0.30496186492341276,0.0915207513689738,0.022804202435324435,-0.19944978736787947,0.00999532514755537,0.15250454938531013,0.02075994194779101,0.1671915160023473,-0.05356296058988202,-0.19176894090249594,-0.15246522597366785,0.03677656066607431,0.05369907449858738,0.06466257880703341,0.05911656514855621,-0.004612580380203588,-0.10871194985068366,0.040206699430240904,0.058313295379861074,0.14038266279473124,0.0066824499588188264,0.01843032866149992,0.18481745584634368,0.04682946977232246,0.06970685046566248,0.14057258665659458,-0.00030387503560312993,-0.012098133932179745,0.1038731953801804,0.006971243621221769,-0.17014664612535862,-0.17007992460382212,-0.04634178207772769,-0.00953822274090496,-0.0654786829235516,0.06092846974470562,-0.07907282266719352,0.04455394657769729,-0.0029693422658376442,-0.09031039865143493,0.0121946869305909,0.01607383358613436,0.035228796951606724,0.15638038507468804,-0.10713075914193318,0.07515408588317393,-0.078786403965757,0.017677670288151537,-0.07231796111862496,0.0388838576686238,0.05236208797401829,-0.015638045769851276,0.1309293967838481,-0.04349576149279532,-0.09128124086761637,0.008645397250868145,-0.2333692280819019,-0.018706410912510116,-0.04114285112817734,-0.115815024134615,-0.022795967906677116,-0.08214008193838024,0.14619759508874813,-0.028129026768217328,0.05934371197846749,-0.18928612629827093,-0.1041921875337276,-0.11458015779914543,0.10389880254703679,-0.009808251825768279,-0.024616441819110622,0.10334717040335831,0.2708210864611465,-0.09858510541906339,-0.07067980196872717,-0.1545221484968903,0.001422531658458322,0.0096448622702842,-0.02992911491822248,0.00006999629741219867,0.13059879329674118,0.2422394300783449,-0.17507551679727645,-0.13578447835249102,0.027923647378100498,-0.024868698978041365,-0.057549868278329606,-0.0465915716097308,0.01881373058834265,-0.07976896522479689,0.06611945278654285,-0.06935432280523615,0.03362459613762836,-0.24369087207564735,-0.011364215153406713,-0.07421750805413888,-0.03957266031800895,0.010703850793984726,0.05799783321170697,0.08263215808675298,-0.10595475402793395,-0.006151506922118726,0.05110715784405194,0.005340390222217955,0.08219363761116406,0.23618459224335178,0.12396089341605614,-0.05754119339820576,-0.04789439615091386,-0.09713666923587319,-0.012118839545175621,0.10155111640154746,0.035345068710467546,-0.22710957909995735,0.11364766290328342,0.0567638924616208,0.1605069205799851,-0.020833313269620155,-0.20420729717501834,-0.20800100456191337,-0.1820862873216785,-0.14313231565992837,0.06762954874028868,-0.045744560283069974,0.20551936286278114,0.14893618417766205,-0.11306097306304454,0.041801473984131865,-0.19059932660651824,-0.08254510167455753,-0.06542853146874525,-0.08653843563946778,0.07422872996096237,-0.05460405691982298,-0.33722457230631947,-0.005737881588983586,0.0017187483547802303,-0.017484071042224297,-0.021031853302638157,-0.08154189661141034,-0.0063506833186385,-0.022897403181770783,0.1512056081688564,0.01663182795471802,0.07262362902724868,0.020460482930440966,-0.07486412869924632,0.07545619377500787,-0.1283277499554121,0.07848585189242739,-0.1473024327120544,0.07956438883296559,-0.036219990480705545,0.09922325256706133,0.13200530309598615,-0.10814820617019237,-0.09051476254320326,-0.11824299801096355,-0.0864447985049712,0.05215360126709784,-0.08895559377048803,-0.06353812761479605,-0.2416753975803212,-0.06916552028106754,-0.018541461154715246,-0.1577486023336593,-0.0629254198488096,0.09524645330470152,-0.0735206775999843,-0.11516189170820153,0.016967905850599343,-0.11237955927158538,0.034543651330457406,0.03583391232660293,0.12716740809190266,-0.08747358246136065,-0.15983837167056172,0.06834369674918037,0.13718994247198488,-0.1272851389772477,0.012154885427716533,0.15918398609119744,-0.11748423186147418,0.18426502211111873,-0.14702321251776085,0.007005038462211474,-0.06205646800551005,0.19346523509033,-0.07188462551017269,-0.025675846584610716,-0.28812458550686804,0.06562514741914088,-0.019048444805985828,0.2023293180660971,-0.10575527601616476,-0.22386008953302078,0.17419369481718927,-0.11309228494801273,-0.16403719891516513,0.12416966076267504,-0.1702819453357246,0.014828638077099126,0.13087783508964124,-0.15864918707030864,-0.000986434090421093,-0.10806406748360298,-0.0077593242049387775,-0.048705859140567874,-0.15254254265172407,0.031498271997779284,-0.06102553979598977,-0.19421862166316245,0.10408849614144335,0.041020708680606525,0.019140174756967828,-0.16361874775635668,-0.16978837152270343,-0.12689685244447546,-0.13792992943722104,0.020693382761750548,-0.055907602262037275,0.04913159773603333,0.09080324531228214,-0.010475459311648925,-0.04990725156696385,0.13482673860619218,0.09559077075360035,-0.08828557898110341,-0.07818834908460487,0.07327681683240482,-0.08269853099731743,-0.16427930057922763,-0.019475760482639062,-0.005149010029922071,-0.0721373292369622,-0.12919200261633068,-0.0010982612160056102,-0.30722110812660125,0.15442628818865886,-0.06316271096951988,0.039518187027619466,-0.20583341907268193,-0.07763008824862241,-0.05387174585516694,-0.13070556316778617,-0.034021333628971404,-0.1300717729326701,0.14082328537919894,0.09990787345359296,-0.00015066277843759013,-0.09854869760412818,-0.1106242808962977,-0.04512815849820541,-0.020099059865048816,-0.05899336430083357,-0.1577702594379917,0.06860510641557722,0.01699838072985713,-0.2093149484794568,-0.06860841020355443,-0.1911783426480862,0.10825678906417156,0.043119564070315246,0.1541544957584691,-0.03525549037756975,0.2147395315053895,-0.12400030171856607,0.1137986475938519,0.2069063835539564,0.0036920722377144027,0.013375440597855994,-0.07513228655809565,-0.12885622628967852,0.04163152513536044,0.028328230328878382,0.018011387853481473,0.0778797862997684,0.054146169455273126,0.2067863471881821,-0.2042945938352815,-0.007266185604972142,0.15547443853138768,0.011074063033052209,0.15294160718597358,-0.12310465349844331,0.04124536321012923,-0.12573198326769755,0.054059862552405705,-0.005385309200929071,0.0035360982384534593,-0.008167436223494116,-0.12331513229332769,-0.08781247749536233,-0.00297458407772146,-0.1306413710101581,0.024588647275317323,-0.08961158549341795,0.10691574127660998,0.06226605459993331,-0.20487409995999506,-0.11080463173904895,0.07930362703671592,0.1843947692962766,-0.18854902567463355,-0.08642810168670481,0.0035310190145500745,-0.05047459927015925,0.007907562277948357,-0.0738036852852585,0.02276002917475143,-0.04183712145642445,0.00808040910060309,0.2088436092019659,0.14769973854672888,0.12675918334265712,0.1436474830119662,0.08510024037054384,-0.09329482825754722,0.0064334930085483385,-0.007870351224698511,0.05425846689758656,-0.3684662881136109,-0.1393810981054422,-0.009923441957372938,-0.06303875063980006,-0.15520717116580185,-0.17171391783502832,-0.07239402758943898,-0.04426673658974826,-0.12594942240876114,0.05598722275187408,0.10566342273232977,0.0059458294993818914,-0.27961992637996896,0.20540884078718408,-0.13088844484848666,0.059009036991474,-0.2188302588548242,0.011095429898300362,0.05385759525186706,0.1649396766449036,-0.13002245524287387,0.11826927498505022,0.011895516280086879,-0.040110014748651404,-0.0511788193723318,0.005249445864325578,0.0008166017276856567,-0.1891214681611691,0.031091953452849836,0.028566775257132512,-0.09521251630856599,0.10618812665859034,-0.019066172381508595,0.21803690183667457,0.13979772144621244,0.04454930853423127,0.13543191260897997,-0.1488480462384097,0.1284671066429758,0.019633418803494136,-0.06556608570052522,0.026823750255621958,0.06124363568901571,-0.27711833906844147,-0.009773999737839902,-0.14135789471653123,0.12150286366961181,0.035377589722243065,0.0015435667232986978,-0.25612684590716017,0.04582229015540297,-0.08590644589729614,0.04333161006023471,-0.17611349076962843,0.08465279699732836,-0.05432012306747999,0.16883110112280755,0.04969000062803186,-0.09528963952221683,0.11099010227825044,0.0672035593183737,0.14712067200505868,-0.11535964451355817,0.03129077708591948,-0.17431720354668118,-0.20516700967475784,0.11340499777520667,-0.00034482146833911503,0.011801192961028209,-0.018056355071026518,0.016327391378129715,0.23034436143531745,0.0455872964826052,-0.03265538905086897,-0.06863644765321457,-0.0701739337566063,-0.0198220292647755,-0.09397827182449296,0.007379062188568284,0.007604425126281454,-0.06260467789180685,-0.08162702400699945,0.036203327027215966,0.2125206457824603,0.019112907099644742,0.039901844891057,0.13152080783977385,0.03955796710558119,-0.008705979390362011,0.06801900614585929,0.007340816597311509,0.0652153512316944,-0.1434483171747588,-0.0802673665264494,-0.05147493387038777,-0.1895149005548951,-0.12849127629083,0.06882938485624032,-0.17771939330550082,0.003838134622217956,-0.13406052081150033,0.09102859484723777,-0.048171033615444156,-0.12482300938129029,-0.0009762332982663859,-0.31026619943211003,-0.14245235438415482,-0.001040130951091675,-0.11365931165661963,-0.1308369004549683,-0.006344812638584067,-0.14090312107379302,-0.17532407498117458,-0.0952816713609662,-0.01196044756098564,0.07508588255274794,-0.025914109305411204,-0.026076666979555737,-0.23206777850515511,0.15687028960183522,-0.11272796190725196,-0.10678431982024388,-0.05294458845667961,0.028337193560324877,-0.01621218786166685,-0.1776108349068055,-0.06320899161505583,-0.022885521473022356,0.14578500583138304,0.09932021787970231,0.12558072941304949,0.1883269718556591,0.11894265063380045,0.0945276322829612,0.14154224988935676,-0.3063890019480625,0.04843220565806581,-0.09402288478219066,-0.19230389051809788,0.13657146061101158,-0.045627907985445845,0.00297056167443848,0.25061245951669686,-0.1641930956597123,-0.057619159392526875,0.04228976963576172,-0.17187491983512126,-0.04859574402259575,-0.0026996836159113263,-0.04748630232365586,-0.17270619032475998,-0.074661788169962,0.15103647898790895,0.026513346199969957,-0.14878937153013927,0.08906154254659433,0.02426822376344308,-0.21505709335802717,0.29450147873717714,-0.00924238596528685,0.07590732515019082,0.06880669848707148,0.06714139095458035,0.285515278791642,-0.05342705941803469,-0.02919868558022889,0.01990002419018702,-0.017599117676457398,-0.09600473954171637,-0.04413356097852345,-0.143383771119268,0.1337949284793941,0.11008554872207203,0.2555464433537516,-0.212218581510367,-0.0354805694049106,-0.33276677038292046,0.09196859456989298,-0.11408287101665744,-0.3878367565283628,-0.15012876176659784,0.06548553627164928,0.13224352196854466,-0.01609408298368542,0.15054676147166918,0.03158895864347057,-0.13645198162896943,-0.1319901956381222,0.14926925863528548,0.03029921130274795,-0.28180141012135695,0.16521155731026027,-0.057204894944225114,0.07288431637769248,-0.07641153315891334,0.12147014591187362,0.03652243104235114,0.1481924064118259,-0.0004752940579373319,-0.014505061007854194,0.04461523930037271,0.029468028231341547,-0.01652184327983592,0.00047242952990358435,-0.09452682134019204,-0.02121357870753083,-0.053739092125309425,-0.023958167068682527,-0.02952601304844122,-0.0881402092804399,-0.30010681956166446,-0.08210483928002639,0.1323910590354215,-0.0607391872345021,0.20747636430406416,0.022569646011799394,-0.04608808331858576,0.0651822166236495,-0.1447908788674481,-0.008473977983642935,-0.06735228924537638,0.07019896565945193,0.12181800997441156,-0.0409028547643406,0.011097250691024102,-0.07211274376343589,-0.07087567852082395,-0.1463616089536839,-0.14084470932347648,-0.038714153112345974,-0.012156563823395715,-0.07485338258713896,0.09810007392142081,-0.01986921128871811,-0.07799837222316797,-0.052811725236818326,-0.09855545137003145,0.019393838869694358,-0.1019610774053367,-0.001485101250915101,0.1583101132860726,0.026270500848270057,-0.14871718266024067,0.0018938700858657717,0.06341484396071696,-0.036678771583658405,0.13915143916267356,0.13618425561305617,-0.24899858432749072,-0.07911709333967347,-0.21184423772474462,-0.08455858725032143,-0.24321478284007456,0.14823496330050037,0.25083802942901817,0.023488419265076416,0.06730124581889978,-0.14744967791430608,-0.10779523045995455,-0.1416255685572919,-0.15815697041977697,0.011254262139031098,0.12306139829019655,-0.026305509080565854,-0.13755204725854478,0.01607919488794716,-0.10642586442152809,0.07657075882708318,-0.07097072677376749,0.09245235646992578,0.05593261143058919,0.01486574647588248,-0.16411216213493757,0.1906457207561927,-0.07671593969260637,0.061162632785511935,0.096004048414025,-0.07995640901514135,-0.07566599684369268,0.05311649545925471,0.002822347298779972,0.06385349572195119,0.17210840335533537,-0.17761356101876502,0.013874475886565745,0.030506584778188923,-0.012991256074834201,0.061464294602697554,0.035114416955064426,-0.1959434250517605,-0.07554823629819926,-0.11706359639575369,-0.008430882101433845,0.04434969144225374,-0.08981257173457755,-0.04669190981846805,-0.0034926703035950387,0.030336636337759577,0.053875120307906484,-0.10295860362883873,0.010987921545171716,-0.058497997452008565,0.136366350693992,-0.037235068592918086,-0.07927444244845099,0.050994442573796935,0.07883952079775919,-0.0038302555827392673,0.03423922091629619,0.005576109468327431,0.026559193403124227,-0.2664894887238391,-0.01742893263180036,0.08235607798809849,-0.042237123619475174,0.10429175863532239,0.19838148740675965,0.0751492846982951,-0.04550533645853004,-0.10418197459744953,-0.0998206768082541,-0.0013713302280316982,-0.07186301277641043,0.0537324391236396,0.005812582552594276,0.1212760202694147,0.014904598586728832,-0.1504908762622711,0.018495453235874454,0.011476182031030475,0.07478323441700317,-0.04625645427071458,0.15891216501351804,-0.029933311685486914,0.029513097331962116,-0.17396465389799678,-0.03840580227604782,0.030551001395462046,-0.0386411831997944,-0.09637818292403563,0.04149756715555737,0.09324734281467288,-0.03614263029743377,0.11972965210745357,-0.12353601586521484,-0.00938584274879812,0.1874234190636914,-0.08970675161107201,-0.056243749020299535,0.05145239619828747,-0.14909131699163247,-0.026822628455301183,0.065560721957343,-0.00792042521275265,-0.19843043948020622,0.08338823398347804,0.030996721130662357,0.01207792975886649,0.02142536899060344,-0.0013644471377363577,0.03067088695040041,0.00391392931479172,-0.15519472663724915,-0.16020061925694837,-0.10491792421238562,0.08755491848927383,-0.0531538923071953,-0.10924500721217946,0.04427874790809731,-0.03137013473508871,0.06333403269682372,-0.019984333305867286,-0.09634783593099656,-0.05892935022890588,-0.14189257533426392,-0.02643009592616336,-0.014842746478983246,0.05520476950032056,0.036109800813647584,-0.07601874572606773,-0.0460111179304336,0.02344200977432229,-0.1276884908097292,0.1782014661523307,-0.02560929822367066,0.09358339223640018,-0.012561466443060157,-0.1610686192194235,-0.039461221280388634,0.017544645361081506,-0.07689961777845347,-0.2594702039298361,-0.10709293022502933,0.07431176189468969,0.250301556289422,0.03426020899455555,0.07662090442212816,0.12651754599884132,-0.11315753539207109,0.13396113517990133,-0.1514163362086922,0.06971703610985924,-0.0338470747228738,-0.12328395612759065,0.0666885658204414,-0.032495040761527545,-0.13224333611460468,-0.047445406434388195,-0.10696665125184313,-0.04841453848484826,0.05576377318442449,0.014226981460579227,-0.1035209204107094,0.09514586377699462,-0.04948302111282925,0.035367303834945206,-0.05411926680993079,-0.03638540956612462,-0.1618996894482315,0.002008863141630294,-0.0015044100626861426,0.07699648567843488,0.08202730071619511,0.18836077206190982,0.18460524387032964,0.11183418158383736,-0.05072609296418284,0.042821441781725866,0.019879871697478603,0.014925932855572952,-0.08640881815401273,-0.1498780490654757,0.006180709351998993,0.06943308478561956,0.13672916381955408,0.18822281452473597,0.015587240810171323,-0.018367401580601177,-0.05264488377288367,-0.02876350009233,0.05092724704819987,0.009282422178174298,-0.12626729665532554,-0.002230547902566129,0.05879722588029865,0.023761260522843927,-0.07405701364123164,-0.00630679031254164,0.024212931737279193,-0.22349910801862674,0.010951085299707097,0.06296546077983921,0.04052106673845753,0.06965831143140701,0.22182457501366465,0.05127010763111765,-0.0830022187054219,-0.07911992400125283,-0.05022886868633922,0.08612518825249128,-0.055370794676546105,-0.018531332487808607,-0.08101172934264766,0.030324454353312515,0.040614023579840015,0.05906227378189711,0.02065672121559967,0.006999314154421784,-0.05830377621941648,-0.06128892835214986,0.00890711215985954,0.06836597602924431,0.021372637994455157,-0.14891864801567709,-0.15427763549630233,0.06918677039188809,-0.0010327907240470636,-0.004093860816263338,0.0005286621425539815,-0.019468262948002933,0.05974157504751951,-0.09733412496408592,-0.03312493414525333,-0.10993148445619261,-0.034316348389011736,0.08841873063501482,0.10743335794943265,-0.0426361688473787,-0.11550493124130264,-0.0810298500045195,-0.04112235332899472,0.04671504349053422,-0.12011543950396009,-0.17668887172787417,0.07876517238361587,0.2264773036213373,0.012616042404476781,0.08219568161309233,0.004704606234533845,-0.1096563719622861,0.026088205305346685,0.04000896274477261,-0.09022055549169589,-0.03851916271196589,0.0015698454971291567,0.12689925068475166,0.011931390430331963,0.033332922488292,0.01357296266496765,0.08081434753227411,-0.15671801999506196,-0.063619765238799,0.009336916627457675,-0.08194520488831952,-0.008658416584538415,0.0693289119173364,0.09126157599976355,-0.025088210343083724,-0.056072957990895074,0.02443601051115367,0.046604648674470346,-0.03283928876492551,-0.05121401613737623,0.08924484637410637,0.050910774456269035,-0.007639643141993143,-0.041941660512439236,-0.1494672522441242,-0.0027493346973713724,-0.08286872962079438,-0.04011985534498855,0.007322394646984768,-0.1035636529545096,0.09121762136283727,0.019675848569904557,0.16226230279704631,0.017531841400128093,0.007927228397275346,-0.04627799812418721,-0.11411259025375323,0.03501835579116094,0.05222084287932312,-0.2618393184060471,0.07838070375598827,0.005800320549201436,-0.16834173446351208,-0.005044294357382482,-0.1071857672965871,0.0875187281146439,0.16244517431243954,0.19745273117316328,0.1251688529066082,0.135890288537492,-0.14107547402769238,-0.02414550221917281,-0.1563183930054474,0.05622409572869921,-0.08309800098547289,0.048516369144563636,0.006956299982013825,-0.11440823928928665,0.17472470796920214,0.08025695513106457,-0.06653896355294758,0.06348750316536611,-0.034695079323963735,0.08980006312592996,-0.19276377521242308,0.041974797407945644,-0.21865483818714368,-0.23939264952193984,-0.02755593854547821,-0.20372706696447068,-0.10332899527442166,0.029176942483992465,-0.04275304876017045,-0.17285854915903845,0.08031433675940734,0.017911272740554735,0.02298687527599632,-0.09690836261179724,0.004640005031090131,0.04364723729712798,-0.11768886527681827,-0.004164802751763549,-0.04080099502415767,-0.03962975232472428,0.1718440412375801,0.04839192013471353,0.11234005786595772,0.06597272518579124,-0.027698742442522198,-0.0186921258144483,-0.10957682922124848,0.008309741885537564,-0.03439708174963051,0.04842703742589494,-0.00950890284711036,0.06788954173476618,-0.14772345813662177,-0.0799322920853484,-0.004981206362603857,0.11596880703011753,-0.00394092145472801,0.0840584482421431,0.03594670380463348,-0.014287068031436012,-0.1735568542782936,-0.05161659461128016,-0.13933311614753024,-0.0011664848427317082,-0.07690210299990621,0.060026342183169656,0.083462637718203,0.043252226799031214,-0.043603016415686105,0.08304717144369854,-0.04240796790077106,0.05945429338148431,-0.10942522490719213,-0.018565568986527992,-0.04250873993089404,-0.11610568327397323,-0.024169463568885035,-0.006714074890294842,-0.007883563806068148,0.03805929102019138,0.035624527620101036,-0.18939330930892354,0.08922643628309924,-0.016104364966669883,-0.03360844221249826,-0.23737509782037672,-0.14828947486330532,-0.2558945142241395,0.009968386080176356,-0.10266888263330624,-0.0678693408222938,-0.2273552368314713,0.18166504949218526,-0.047624532971843304,0.06701519069379595,0.033155157143416075,-0.12197319652993362,0.09532448867385436,-0.0937434462520367,-0.13259430093769795,-0.13925987221146338,-0.09071249622549037,-0.0031265936856325342,-0.009750753617538719,0.158563205072161,0.06873830882276694,0.0058019830250167935,-0.04198787101696618,0.07954288014029028,0.09978498676478875,-0.07779888797633858,-0.05507626079330478,-0.14598939049154858,-0.034799983998051114,-0.05535304782135465,-0.1289603814135096,0.015587998091067938,-0.08824946400575444,0.04004621213307598,0.12559774302987042,0.005375989251707465,-0.06633839215320864,0.12416749730510875,0.21860721225578936,-0.29132421671330094,-0.03139007782166566,0.20159277351460422,-0.04859596293856782,-0.01143829077558402,0.22491470222623336,-0.1030718250469875,0.02235034953430678,-0.1435873218922184,0.25916101933733493,-0.08165714975262538,0.03877221665724959,-0.048781041671080536,0.09866217110551127,-0.01758966154805175,-0.17921515307251015,-0.10354903420641132,0.07810021229234701,-0.09739275817152104,-0.06525775751414147,0.11985281634916828,-0.008727192210381289,-0.0773682092221411,-0.027192387458474597,-0.19044418265787652,0.025288975245543945,-0.0928207771189088,-0.20978570298288288,-0.05886585292366924,-0.011467426741879097,0.040619250458104016,0.08259390130334222,-0.19252471497333754,-0.04146367052091902,0.20835147847023566,-0.1862913287003913,-0.07838402104222554,0.08491583129836473,0.08498272415873308,-0.034106133496722,0.0021553476245532066,-0.00797769643012405,0.04839300630837384,0.05240431117743629,0.13168432329745314,0.07029782849349511,-0.07040821886130816,0.06680332948766779,0.059632558114885575,-0.007133698804208132,0.028234955389085804,-0.03426882663159452,-0.06468319420360691,0.06513291119498789,0.02278300346057624,-0.18187548807012724,-0.11377906354331653,-0.02633278253106339,-0.10627272080286412,-0.1506045442549309,-0.07090928523724922,-0.08148524931059789,0.16894777193915145,-0.03230414326810999,0.03859461031811067,-0.04641113912888751,-0.03093213137653517,0.013113489561077184,0.020254444774224736,0.09666116047507428,0.19609646404034348,-0.02090391231784924,0.04342000652903453,-0.047481121522554716,-0.03788749344205027,0.16803634608381032,0.123479643233535,-0.05289559694050432,0.061045201068026855,0.10291448040336623,0.030059069484109163,-0.060358251798894216,-0.04239440729994731,0.09841156030940526,-0.08116349005720118,-0.054999970399259135,-0.014627411279697826,0.0372268317176203,-0.01811646581058807,-0.02682457349646886,0.02963540925989164,0.09827499011656315,-0.04972886567210477,-0.020207457353987813,0.07069403754136795,0.029307288568456713,0.03332841467757852,0.01971213613362151,-0.05174065623963612,-0.17071999467860216,-0.01601588767039939,0.009268244504035005,-0.08948787632821453,-0.006475580586941476,-0.011111974743209109,0.049262461509227945,-0.19458042133852296,0.2481419218967511,0.016112726749671853,0.00014541638078545676,-0.14032496047001422,0.017421810214355564,0.04900614109773913,0.11143703666684944,-0.08119050163502312,-0.011784008603942983,-0.05812141131498735,-0.00903277392430712,0.1978775472732048,-0.03592972434995544,0.15199743353249803,0.06261576580062579,0.0795308532518148,-0.018400473519046022,0.10050507529226581,-0.09793880648723263,0.0473061292617408,-0.08172166134421512,0.017905039901666954,0.08575658633346986,0.11666079235559397,0.029863450826568667,-0.0812698030440183,-0.09769243701943872,-0.14196781906445144,0.04457900735687059,-0.1797440349355664,-0.12367125263033989,0.08972966127889713,-0.006188213380198049,-0.0725635855629153,-0.04285215441364329,0.0472790350287736,0.08926226784345605,-0.005090909466834242,-0.0022029050747156696,-0.09718386056447667,-0.056990648511976605,-0.08174937729722934,0.030834985047555066,0.03375770921207842,-0.10025698164402269,0.07599271192758927,0.11673097822846445,0.0358022606331863,0.0011940656196670308,-0.022520218821623323,-0.16287994827821609,0.05771379391334852,-0.08423333254196341,-0.02053249840409057,0.0939538343806176,0.03295367975640364,-0.06714154348726833,0.17764288043820434,-0.01786745504023254,-0.06827008617847864,-0.06264341760818916,0.06163852405647216,0.07308692179684805,0.09498323607518647,0.013230958471382037,0.12272218797604682,-0.011183621948337873,0.10096444340863443,-0.01503031495478227,-0.020921451717202236,0.01606194212018984,0.027673887463452722,-0.00031455522008913626,-0.09687687345329084,0.020214712115954835,0.1325367331237071,0.08999662892712751,-0.044763085947117705,0.07667509861391916,-0.04275940662706282,-0.20770010008264814,-0.2514636920625254,-0.08735289946204666,0.1338915064330684,0.07120475928894975,0.07620941385532735,0.020499074416813756,0.017395624640586253,-0.08076096575825736,-0.07141421269218803,0.029694860121769286,-0.046993336481500704,-0.04707254875843663,0.06078879719906063,0.016610093886202132,-0.013603928333044902,-0.030334681495336125,0.04042715665238625,0.14520252973698194,-0.13062202048425411,-0.027359851672688326,-0.027263267912121313,-0.12973147020813286,-0.08561899328687574,-0.022387867742655967,0.2197655550173045,-0.23492893226454792,0.0024417521867959088,-0.19966392662110882,0.09532079240972073,-0.0895502197936848,-0.24283109944944709,-0.048334474753673695,-0.11503351160687283,-0.018775243519507507,-0.04228021504030981,-0.27368526544309957,-0.06093941370238338,-0.009349124565440492,0.016307331586616697,-0.0730555942159153,0.09745693423152432,-0.015054015456514028,-0.017146239813935576,0.11556216150979226,-0.14603480188668658,0.10324553569800117,0.04181541548717229,0.12738596172289987,0.08799919745059818,-0.08912904648158143,0.04437624918662711,0.05197319779750177,0.02635988319284861,0.03477988904510364,0.032605998086121094,-0.2045948437659753,-0.056715195700036004,0.1632320957188892,-0.07437182607004486,-0.09410853662638023,0.12970224493706092,0.015941167662398975,0.05893672435335565,0.005256047769298186,0.13881799954674073,0.08891812322832786,-0.09594178079262443,0.05371129001980036,0.13427352652704894,0.006015846677517263,0.045321660217593845,0.08667700372233167,0.08836771870967876,0.3218140055046187,0.07742760708265971,0.023612343499316887,-0.21741999275004836,0.1601118123841602,0.07520343968616465,-0.1637946380932734,0.05336950209985242,0.04193380068736719,0.17931648202658315,-0.01986243564872679,0.03859981071427037,0.08352115750285573,0.1153533255755747,-0.027341627848748055,-0.09395451249864101,-0.017516567870756655,-0.02481191909597064,0.014212469265782611,-0.1749828186381589,-0.06480119364251954,0.1094735533663831,-0.14001484661989916,0.17173173847287115,-0.03379570111957237,-0.05277738091225452,-0.03977902984748943,-0.09852720741340255,-0.1638685302083262,-0.0989115972264573,0.021999628858342033,-0.038720939188186865,-0.05117335274789374,0.22542068172861748,-0.1263152222600293,-0.03521513799336384,-0.05463362211553697,0.07528025915593074,-0.12310899958564174,-0.018506459379789085,-0.09553166179521252,-0.0034232314620491226,0.1152152164123402,-0.03192078977217296,0.015710454502219428,-0.05185873295445479,-0.024088427627413554,-0.11376271841525942,0.09158002132167119,-0.12638736760094835,-0.013874819205688269,0.03822142050280163,-0.17364704418622645,-0.022023345292133182,0.00016376600843248957,0.06014362962527972,0.09179548800563875,-0.021210564400867327,-0.16497017452460805,-0.05143735621594294,-0.03403958058904815,0.05284331968728239,-0.06561972323963536,0.05252944325232146,-0.03432807090297763,0.1017894667782659,0.06925590881515405,0.06852815608296858,-0.029497490950108844,-0.0877224613281963,0.028266119165376705,-0.05434156532382383,-0.04871305433949643,-0.10625733520455001,-0.12420959023136388,0.19278048730884034,0.03826794979771638,-0.016790034041349603,-0.053468214262479385,-0.048921865659117145,-0.09395660454066838,0.12364899876191825,-0.06419868590242161,-0.02383840118183351,-0.005780802501347069,0.02706502619226654,-0.1355752251727672,-0.15607491147250044,-0.05378094695297237,0.07256010474892342,-0.18524160927374178,-0.02203531919444359,0.05765873092772733,-0.11707396636075534,0.05898235668116237,0.037202308792078594,-0.1811081641458006,0.131246296187765,0.08060923223673412,-0.019748197681238297,-0.03263366353181504,0.06495708438526639,0.08719860239645003,-0.08835309355894241,-0.13538521126601621,0.04249479134276559,0.01391526134589415,-0.1303276740850328,-0.021448084767922093,-0.1743259558601115,-0.04695101612504423,0.3655358160108617,0.43314094097255135,-0.44216109714099083,0.15341540785727986,0.07659461945424426,0.08501448772693132,0.45039798093633143,0.5704472745180845,-0.0021660297685127824,0.4593304628267132,-0.07092204920185344,0.19070919053120478,-0.2770880428974683,0.06775983481245891,0.13325575858050195,-0.05852375122257402,0.36142015850090276,0.09232389668072741,0.17359091480189054,0.10771519195613799,-0.7237911803948159,0.08757749067138533,-0.4236413455007417,-0.18812994405203315,0.22799519344118455,0.05593512823203199,-0.1253141535469518,0.05251592608936524,0.08097449351175207,0.17437287267719917,0.2741178624232702,-0.01074873173573705,0.18004867511321784,0.020380458710846715,-0.35774652868391155,0.08831076859456596,0.18452787412665983,0.2551235536196603,-0.46276483104025956,0.06727187164019491,0.014540225140495836,0.5205131785543825,-0.1694707406737171,0.16721729908790278,0.33822490531825716,0.1853543510767873,0.10889008736986307,0.2080774547293777,-0.19067845325815894,-0.05344984695948422,0.08587997248981133,0.03416740726147374,-0.07279194611761425,0.012456562122867157,-0.005675578551948752,-0.49618353868357534,-0.06785249568333303,-0.33625684569564096,-0.16470311615188973,-0.15730728651737447,0.17903293140347376,0.4531171171803044,-0.12372302500032765,-0.00848344532024571,-0.001597564703190221,0.5760080274245265,-0.012725820792462999,-0.6252688431763168,0.21067996701946287,0.2807341677776665,0.40656124060408405,0.3895341908344556,-0.06620852857302259,0.30308818787268443,0.467265957315094,-0.006874625451003175,0.7159733319233125,-0.021254971578682814,-0.25068851724456315,-0.3384835960431293,0.32151792386359407,-0.05385901026401903,-0.13839940334713732,0.4610357396751818,0.3385864433909934,0.013405143112652214,-0.695725789248336,0.07086427426070528,-0.06086185438242308,-0.05499298291910032,-0.09513252314578406,-0.013066369449852278,-0.22808593251677933,-0.05679955673821495,-0.17558659994434372,0.5691850050503477,-0.06254249016631801,0.23894314493118482,-0.09426298171792385,-0.27957575364433845,-0.05664514689787505,-0.2572339724653819,0.3779608308084254,-0.37799502453228556,0.07500071652035918,-0.03526611196556984,0.10426680624985145,-0.06735315334862589,-0.15635539210190785,-0.5812060476929799,0.04383039822346147,-0.02458882844922421,0.1851673030507416,-0.3001786666723907,0.0875851477040836,-0.14243382923740436,0.1791534946849665,-0.057384434456149755,0.1784051395008497,0.15722521899159383,-0.3036157703800012,-0.6257479715215233,-0.6734947592329686,-0.11635563508565105,0.018478644438418904,0.25568329975808884,-0.20487869535540804,-0.4535724064626303,-0.4869430434935087,0.0008751937422250111,0.24388504556194152,0.003207518238590314,0.09671916806241118,-0.23983392865481132,-0.17387973866426445,0.047595404348790754,-0.29570867572582776,-0.4282375196312211,0.0747865017001717,-0.3251848403988782,-0.21200333209859237,0.036182505300986885,0.26035490025237046,0.012824015642396285,0.15085730847678103,-0.07405612027003924,-0.7026760106623255,-0.35610376219276624,0.06719259853274595,0.47747604341285127,0.34386822438479475,-0.20697379084639184,0.519998342108624,-0.1961767060827357,-0.7063588512517827,-0.3269237141869688,0.0501156401455999,0.4631257341057821,-0.04337340021381746,-0.5151219709014376,0.4043234935788676,0.18395782775506,-0.13129856524665479,0.6354650762157976,0.07900384732154928,-0.1030525465743312,0.3490662810386667,-0.1330495634987379,-0.0815217230786156,0.5279143629072761,0.07504218261197747,0.11657097709378351,0.19028416945706314,-0.19138436796522423,-0.19601238211861688,-0.13110376897290515,-0.13713242003455403,0.3694579902220271,-0.9323143741790116,0.6548486825369093,0.13400485147048227,0.11741948952810193,0.24324935561209896,-0.5854505748713403,0.06183744548979108,-0.5537493486164787,-0.04767778384175275,-0.05110452188131427,0.10892779337988547,-0.007701001448494868,0.2906946700831718,-0.18568257996935053,0.09934987505055418,-0.12131758859379653,0.06696091154987478,-0.05989603160001099,0.12995862624859558,-0.1149338733505788,0.19413277140068722,-0.42263387569718774,0.014404862687881841,0.3912197503824396,-0.12440056264037413,0.11090998000402884,-0.08879829931659942,-0.11179864811972794,0.04360864544669,0.4915646692351098,0.21061637622312673,-0.10066743917163089,-0.9381488395407076,-0.07138376213770012,-0.05247009833256638,0.17647348360059145,0.3749857661096154,-0.043039627907786496,-0.07856668706182621,-0.046255653866408356,0.3543877834489331,0.44249699166803674,0.14677679341850622,0.05216864295808642,-0.0008081018058807157,0.13944068288735711,0.3812688927022525,-0.017237408000022623,-0.10330430298931098,0.6337802497455186,0.2197198651498733,0.06460573914915309,0.11638657959435711,-0.18236765947633754,0.5538920677415421,-0.1178744354528374,0.559260066387852,-0.471527227698285,0.045289146864727375,-0.03066328235743466,-0.15918225695795882,0.027332641912567044,0.0553719925089987,-0.5723278005847408,-0.05434870637105073,0.058798850670074634,0.2918471391212603,-0.048617165582744225,-0.3165995481279033,-0.32302090929953753,-0.07114269656665753,-0.4362576044847526,0.1610520727222731,-0.2140715215757356,0.0869991941573171,0.02285478179877102,0.015039507437548347,-0.026668462365493945,0.13760627093103822,0.05079532353285409,-0.13196079034040367,-0.06318457028379011,-0.08301714556001853,0.11298504473727777,0.012452472017907433,0.009628980123156175,-0.03463899903736964,-0.05331754962863613,-0.06698473812179837,-0.09427960890587743,-0.09832455403911101,-0.05445847934663323,0.0009487653460170282,0.041196880482980154,-0.031832969860847965,-0.018945622876760045,0.10721241876886757,0.028939914341350736,-0.018399964300282855,-0.02234598189917916,0.025308348981596347,-0.13434087972474715,0.0860203483921089,-0.10918198294106261,-0.03307054301676834,-0.16074438487906892,0.021470129885583354,0.06552903376350323,0.07565735356619778,0.02229143254041343,-0.048071050719681006,0.061160068906037694,-0.07274910320142573,-0.024967946103297032,0.03705896292781515,-0.10584079086316903,-0.1396467285086736,0.06123648599057371,-0.025364522777507763,-0.03703392934215815,0.09955757642750314,-0.10739057412566126,-0.154094658714731,-0.03219114712674047,0.1022696443737099,0.09641642188917597,0.06183351891557511,0.020232381430113355,-0.06978666917824662,-0.105638748756751,0.08602535452909027,-0.014547992210354155,-0.05969939537892789,-0.057712264772284104,0.10442195706843505,0.10607572274459369,0.029037223625554522,-0.03459169898678993,0.027772272600565074,0.057792821142775085,-0.09727215872376774,0.02833465135543411,-0.14430534267129644,0.04395991899896278,0.07038249108721804,0.003754097065823762,-0.06797383389001664,-0.07300552035088617,-0.06453841433973033,-0.03201948259924864,0.06046433513575728,0.04369306704858815,0.01666050374492631,-0.05689254098125082,-0.0460543513975911,-0.06825084541836499,-0.060654065122333095,-0.029071843399719893,0.009738489321202547,0.006269869339574313,-0.09753527038347311,0.010366635842905684,0.0673017738930862,0.11651556811255291,0.17570991282030424,-0.09839969807337454,0.03219216413044115,-0.018051927391570417,-0.028571837326589213,-0.12581493936529448,-0.09652916400211492,0.04982917059070728,-0.029054435288377447,-0.0074248815421628514,-0.05893289710117853,-0.118712810281753,-0.03967254034292255,0.12679960668087703,-0.33790746986447223,0.10364717445244391,0.06981719292673078,0.004539907163992958,0.002915506941697997,-0.07573638247846752,0.12513379954176673,0.007223947945624402,-0.03166750274608437,0.057115244779419004,-0.07034395277763399,-0.09216950532400672,0.13801985917158116,0.07743116049822697,-0.005613828607430165,-0.17750976894073045,-0.004295975521284972,-0.028188909210082446,0.029072321018952085,-0.023786105764928348,0.035727537647951606,-0.13074272023848948,0.13958660402202086,-0.032704335377158986,-0.09748404389863322,0.024746571375719884,0.0034545379927892863,0.010561479948698735,-0.2198475918526364,-0.07839207182520559,0.037222255383836125,-0.035338612239459985,-0.08559251452547621,-0.04651279121624491,-0.026771802120677046,-0.0046109238383185164,-0.03229606470451816,-0.02315435145761034,-0.03263658532346504,0.012365048527157706,0.14748644225038143,-0.05298192488867962,0.0057708517242193265,-0.016712211621658875,-0.008569625990575362,0.03304937703055317,-0.04773429802068896,0.08017257735940224,0.18481717477580517,0.01094535954686689,0.0951663390972975,-0.027528104146268238,0.021087606360016876,0.050732768156122786,0.08202128571251428,0.13971117551565032,-0.10552447426961738,0.08449567715001609,0.020604075346598454,-0.010849839400783294,0.18089035317110236,-0.11434261037206339,-0.048843277526972276,-0.09853333772742086,0.04154898948509326,0.014127207942436729,-0.018206457030827846,0.032448505788610936,0.20079907525924592,0.05986860664139675,0.06316503295312534,-0.02819773062844421,-0.020610825049328225,0.12924775536469213,-0.16663696810657772,0.0951540228098922,0.007646787004076678,-0.10276961296038335,0.007847780945438039,-0.003540898010854067,0.014342729473595998,-0.10176863917614891,0.02900626681638885,0.05447749016733546,0.0782154034590185,0.12592734757178697,0.03308859492937572,-0.00724233053479174,0.07452237135355627,-0.028019054243155678,0.0034822029207161155,-0.02008154288021343,-0.10408785514504182,0.08395031673951425,-0.01230878907435964,-0.05353473634018955,0.10925392151554479,-0.049561114107632205,-0.14920180517184442,0.10644302341312785,-0.03970309257480222,-0.09896043712042932,-0.07005578096529248,0.04855827674279424,-0.016657317056325994,-0.012620858604781302,-0.059982289394342345,-0.05522641321223519,-0.1637570125876779,-0.03019953558091318,-0.06753539130071357,0.07475635252617066,0.025182978608601768,0.16437378820990212,-0.0981198665518287,0.09232791934763164,-0.008245870656473506,-0.062430258942877896,-0.052985016796199755,0.17871781449240093,-0.11288665717173074,-0.07646396168893312,-0.09697455724615162,0.08798013288734187,-0.1651703116724683,-0.016804469994316305,0.017000529095479642,0.0334137100888075,-0.12463319162459703,-0.07840864316057623,0.07388287838167817,-0.051541034532859034,0.07072063903714161,-0.06018753134879767,-0.04268423683093718,-0.05059214146720885,0.016448228894026296,-0.048976353884390124,0.06994588009955388,0.055988735215610805,-0.07476284336287788,-0.043027529947201604,0.04908132002260769,0.06156957062513118,-0.16580144436610783,0.014903086525392522,-0.0691086143936633,-0.14655202514488166,0.0624563804060858,0.07956013598788157,-0.054057670781390316,-0.0596652966784711,0.06729258593436158,0.05427365927893681,0.06509803132526944,-0.10395011794435999,-0.13012583022344784,0.08886529478023329,0.09778925138090123,0.035450362265998556,0.056117466406023525,0.04161952222370639,-0.0379897676634042,0.034877551368404966,0.06623457689113157,0.007676571975399183,-0.10709408530429759,0.05196492120132224,-0.03652451188363686,0.02088295929524065,-0.04657884790613461,0.024677900291223173,-0.08073317507686818,0.053376073344944625,0.014138338448275396,0.09067491067098554,0.03703988015329777,-0.019140225415801678,0.1382273960256931,-0.11604107799921072,-0.08871100169089666,-0.1179600315116359,0.06628316993513085,-0.021436140861433327,0.05977801886136388,-0.13584719116182264,0.10598569036805905,0.10450796425000689,0.006577691283949936,0.10987650103829284,-0.06583271215643087,-0.02048067502842295,0.07075473019660733,-0.017383365874529936,0.042360419633944685,0.053397880256876196,-0.10180800851552943,-0.11731842102718242,-0.03668564060885396,-0.0025248752311051925,0.039868276253076214,-0.07362562895853786,-0.04006685676685196,0.10920031362931995,-0.11692964327541686,-0.04987561396372852,-0.0002562943282762124,-0.1643971937961026,0.06821289783788001,0.08908661227289214,0.0368371681951828,-0.05261715267312101,0.11229804959135606,-0.04450709186159519,0.021751740449343075,-0.016354068704724563,-0.10280916593987603,-0.12905975092939062,-0.18253271261422652,0.014723468398737028,-0.11363017749165841,0.020794466853372322,-0.09449513802729405,-0.021926035600088187,0.0429410507603357,0.11570496366522673,0.04629793027757176,0.25186685209857135,-0.02011614182868022,0.16962963767395425,0.055898750362463515,-0.11882183506166419,-0.12320428934674331,0.04165850042670327,0.07965617037106279,-0.11249921095514534,0.1044356268235194,-0.0326504897161944,-0.030307349974117555,-0.05836920715493401,-0.006000244849752228,0.04271767895864536,0.03490319646667295,0.13130588028803863,-0.08988597055537305,0.043903671163958435,0.026754899876806525,-0.21519279644483866,-0.16003964747681684,0.13211784267995513,-0.10414188945375247,-0.035904430205918915,-0.00007066001996036134,-0.018717742639642897,0.04111573199674368,0.05596293484500313,-0.04808188395465414,0.08581380692096874,0.1321595906311724,0.04921117239928035,-0.01494184965646514,0.04845698133024436,-0.17155879726214687,-0.022382807899877812,-0.019931073127109598,0.11491264407959607,-0.09356594940905821,-0.07982167246713343,-0.00951410743229763,-0.16592235779485512,0.11493377433378577,-0.08409548793657937,0.12453279457300132,0.06590785371837385,0.1807175302851656,-0.10253293435453002,-0.05005636156561287,0.039185471376293544,-0.10613816017387293,-0.19006996632984433,-0.0984272866019124,0.04745589364218568,0.028765176815120783,-0.10345301884148654,-0.013327847667028653,0.0988031112825467,-0.10810400427358023,-0.046298670545308,-0.22115186617659793,0.022715713222923328,-0.04402883928555841,0.0967892910211609,-0.003833259169509504,0.10146331055710779,-0.07320683075750598,0.13181032829936745,-0.10098656029531833,0.06216096489005754,-0.12416395639166108,0.08006119730786755,0.07711032872420791,0.16075657003616,0.007461982026733383,0.04058296644996007,-0.10273908125654536,0.1440442648034717,-0.09728562436908306,0.035564080110624,0.09359612494940722,0.047464384992673636,-0.04811422191802544,-0.06557884149401542,0.04669277519987682,-0.018573159724653336,-0.18218775889515734,0.03567227198544651,-0.018101162916271344,0.045420673872347696,-0.01977354461551484,-0.05008282379251885,-0.010392595015785613,-0.017050113163071243,0.030608372594031513,-0.2332575654578172,0.06344809712555771,-0.03803003408754345,-0.0016945074605786258,-0.15865507964275963,-0.05143942027412612,0.13645886421039555,-0.025104308892323242,0.09679867181846455,-0.11153841881860597,0.044027538353667434,-0.026966695965526203,-0.20376960111055786,0.005375070305685364,0.09295519776248141,-0.07093710329633905,-0.03700004862589748,-0.09091143834961413,0.06843759586155602,0.06944304692979622,0.09569334985038784,-0.11704268013676417,0.01988485128223175,0.03941863967165019,0.024272616661742394,-0.22943781257170362,0.1277193139418123,0.054653666995991904,0.0861883603433429,-0.07511768807932612,-0.060621326265596416,0.053810076929581625,0.07334283094946467,0.1078999781809064,-0.04820748498871198,0.10967150762934666,-0.012534039856609638,-0.00719134340847745,0.06976869613181245,-0.004953001525417892,0.06449375121455728,-0.06554100218073887,-0.019584413508719725,-0.06579198528023027,-0.05817003729676981,0.020358040089354105,0.0027713153766540104,0.0399639573292767,0.01008982589603974,0.11409007028284414,-0.08799881416272641,0.12764784555238412,0.01594958549107373,0.08770509645426101,0.07354161251046513,-0.2180076214648493,0.050302160688950166,-0.0018606557146479176,0.03337587679148571,0.03134618239483279,-0.1005467989437616,0.11830489463654206,0.0016329735477716512,0.15637715819792208,-0.053773578971836,-0.03586676400524641,0.02083314240779912,0.02990195355605186,-0.02861854310098355,-0.01887343883673694,-0.06157388312047846,-0.06513581829680981,0.04677067317080745,0.04281962925134942,-0.039437247377268364,0.04772257366493043,0.13146338555574932,0.1112145261365744,-0.02874153251268015,-0.07853052253220691,0.09147088127889656,-0.1672759448602268,-0.16982364921299578,-0.22474887274517172,0.0728552447155679,-0.01940158076620239,-0.06485027788233107,-0.09640921713346014,-0.10243853220840363,-0.020581568482466922,-0.06950269633450344,0.04714103816035882,-0.17048622947229328,-0.12689084633628128,0.04572171615213572,-0.05440475159531999,0.06989069459515557,-0.05632717048731184,-0.07409504773842486,0.011263357474291188,-0.04485212774951144,-0.11681453359200016,-0.04657911196323031,-0.07841674088299347,0.12056359613862236,-0.00023135251671329267,-0.11064726925225452,-0.08055665402499947,-0.028021436047347914,0.02058000821462101,-0.006078520146939922,0.07999779832777235,-0.03479686607917125,0.00446065060456324,0.09565296016166105,-0.05008121617516847,-0.048763263452623724,-0.1229478193061518,0.10471710881212982,-0.008964361543404192,-0.011795293582993624,-0.015641130112705293,0.025750021149520394,0.0766431611789183,-0.053927729198548185,0.09169015685282074,0.10826189403775571,0.03430151375301306,-0.028919641498065706,-0.008839787071885118,-0.10592052033259501,-0.0625461086044734,-0.015277631769056542,0.07648965257302438,0.01632877736603071,0.007943353675660726,-0.011652122773832638,-0.05584632509379442,-0.09419432737646165,-0.11611049427203526,-0.010112209481340841,-0.07268661834962888,0.03035569850025517,-0.015559978486020134,-0.007117370489607629,-0.002010874658854303,-0.16894116758743852,-0.044137622378487486,0.061769724323420226,0.017076167629565254,0.044883330061330204,-0.04332705613044298,-0.039600271398069306,-0.03764583929967957,0.07180333931169977,0.0384088705026038,0.09659542609434145,-0.16689275964421338,0.08332134619758111,0.01603064966698981,0.06791827859065848,0.01857445174495387,-0.12036058138991536,-0.031444650595515114,-0.03631975658240216,0.09847224086056364,-0.0012762131205596697,-0.10743184795647626,-0.0002745561337487575,0.08792122035575506,-0.04907493234871932,-0.06354197532479319,0.13672728865783318,0.053926663659737965,0.021636877964007987,0.14382586867154207,-0.10537101959392951,-0.0896031009147848,0.025276623685465176,0.009127046843665707,0.09075713483639766,-0.024714671006485712,-0.00631220955362453,-0.0588155881891687,0.04036122960897776,-0.09758218862734461,-0.08579738171458622,-0.02058547434639531,0.11236931644966403,-0.02656580702619655,-0.14337073545335918,-0.10474266792129962,0.02177420849660348,-0.1243495054217925,-0.16444705828768794,-0.0307340458702293,-0.027546064913902314,-0.12127765094925694,-0.09028308507356037,-0.004917690735897462,-0.07792283975361212,0.032332279395143736,0.015423039219693794,0.1041501587414262,0.0945037394099362,-0.0557960696977343,-0.019804320091995394,-0.11331714416642918,0.09554233256426065,0.034236362725007595,-0.09404474898848068,0.01588193019582412,0.005808480497960884,0.021058265195501916,-0.03329739926342576,0.06862699386686726,0.007236452151403469,0.08653884345549905,0.058078813576104595,-0.03833303175596661,0.012123988950384967,-0.08189292616913575,-0.019249675719155566,0.08727252789281857,-0.02355540179973758,-0.1135647622991529,-0.016633223196937334,-0.06840449966734453,-0.052911116828129344,-0.00869169100472681,0.09426830183037407,-0.09818518597987509,-0.1136998415654135,0.1324520693997718,0.06690182561473924,-0.05066215498757292,-0.10274943986649789,-0.043945253128486884,-0.06225738570464161,0.016257350073825085,0.0066812603320906844,-0.03404621502194976,0.015231188169214108,0.095428662383759,0.17794659278455685,-0.011830520167141072,0.09025519392623262,-0.062494670849240895,-0.010509650670809051,0.06039328014163622,0.08225935362853684,0.014757530690633144,-0.009352350416153376,0.13230404976416124,-0.09478895749540543,0.05017803556851286,0.08895479687014489,0.07345075738074125,0.031204862219981765,-0.05512222162622527,-0.003849411157097233,-0.014927357977224607,0.024678752477928494,0.16208615990493933,0.13358299255941608,0.10164091089590874,0.011259588298096318,-0.020419195446215694,0.11698501889476039,-0.029227604709372836,-0.0009738485584660026,0.05794263389933434,0.006683665112935939,-0.039580545106294704,0.013071597153158254,-0.0967363343312778,0.05302612282935746,0.002912575919525749,-0.012304923359040182,0.04260936284144114,-0.06738993671907301,0.008811257939533707,-0.04040764137294866,0.06254204287522239,0.02117615811610713,0.01673191935146827,-0.08438675606586792,-0.11524271443501102,0.023306763592242343,-0.10051973450936764,-0.011445455276679497,-0.03759953114961493,0.01962436905477584,-0.11044804967629389,-0.11015691779528232,-0.010844510852112665,0.08585540318606011,-0.09356731743334974,-0.03246325555034361,0.0777769015225711,-0.06029431852840408,-0.051443242349714875,0.0489292258685651,0.013548796885895208,0.016918519847199942,0.09404644812479397,-0.07296907956785147,0.11612104290418522,0.1403133496914468,-0.04204759024796193,-0.13493501749856868,0.016960173100462998,-0.023825652561161093,0.14916339624531993,-0.06671743040649773,-0.12286238904537349,-0.03927672153115544,-0.03554185338042524,-0.18423606024191053,-0.032996982480878616,-0.0702258537714301,-0.06465794678712589,-0.1763008106952502,-0.05262832970160694,-0.05748279812414408,-0.05075235663630528,0.018918212781881303,-0.026074687156190487,-0.1659344824482115,0.03508386636623244,-0.10065556130717164,-0.02540691127206871,-0.0728472838791268,0.09629827592565196,-0.005817142646586223,-0.013041668155723376,0.06781136424136035,0.08070154466075417,0.0664000939419886,-0.039498539253339925,-0.059177887536377684,-0.09575052261212502,-0.08031189871097628,0.20024854108740966,0.11333470903828477,-0.0704623061959334,0.13567583517613152,-0.07407127698144123,0.16919493552511333,0.17383814569239425,0.033150728834039786,0.07398467278494258,0.08021517029862468,0.05330170298227694,0.04486274223430253,0.06133206317809746,-0.061754645800310204,0.07423153652684615,0.022169316787366423,0.14028332205133412,-0.08368921718737692,0.15098719550600476,-0.031809258647577186,-0.07946154176380874,-0.03186396146904389,0.05226943332014974,-0.06277082047970724,-0.049566070654525736,0.08965789913448081,-0.15478876490218527,-0.049810369818738154,0.04868835110224549,-0.05058469360019272,0.09609308794505567,0.0027370630467997824,-0.1503151772050692,-0.06342223284895362,-0.009762138791728731,-0.02853971058710718,-0.1386305870886045,-0.0038099095820236756,0.02254457982006373,0.05359885375463689,-0.14410106853790144,0.16930277256193674,-0.2292693448520362,-0.10496475726848568,0.1488674478997479,0.04703098431893474,0.146692367691801,0.09304651366933352,0.0454629414036943,-0.03722493652226184,-0.048785401395213056,-0.04119739620456524,-0.14759845794559964,-0.07286267571594367,0.016578993970184003,0.00621346688819586,-0.011606801598708706,0.1491833334749926,-0.07183716562805646,-0.22012351843105077,-0.04144852359413942,0.05592734485083203,0.05608470462282573,-0.07565573783568887,-0.023446469301509863,-0.012391848224910459,-0.050180771800546795,0.06309709649166845,-0.011851152575619596,0.06089426169512847,-0.10918884175269322,0.06513295305445055,0.111768052833489,-0.02706621129965318,-0.09310455937433118,-0.03493443524029699,0.0927370007859974,-0.2047640127083778,-0.22816728981527745,0.06001284881765947,-0.08861046439925498,0.06347829937277825,0.058268245890743676,-0.0655866035061015,0.1808151889204767,-0.003996607761591037,0.07902350152168014,0.08329442089226896,-0.0059894806867171494,0.009314384906449586,-0.23488609828333887,0.06334477873788481,0.20436617785407002,0.06831843880405328,-0.022059090239889483,0.06301986142832965,0.01079899012981343,0.04668166689096892,0.07489640019649896,0.09875321461933216,0.037188576540964385,0.0010030565766432269,0.0014493840117775628,0.001033813584141995,-0.13015646957400054,-0.07602951360181222,0.005074219794715834,0.03937797415304566,-0.015452211609899003,0.011910794046411256,-0.1179869125727,-0.17705677521916627,-0.04247013728632653,0.04536794555872758,-0.012569096024091661,-0.10384574145152774,-0.09844727218854202,0.013018117953035355,0.0951488130135895,-0.08874258177896775,0.16123758641743316,0.17314171651788468,-0.11624848015854373,0.05955269857439919,0.013593426447863457,0.05196225328114297,0.10415634377952787,0.12918974945577205,-0.24018936581189507,-0.031867628335765424,-0.07450696540296448,0.1543865983662176,-0.06281249153871685,0.038030786159674576,-0.07113672070271759,0.059196248865425495,-0.12085267980545718,0.19640456506350262,-0.11807681943570357,0.02389596445554542,0.02183918244272765,-0.027598696258771555,0.04929808782536187,0.029878088998067993,-0.056379358966350955,0.09399779071440253,-0.06589988131936625,0.11077426172532306,0.010151373945449587,0.12772624147122405,0.1856190763056775,-0.12512070796357527,0.048137610642541975,-0.06273309154274058,0.008897337715608036,0.002781030898834468,-0.053370850122094575,0.11820687305436112,0.15877680884091577,-0.026763151156791287,0.06758806797318075,0.04107505598646669,-0.04609001981020651,0.06958093507614338,-0.05348573046542124,-0.031004874641202124,0.11248626863089842,0.028424723464671096,0.03080305586441163,0.1195535043823607,0.019782483738520866,0.08612044452473228,0.1337664066967128,-0.041784704480544096,0.24276196217485646,-0.05159951562512287,-0.018185629741676416,-0.016525827163904765,0.08265761687523429,-0.11676374604731561,-0.025318541390083892,-0.0482413808029721,-0.08440457727770304,0.1312969409944334,0.09577066798681586,-0.148300344304727,0.08161405898007475,-0.05753233147221519,0.033389735536524724,-0.054746487681795096,-0.1482496614107573,-0.11558168280033748,0.11725855798651626,-0.1546243353598555,-0.04449687341564983,-0.18707936235090475,-0.030889704097021735,0.04180780363679244,-0.27784911884476504,0.007492109801018776,0.04307628866977884,-0.09842044607189486,0.013088960351079416,-0.14219875698546652,0.07780728945874331,0.18262776832347477,0.10319325535553396,0.15459986716653418,-0.05804621603971857,-0.056694398553489185,-0.06305719100433566,0.049873834019885384,0.060375976181145014,-0.03448309102473929,-0.04770595163319005,0.049297580233520114,-0.049148482435734185,-0.12418976334985476,0.0070446983218092896,0.05742236822537071,0.016716465606712503,0.037817954385090446,-0.10152259852540799,0.1081022589195661,-0.04288028112641399,0.07537321916765653,-0.1647044207382786,0.10829320127476817,0.11379083490094931,-0.02885515428065659,0.14248745886227693,0.03842298512562612,0.008409036363240753,-0.006162802821072484,0.0403898480233571,0.1369519992465428,-0.044251249716573,-0.11063458892039825,-0.06348043914755182,-0.020095682033085403,-0.06334104812938147,0.09294089014889753,-0.035457809610673297,0.017685783301107073,-0.04181525750589196,0.052516440584892334,-0.11965697622935642,0.02300679291584884,0.05906563729589206,0.16931901914466024,-0.15261819717040467,0.05375895005523934,-0.011687126747352094,0.04889546909437868,-0.24198763933858577,-0.19360000065868288,0.04395698191637264,0.12462209722703704,-0.07782544907991794,0.1795651696408065,0.13936856110412701,0.001845086827780087,0.18705460588734435,-0.042786058633866045,-0.08626339092401655,0.00032660598521307057,0.060754478959668116,0.05719287114611816,0.039475398011328,-0.11003289107126335,-0.02871683837483522,-0.051164613187302935,-0.09634363706868075,-0.10389813097232334,-0.02585523230170217,-0.03736910549960805,-0.046047168477009785,0.002588010182764951,0.05214800825651481,-0.1919033163300533,-0.16775867117329085,0.1269601590186713,0.17282730738771881,0.10719150274157302,0.0011460070404248923,-0.1162267772705805,-0.037077300376798364,0.06656656445378814,-0.2771104258128242,-0.13975510493646284,-0.0772849834895367,0.062198176089056464,0.14485549423049032,0.09419089696167252,0.09862998712368219,0.06525691181997231,-0.020539544414063367,0.11213085906892123,0.022170541079277722,-0.07011915710235014,0.08137540565875943,-0.025782069625485574,0.06513940062620999,0.02669492758302999,0.09981752788497625,0.03855247324281958,0.1247367367808657,0.08313844130824379,0.142388216922024,-0.042926300152638645,-0.13095530159761745,0.014450114767883366,-0.017387005214747592,0.11806533152893225,-0.03702083732738339,-0.15734311252212718,-0.1972549719303303,-0.0008583945629163721,-0.0152647485658507,0.04491616910093742,-0.020483079483220878,0.0560166453840686,-0.03428143033575019,-0.06886930772833635,-0.028042740793685433,0.052374344252558123,0.0727931275133657,-0.10033942148387771,-0.013298557975646906,0.1845605795253317,-0.02047679837354001,0.004675276617009431,0.20198963312711377,-0.12744970834813737,0.03977240002223919,-0.11184196479142808,0.1654546243874156,0.07890488447097338,-0.012695512658846008,-0.004908799744474014,0.07582477951642698,-0.04951747781718049,0.01702229331533377,0.09277935121502455,-0.13067516986688252,0.0034733867669343456,0.05916911816218924,0.00032783548522754755,-0.14797131684120116,-0.14720287768950996,0.07817880680528036,0.10175051000809138,0.04243817414429631,0.14084338597856885,-0.0800118562566764,-0.19546385625796936,0.01590689805495353,-0.09093032697443318,0.06747130306978616,0.09374301543765598,-0.044688865391588464,-0.052455248597959865,-0.06454981541133566,0.059065802056622256,0.11529504069091293,0.09824598941151182,-0.005716439401597614,-0.04128135475450915,0.10759360505788496,0.14954299290900477,-0.20682639911153108,-0.08880493123836833,-0.035265584052451025,-0.03985545125655436,0.21206901901387726,-0.05451243805710309,-0.23201899965073958,0.23733766140663365,0.0882480628926067,0.10087581128919572,0.028819004736096922,0.21462589604301024,0.14699099972899854,0.21793511754300646,-0.130600207193573,0.03427626238006159,-0.11981504892980711,-0.041092325147156814,-0.10979883430856148,0.07499649599787901,0.06877262064892757,-0.03132999396064787,-0.07860855463973791,0.0054136067327459824,0.07700561975277236,-0.08089418803227683,-0.02910130383894242,-0.006722351930803963,0.03832923033154663,0.11276427248250019,-0.08108890492396717,0.028432578290203712,0.08226795476192779,-0.03868070676893558,0.17005541013134456,-0.004423461463316011,0.04710534017139494,0.08049466815529376,0.024676909716562837,0.012904843151381615,0.013355622230834809,0.11458361173654316,0.01775604861647727,0.035006091969507554,-0.15932013290451194,0.16595948294733417,-0.023073112420166016,-0.004396991225894966,0.07672336839733937,0.047825746808067976,0.0386077971674435,-0.20422476361392355,-0.06952620999333942,-0.003927397086919317,-0.03044522037554295,-0.041734909258053864,-0.03469889932677814,-0.04200466135984932,-0.04279609198410287,0.24090673969123125,0.041875799085429766,-0.07495263953385954,0.1969089065506298,-0.04522011547215686,0.09738054836215239,0.001112914987924361,-0.038843305895317246,0.06498471591427347,-0.10972805651606307,-0.07314197329790492,0.10786532734500258,-0.12407581889955911,-0.08265458578333687,-0.06015678477931924,-0.0716658795241496,0.03764934319600744,0.12203953810051514,0.04046679140528679,-0.07668437295410101,0.08528147709814468,-0.239604671686567,0.033104111005681135,-0.03627620338629969,0.17761544419523556,0.08020147455419313,-0.062385487443388773,-0.12288172278134889,-0.1458598411759335,0.030141811966637604,0.032625663413269765,0.225231958877715,0.045633354587286935,0.049868169656187816,0.08295083712814172,-0.03206028339206588,0.033063960084986355,-0.02831336676386449,0.009907040642019851,0.05377596814435404,-0.0169740440513192,-0.022994927095192724,-0.03846369041512442,-0.1215621372055583,0.11599001222322476,0.13000557701483437,-0.04975565896608529,-0.04339998871025462,0.05372652766384939,-0.11092122198207849,-0.10428692587873015,0.09055004449014345,-0.11190410514332866,0.11125073095784796,-0.12066251494929597,0.035234833850321216,0.09907740470739249,-0.20426367476430007,-0.07665475702390959,-0.21590422153075003,0.07386449594878088,-0.05498458838314234,-0.03202113793869099,-0.04599039091091979,0.005104569812109144,0.07509406258189001,0.19451660014297165,-0.011974031137396606,-0.013319022906201695,0.03786047471430301,0.1343988981263435,0.07006034318563559,0.19804780812560918,0.006674199941926043,0.07305494616016436,-0.07451629056572363,-0.021421820886570263,0.017351307503784615,0.13867314171119668,-0.334299417279287,0.04112325701958106,-0.14402523650958388,0.20986537670367733,0.06211266371141118,0.01516369962792863,-0.13099796951205872,0.011195098411551654,-0.13485953880858725,-0.10220906133887746,-0.044544152143131836,0.022884274269236653,-0.024740685779131907,-0.12333482907844824,0.021155395540793414,-0.04623775482043542,0.005195849749362889,0.15676184406451796,-0.0510035166122939,-0.07460298716483212,-0.31227972073605575,-0.1529314175614448,0.029840757670460332,-0.045163018813614626,0.1519699149438473,-0.1353348533465324,-0.07866771575206884,0.12704379563377957,0.020053298895566316,0.005391211441551922,0.17090539401972593,-0.0027570560029080765,-0.04226822071855062,-0.13138789225187011,-0.015755644110114066,0.1234736780437,0.11592530898843381,-0.1596145926184021,0.15866615164200187,-0.004020740079244225,0.1373769353185454,-0.03066932822628577,0.11943486598972788,0.009844861988095662,-0.1598432458921671,0.08076384053593044,0.024176400570263434,0.11686134076773526,-0.11633984124091662,-0.09648128468361533,-0.06333763285751064,0.0669736693044058,-0.003376632393222476,-0.10637050048287798,0.026165198620703958,0.023424843748363976,-0.0033106720686411554,-0.07146549392517873,-0.23260700620894306,-0.07082051707457256,-0.018089856730975525,0.08904084262766752,0.11855155087019655,-0.052039231608169194,0.11756856349672203,0.05454884940085931,0.07204459167280756,0.13269656282956455,0.08146780979738961,-0.025265292900198362,-0.18570677531746724,0.035654607515327626,-0.1333702802080413,-0.06458480770341557,-0.09911911083890362,-0.017851810544707237,-0.06568184812951243,0.0067588450785331525,-0.11839736197502844,0.14024919106554407,0.026528678080681427,0.03216697093108517,0.2027950466674904,-0.05444860796472473,-0.1283004014300093,0.25874113834713175,-0.017189459339819958,-0.02242267509174361,-0.10605391667397092,0.05721828455246058,0.11480578590013811,-0.035164242159333496,0.2437251882571419,0.010412664657838626,0.088784458080315,0.1225754349984494,0.004535152118648293,-0.07846711432028887,0.12709004455958886,0.1197366148014621,0.13385269927820065,-0.12251107296879743,-0.1268015167525489,-0.18328732315641436,-0.0632473523639835,0.020487898868575972,-0.02694164035971551,0.15475166963309056,0.08622683966456307,-0.09171562841498605,0.07442061708816304,-0.05650713868555615,0.10863757250600668,0.20165863995829314,-0.1572541114551203,-0.24424028653382998,-0.1614547305040371,-0.2693758546620332,-0.19958696215329377,0.09237392206772879,-0.08427034596350054,-0.07649532659116402,0.23820543255925433,-0.031599713140859104,-0.014088257855450287,0.14440666775250552,-0.044613185629135015,-0.044286561074126145,0.038725270078683795,-0.05453707286325297,-0.014812343836700525,0.05869961765117904,-0.018105126411341987,0.147751465955753,0.098530138689068,0.03297986184693504,-0.012121674496207383,0.0740044675484908,0.0025711912390634865,-0.035753847089917225,-0.015254519727929348,0.118075906850975,-0.01814073302046013,0.015349386210235705,0.049404933885225204,-0.14430641492383794,0.17218621522341002,-0.040688590487854885,-0.01246299587861538,-0.18710922881352665,-0.05058822659879223,-0.06280055138172047,-0.13569753656645536,0.02914882901447174,0.09014051628106802,-0.06026889935974761,0.1020586065385291,0.15469189972781516,0.01840157709352669,-0.10978944638746786,-0.22433689357532224,-0.001112489805028984,0.10236222515040669,0.3529527635440155,0.07541825457247582,0.1901281339278956,0.26251880988796134,0.15443287742632417,-0.05362964107669858,-0.03250474105891717,0.021929111195695794,0.07397889396696929,0.02530813348622629,-0.007793870093506159,0.13385373928862765,-0.2522715546159426,-0.06443194513831935,0.06514814966990737,-0.082290196664559,0.012370163719779777,0.028777581457544006,0.1819955762713283,-0.17143901990957314,-0.01347814676244927,-0.20262428566281102,0.03293243919831636,0.08318803127264454,-0.09733338714016218,-0.03185232031510369,0.04441508321618103,-0.03235917068835645,0.06372111869897648,0.09438049846992883,0.08759718890067733,0.09213768916810988,0.08483069986464468,0.039842729072533625,0.1556674502185341,-0.01754326970255241,0.051885567318930854,0.10714083741372617,-0.212633975954961,0.021718818713408482,0.03481235846092139,-0.1365157318385242,0.18664758842238272,-0.1267228379286561,0.013258854397812735,-0.10854458794770228,-0.1123725419645563,0.09995987304122207,0.11502255900556331,-0.011997664008616533,-0.06822490777539497,0.23186149643976225,0.0902890813498372,-0.016940458391808404,-0.01099085665449527,-0.03619156269894357,0.06917519685748713,-0.181178857002181,-0.052291022493747105,0.06502580249394396,0.271255693015163,0.06437158535375034,0.11174877521040545,0.043462881087314977,0.015391691937206842,0.009835955247643208,-0.013053107775436315,-0.033057407457020516,-0.03354082612270305,-0.0415652406296928,-0.04109607428109967,-0.0519079231429797,0.16559059394713727,0.08590043161334529,0.03511118181817782,0.07783076504218439,0.027231715023171763,-0.15193924425784977,-0.1313673898771174,-0.06669918286376461,-0.11754830485328116,0.040253956337696864,-0.01358578156422669,-0.03310908151608779,0.07556973216628815,-0.03784312530066274,0.06265791561539376,0.1616965091133813,0.08087441349287225,0.14090010911364262,-0.001512419008667535,0.02876324255284232,0.20615575596424332,-0.12881466766926078,-0.0672979490284363,0.03400446850030422,0.1828947919919967,-0.09004645464053951,0.030496886378593137,-0.09094401070341582,0.1025400459211341,0.1858549611379441,0.12394311650713931,-0.014841511157119359,0.032755806108250365,-0.059054658561249966,-0.11266899109509404,0.09398355476790816,0.10534350409012956,0.03983435621172826,-0.025452091801331067,-0.1288327084644479,-0.03517042562733399,0.060575107782819715,0.019357004401391265,-0.012584830743096737,0.13725109911269526,-0.08135680796270198,-0.027633335127874904,0.06372253430349543,-0.03264995352361038,0.033639959475826105,-0.13672359573295154,0.11818033599237007,0.06764406389041205,-0.028592726872229777,-0.08955481174231983,0.012641263620869203,-0.004943822281590181,-0.05256839107391464,0.017613398722519748,-0.06374632176455834,-0.02559683950214897,-0.04108198274128896,-0.04813419779883519,0.06008446909521743,-0.11116077656794346,0.048150958992904024,0.15410981346943015,-0.12851517943236837,-0.006783371350372298,-0.001438289088027196,-0.038226470134970145,-0.10005776937044462,0.03547730205869962,0.008814936918639087,-0.057956849316320454,0.002990724863798711,-0.02191631730775052,0.014447317344062256,-0.09094176584990876,-0.021020505010366237,-0.0014760685048454956,0.06882128127072433,-0.07321556811935738,0.00020639010330068824,-0.24932222425646897,0.14801122235773273,-0.05865295821726114,0.06747770882779477,-0.09672736391258459,0.06662419418345412,-0.03745519281440045,-0.0874480970873606,-0.1791109437738976,0.027862590075151485,-0.05679820185115926,-0.10812215456742902,0.045788506225834635,0.06075815342399586,-0.013625716932153791,0.1287834023384174,0.0018708130978978847,0.07519911642040294,0.026426496101761145,0.07646351116597873,-0.17189424752866436,0.08070565287607015,0.165677019376316,0.05266501522484786,0.015750538477122468,0.008938669782516978,-0.041982755905648164,-0.0030514370315699816,0.036734809612049446,-0.016189246805737637,0.06970734845646705,0.061616344845311415,0.02318317878196985,-0.12533512477330797,0.02878918790358573,0.17253208538954626,-0.022106476509686047,0.002913378492055564,0.0014431684782471575,0.0003019519514397776,0.07814538153779826,-0.0304175829780569,-0.026785799255368777,0.0554600755979917,-0.022395516311173307,0.024290544797094655,-0.0950856271857711,-0.19189023859971643,-0.025135594890725567,-0.01774151209657762,0.011646198463249047,-0.17190826788223626,-0.03943074058276419,0.04795373878349588,-0.058079831190439045,0.18422237338606992,-0.03882853892433173,-0.044086272421556244,0.1267115760484354,0.12867365680628248,-0.003354198426314494,-0.030239744072940992,-0.11026798131967214,0.015340246934640976,-0.03740160860395266,0.0006219443369720748,-0.04830702294948471,-0.018037784239250364,-0.050542885002463775,0.08222453623892724,0.08716722883124876,0.20343594255823125,-0.17608361748791823,0.02313382565193573,-0.07820215107009153,0.04371150341082697,0.0019485155801362614,-0.024090710386050027,-0.01742508079840863,-0.07873732624438999,0.12579161024351063,-0.0846147829069419,0.011148663666922584,-0.22090520448026812,0.12615868225672505,-0.06513810848865467,0.11446608124135559,0.031299927953970366,-0.15370943927455058,-0.16891403059074633,-0.11803735071740894,-0.14550771281390015,-0.13970910344068,-0.16780713125043348,0.16101385659334183,0.03659054102866703,-0.011344229848265636,-0.024893608418042577,0.05233366751797688,0.1668058839931336,-0.06911877998297339,0.13251657179480028,-0.13959295506694777,0.02889425000044858,-0.027494821427153263,0.19605881933069472,-0.05836781048188027,-0.062158222421274355,-0.011923842833343749,0.008865215674252398,0.05492946635271678,0.03752023479880902,-0.1180224067694888,0.05827515601866324,0.02656183655192602,0.06159252637662175,-0.22925863680676437,-0.0059255621848566115,-0.01692990698799793,-0.09057827022231235,-0.10358730958872922,-0.055742142552521454,-0.22099040067753078,0.0014310596448909643,0.053298734918156836,0.0836261034918119,0.12037963992620357,-0.053186430813129563,0.07608588757509527,-0.03679696677277121,0.002954799587095792,-0.031459928287730074,-0.004013998220570145,-0.0004463523866260745,-0.021195614079860613,-0.03844396183821929,0.05132564331555771,-0.1807862190949412,-0.13143780568518518,-0.18497601986310833,0.04038230397152244,0.12830554440602568,0.0666661635361441,-0.12168812184481594,0.03505016067806851,0.08553036710102237,0.02245591527511379,0.04170850799045404,-0.06919086921276886,0.04611327443561365,-0.009668311167502231,0.1321066369340008,0.03245317714236366,0.020999362269153634,0.08730328339966933,0.07382849011385613,0.10239056489043641,-0.10527524229597802,0.17706360772063673,-0.027848729932075666,0.12530147786164364,0.014033088790394024,-0.0800008079614609,-0.06139689794459009,-0.16308717286373056,0.04381357242966703,-0.027774071217219146,0.1445223467657878,-0.06763556566624729,0.02838076996790922,0.019865378062372284,0.004239356829825265,-0.0345493614396178,-0.04105448039354282,-0.07411119416889346,-0.08929452215165742,-0.06918140289398553,0.13241856732415042,0.02302826595892206,-0.010155869670081245,-0.018035421130719757,0.07438828806808641,-0.021947379243064214,0.027030636180816765,0.018134445807003952,0.036748518438450256,-0.0488922933414279,-0.08277457337122344,-0.018333238157884433,0.061027052511828,0.15539559880312953,-0.09405200343696679,0.025941639732022428,-0.12678097627189394,0.1568444276801981,-0.08059591251692085,-0.016550927687454024,0.15519323117538394,-0.04608572426529696,-0.15275982309850308,0.13406273979389483,-0.10209492377575638,-0.0005020357171030472,-0.09790676224539817,0.034134284931117184,-0.11220766793921468,0.008856204586615585,0.0612797578671979,-0.0012079106286857688,-0.18316885778039033,0.3315207698728297,-0.12038543239167422,-0.01168751459371131,0.15681351960421122,0.063535634709954,0.09340928902098304,-0.15063874393969978,-0.11826524545471787,0.04609931905295829,-0.07454369996072881,-0.07242834592056255,0.021147551792069036,-0.01926890379201079,0.02298288194040541,-0.13566384043926027,0.038278453509865196,-0.0699528862298568,0.2253408507359668,0.22861300924711142,-0.14119780296548898,-0.02719626985080093,-0.04907840637436013,0.016207535358512923,0.07713168896315976,-0.11477432953059286,0.11904509045075477,-0.0507454707824912,0.1449338667626476,0.11905527676813789,-0.030144059200113954,0.10368040388993051,0.15919024993806838,0.06897891148621237,-0.04298134823250942,0.040320353013218346,0.126639774795964,-0.0290298665588527,-0.14050847792252433,-0.10552352763705672,0.09067107011126711,0.0016064640890282689,0.02918769138156297,-0.04123741455843395,-0.026322260511952206,0.20456775417902145,-0.13303947298837046,-0.11527940092793622,-0.06604462148305741,0.09062504959695496,0.06305920609517782,0.09830059215705496,0.06591642935283247,0.0852875983605595,0.10728868042734296,0.0009797679245140728,-0.15378099826781258,0.013560365416634086,-0.017162143370979287,-0.0603406219465184,-0.06264145920198874,-0.16820583330419675,-0.1414400806713403,-0.04957222729646037,-0.035141410690990756,-0.0002451724858102792,0.2154475057322371,-0.0772037872889666,0.09717774013595704,-0.03423481671957727,-0.03033840456748139,-0.12665187009014806,-0.05912899468055709,0.0787728406842409,-0.07406079475136566,-0.1280101065641934,-0.02346870012831533,-0.004890279739255614,0.18006697509905184,-0.12621380416065012,-0.11181001395574487,-0.03690060750011195,-0.0766520707010882,0.09720458963073611,-0.13338613937228694,-0.05253509525884045,0.061085402159406894,0.07675437287555559,-0.06325558713350599,0.16480847913092259,-0.01311888258234559,0.1616486561279768,0.18063584691474943,0.05736173032997871,-0.005239372837884294,-0.0508238165819741,-0.05201553786325674,0.2803829204847524,-0.16641561481415634,0.16257079391611265,-0.014050558431825608,0.012696665203452414,0.015699929485100152,-0.04996248946974076,0.1530034390047423,0.057405144997072055,0.13685696178061532,0.054817956971661724,-0.04525003137944171,-0.0003769680165783436,-0.18661399427731562,-0.10948600971673479,0.1258638173039503,-0.14451458637420647,-0.07836509209263501,0.09332436683919348,0.11475840050371279,-0.029521589684927834,-0.036241864325645766,-0.021849414641367755,0.018172079142316448,0.15052661944937795,0.03264063972171208,-0.006880931161055744,-0.025640687568560607,-0.08236015943210215,-0.009934248060236215,-0.1548274404775481,-0.0219163537579964,-0.17425871194981676,0.12086400653764984,-0.08604079934219372,-0.2088512793549621,0.03641858971950708,0.006959289138166419,-0.019355373707572045,0.11856402825643894,-0.09567811482709544,-0.04422558242530755,-0.06432551411050914,0.09394790511003197,0.03371721899581117,0.0547299065931681,0.06216812606179902,0.10090648766420836,0.19323042985183894,-0.006537898557219659,0.006579922836537857,0.02749056740828206,-0.033925616430068646,-0.17616370213736773,-0.013226091750643482,0.058553289897479516,0.06872220637751307,0.19673954678840916,0.057174523014194054,-0.00902011151493321,0.04127439363492454,-0.030321014845273362,0.011215904001947077,0.09466917834405376,-0.052753177354740596,0.04863726664667935,0.07158475790223928,-0.1509404849582098,-0.1142471901870586,0.07226626200185082,-0.021841648007722998,0.03097514572137537,0.15786742613217425,0.003316284650414958,-0.034785628666223804,0.05608072824788844,0.07046012434717824,-0.07387866373463846,-0.09712416419814046,-0.08309813101120091,-0.07097127427830388,-0.23953892892630846,-0.11472062688550883,0.023435245628678873,-0.03404254682076259,0.02787273711487577,-0.2456688086149567,0.026847776676821505,0.09749152918358604,-0.056334613039222874,0.0839132504579483,0.040276265801897,0.08010808338788823,-0.015962129736453858,0.015515702332995901,-0.15173260062831476,-0.09919366975753684,-0.09833742633626774,0.015820645990795613,-0.13094667487242873,0.07501020085304416,-0.05628588497398571,0.028331637012111083,-0.2271012833957992,-0.03382332289191719,-0.07298567115620033,0.0018845765188466239,0.03459994892360993,-0.14518241268690235,0.06700321719122786,-0.04131584000226561,-0.16743225632394537,-0.19885121104720163,-0.12194703591811895,0.05619751425406565,0.23078054357597824,-0.16123032027061437,-0.027600075879126378,-0.11138819881714354,-0.09646596708151188,-0.041549943830198485,-0.21028177836076414,-0.06699555051395727,0.01162120411802137,-0.16135512628461393,-0.03905447222823063,-0.0322227146280661,-0.017292304355404853,0.029161283733661128,-0.03218381813489107,0.11123268431863101,0.14875209751675153,0.08056053017033077,-0.1762128088550038,-0.11833707054071307,-0.07213670490875422,0.059013266582548525,0.0726744093106656,-0.15160348857312228,0.003950157534506649,-0.31326244480138626,-0.013506358530600306,0.08199380573354212,0.10676692011659976,-0.250963500712248,-0.05790494941594538,-0.04606269878813874,0.15762085597458356,-0.09222858106040227,0.022267691862397916,-0.06373004866889387,-0.330565474139297,-0.06322425530276934,-0.12547955031427405,-0.05433056231540967,-0.032400578082666116,0.03509484495520315,-0.06575739884185956,-0.019345099184619845,-0.047156260949148446,0.032384936434897,0.007546606632049778,0.03950423302524147,-0.08423075422590684,-0.017445525831922198,0.027689584676288657,0.1341769438979839,0.2106652998441682,0.0052145789711567515,0.03789052595156014,-0.034396279984704764,0.00698648291608491,0.009759166453983472,0.049693861114912974,0.006721396687876173,-0.018077501216553646,-0.014445201463804696,0.023179180693150718,0.1449004011123921,0.128036101776278,-0.07427266418743188,0.1413446188754952,0.009643720343324861,-0.20025925721155272,-0.022522598113897473,0.10852271230531511,-0.05459554073401142,0.055963353985056474,0.006139289172058472,0.06298605528406777,0.06549435202185029,-0.1035969225041499,0.07825196188607102,-0.039337098112412004,-0.0002870353804804284,-0.21459195791124205,-0.03756118758232765,-0.11689073997204485,0.0047726421725229895,-0.030841763371316396,-0.039619144025824664,-0.09897454211533052,-0.04139359812763144,0.04545912471211003,-0.0986937270450151,0.06807880637876895,0.0049203094369572025,-0.07525588268958382,-0.016313638930008256,0.007067267810797501,-0.062318445400541544,-0.027107724996057153,-0.012737412856043804,-0.0476117811278516,-0.07991374768025206,-0.06582836733075827,-0.0008579879555891203,0.08076222261854639,-0.02623654865085766,-0.04846823880812801,0.14115544728649068,0.04033855062330228,0.012515820449479558,0.09927509139094735,0.039932663442824805,-0.016392604552403277,0.10212806904403303,0.027578914604295218,0.013890269243828234,0.1006538746663687,-0.06382211484027327,0.0011894233725417446,0.012881108371593404,0.06954937483071352,-0.045689665456960106,0.037045990337512075,0.016972906634801225,0.012861792024404193,-0.21191548552946438,0.26792725230334946,0.017683981180811065,0.03348054363603903,-0.05156436999095471,0.07628617121156454,-0.03534685079297234,-0.21328243846835362,0.11132553950381074,0.0348087217690161,0.08021255760549863,-0.041288123516398025,0.1195994674957099,0.003937881488864843,0.020160894148795648,-0.06718130747325374,-0.1455596718649621,0.066690150636596,0.0008975900475816026,0.12100922393826605,0.08862092856424812,-0.08957708194806463,-0.015354144335870564,-0.20402946554059442,-0.03964684424331197,0.027485581924835627,-0.058724744891321644,0.045013819049904875,-0.03073200103786518,-0.0571154847964812,-0.10522784102737952,-0.010122019751398688,0.055606354574578125,0.03844186203326393,0.009985347023458059,-0.08112157568882085,-0.05356286331827139,-0.17857630658114543,0.06481099619238845,-0.024908898490306683,0.03303372402339396,-0.07231430082453338,0.17942327936222782,-0.003446261401156001,0.11513363214113205,0.056191587484662936,-0.008440583355906387,-0.12044851775096638,-0.010987837015362007,0.22562568624771953,0.046432222679704524,0.025548996416661873,0.0022528707247361805,-0.07798830498242612,-0.17489815390936522,0.048380688133142995,-0.2003023605806836,0.006179407287212522,-0.021762893352439704,0.13280237910297601,-0.11363207613401671,-0.12728528498980196,0.15186905307358445,-0.004517432591402193,-0.09618023019872034,-0.1328664783472471,0.04574031288203123,-0.12601573944988997,0.14743805588634218,0.04449181071821185,-0.00947523740979076,-0.03867201481932897,-0.07848247626108072,-0.0363468260538906,0.019664394072881577,0.2014316153537983,0.07599826751427358,-0.16727799264842638,0.0206197228729389,-0.005112038576778032,-0.06768568029440868,-0.010272047746032258,0.031419663561858845,-0.00941577851123554,0.18124099496204985,0.11732160112924293,0.006623453695505203,-0.0007826456877215709,-0.09783993690843952,-0.20597320041149034,-0.07853793515548808,-0.006455038009974629,-0.0323072394963513,-0.05974870764329031,0.07281214727433323,-0.1626849370796523,0.03791259531140677,-0.05802153803016287,0.06931583470852075,0.021427429979747625,0.031952667583860485,0.19068761952601532,0.00930623728343362,0.030824561536674868,0.07902937894579369,0.09053811915063878,-0.1812843636285906,0.0628206647276549,0.19535873608557056,-0.045272321905954774,-0.017260070752871885,-0.1377403317939521,-0.11924793437979057,-0.08163220066806964,-0.04695541759545662,0.04054208032951972,0.06046786040882741,-0.020377237182034328,0.0029599599187223194,-0.01378683752080158,0.020917119934298702,-0.009015671449119451,-0.030885294717235185,-0.10968094715882572,0.05666058330299342,0.08086594890482805,0.10712551897468384,0.06279447799907846,-0.03068500282946604,0.11297059017282232,0.18466241710024575,-0.029267794047342054,-0.11584332590277344,0.04645599158379984,0.1547114432283858,-0.00005562646964359719,0.03014870766908768,-0.13832785919078192,0.16292060003768638,-0.08387332334149392,-0.024267225031560598,0.10203696841449851,0.11642861646769502,0.05997267997405586,-0.05254105119312124,-0.045203332073067766,0.16653477141012066,0.002620286491725066,0.10506211643328568,0.09851350466445988,-0.09961913640234168,0.001793505795117906,0.015851636169776893,-0.028346694696806896,-0.0570388523980231,-0.05089418491467982,0.05783719598218232,-0.029919991269316416,-0.10195261160494197,0.013865727222087272,-0.008690104365786981,-0.11775027564469655,0.14547997606664173,0.015769592952902325,-0.17008291089941785,0.15690533364709455,0.07890158578282355,-0.2742081387006769,-0.4494615687476292,0.26290384618387586,-0.11009743218506278,-0.16665373271524378,0.007253281343633231,-0.40597286683277023,-0.5875537815366938,-0.02629656152335157,-0.366071871254644,0.11601392530227486,-0.12534928808195628,0.1566781253866869,-0.04010056819526039,-0.16563656345854005,0.027905881003161465,-0.4102954325169314,-0.023325737834616236,-0.3558809091142591,0.022961244895517013,0.5035265406631475,0.006973654830330392,0.4965114063824027,0.048360583044636855,-0.09090729376200217,0.0044888574133340395,0.05703068907758833,-0.013270433721807123,0.08982938826660301,-0.25935130732113437,-0.30197119243516596,0.0914987722933748,-0.15009910799090947,-0.1137362265269704,0.33685857302553956,0.0015262452616023798,-0.054446438299034526,-0.20911586772057228,0.5454447961065729,-0.013218565189724751,0.0435939828186662,-0.5972267482528814,0.03168141788570215,0.004743446639732972,-0.15822550285158277,-0.13011017098999392,-0.0674560354743745,-0.08686845747309085,0.0004295221896233469,-0.07378708812166676,-0.020032020097603586,-0.07762513614185328,-0.05656916921575723,0.032923762209376414,0.015876901417396925,0.43664957533158577,0.03714364857781181,0.23486851475427492,0.024366326725991688,-0.10907242946102068,-0.18656178979091148,-0.20735981486886004,0.09712132969662517,0.12252552349825804,-0.049973425333163055,-0.49598385626436514,0.19096628336965177,0.6291465953984893,-0.1281927740539085,-0.027715087786958782,-0.3858708507096831,-0.2577929587749166,0.06537895250350809,-0.31277864900563074,-0.5134951642610535,-0.03717358834601808,-0.5215511144166796,-0.07186379208991865,0.17715235126030493,0.2931075019361175,-0.4518502997674645,-0.05699364039799217,0.09838244780851083,-0.46645521765479525,-0.29290236846764356,0.030990121932206217,0.6210633710000867,-0.1691341725538555,0.0961471487869729,0.015888897814454305,0.08011518605008551,0.09494796843657298,0.21669694772419287,0.009336799309440522,0.14763132637553997,-0.41849053373522843,0.08915854093887196,-0.24682694171770336,-0.06637655688205675,-0.022655491760111238,0.09492491926271933,0.17641136099222648,-0.35993063798734964,0.2564569745523876,-0.028213420105646272,0.03623319695038477,-0.07950621947648413,0.07321190119442407,0.0400238348517029,0.2348222662566019,-0.22706806273120136,0.16553406052928757,-0.2528390799758982,0.27481386371517136,-0.07340865092838747,0.03339934452197729,-0.11252143797436982,0.012371828112912292,-0.08956152301000232,-0.13528691137800383,0.2717481889887078,0.5525334915509775,0.5563222466585279,-0.002776264594966976,-0.010054368767010175,-0.24313276241665668,0.46341275427143896,0.460144739616632,0.5954758850375769,0.04511642493213295,-0.19330159889312284,-0.07808124381413108,-0.18031279263043212,0.3493273867916719,0.06941318319783403,0.0290499803920821,0.28334092957755325,0.3812938799542461,-0.10144841929613178,0.22779087537653683,0.1522864846002223,-0.10876850501813526,-0.25234015172271806,-0.07966701765530129,0.061174267231601666,0.07204300578961641,0.5323150264963902,0.2888296534651838,-0.019543282699483758,-0.33414520379037893,-0.45167988516402635,0.08034620854937094,-0.575579112932933,0.15519652812591714,0.44277845352461886,0.1576550639720447,-0.07173778633466267,-0.6107336077922851,0.2555591287538498,0.6208983899975951,-0.43049253446112973,-0.21926843454693382,0.19260569685617343,-0.5622665243432393,-0.31307539712842297,-0.019992968449200982,-0.270829082266837,-0.024534560839936784,0.052657404596092,-0.5319541377946577,-0.1452492486273368,-0.06097535820723265,-0.42588581081552307,0.012582952531643765,0.090379567406661,0.030448068429654356,-0.04595825013676688,-0.25231570472183334,0.7099224491701882,-0.7369629974135651,-0.023972055802051827,-0.24469433888020556,-0.21516829021851303,0.35187922903426155,-0.17596059747896986,0.3926651439882144,0.01764278482443523,0.05718358537213672,0.01254661828791472,-0.03771301290748602,-0.1634181359989949,0.33811257286866714,-0.1506832072404435,0.1201104882732981,-0.01171706975326437,0.05688969195854682,-0.0862372329618364,0.011854987243033065,-0.2855636822490525,0.456159808578456,-0.1361461076925263,-0.03876946086163943,-0.08131660797140282,-0.06648409778386768,-0.03759407519388334,0.17525088066079225,-0.041603889474101964,-0.4278238559077403,-0.1308743790324749,0.04216804826811291,0.7447853429552217,0.04907352094976238,-0.038676260592377956,-0.047220451268106645,-0.3534754346995446,0.11460385728429688,0.14540070538135189,0.11823544607656203,-0.265856028848372,-0.40521834029280246,-0.19440178544232928,-0.07147597959379692,0.07951512915486875,0.05138453921885694,-0.16173258166225074,-0.021310684723479696,-0.03435664846294403,-0.6258459140575416,-0.28901092522671307,0.03412718873924058,-0.16204607425801754,0.19977486885480455,-0.4665022403012377,0.07083457484253677,-0.5810195844741985,0.32943295927970256,0.06743408093339955,0.0014781763531570903,0.15086215121805185,-0.1342575041928028,-0.030333048964471598,0.42609291970042845,-0.021509949591390312,0.09715897353353727,-0.06636937552145784,0.0058660996009077555,0.30567014962078826,0.1052406372144199,-0.012302755380566691,0.37431688621114484,-0.236794824631695,0.1059447362721576,-0.12058264082348881,-0.0026373301732540645,-0.11980079650487432,0.11553008752454302,0.08766162695494621,-0.014424127269244863,0.05393198728143666,0.024169278053789215,0.019631135664383098,-0.04970388338064702,0.04440459932453916,0.0125005477565489,-0.10721020309861831,0.00025910916136717807,-0.06341163508502433,-0.030440292861523593,-0.07383323037087372,-0.010195061329219686,0.08455840718360465,-0.0420728067233145,0.05196517656923946,-0.023925635730226085,-0.046404782030754446,-0.026550197780787786,0.031911169171377526,0.04526367432473831,0.07676866626871953,0.10062449549407956,-0.0017974132548723184,0.023505808279622217,-0.05692336882658839,0.16066027696987226,0.0056204235789264504,-0.05388694846473724,-0.04293782823075396,-0.0467941458287904,-0.11399540517884543,0.013227534913556372,0.0644295133278529,0.06847304055269714,-0.02019939139673337,-0.03657394063763921,0.1680927298021775,-0.14319171625330052,0.16296616283664617,0.0930800062743688,-0.015560697252033703,-0.06334544751598564,0.08645077472212308,0.014240583195177169,-0.04392597032514,-0.0029677950345068558,-0.07201790456557806,-0.044988017768771364,-0.0006720162437212747,-0.09168786434808586,-0.01472559055659839,-0.07403853875161731,-0.04163915732773942,0.11154636072127097,-0.04148229977663658,-0.06815063551497577,-0.03221795123616787,0.019224373710337802,-0.0781962728045164,-0.01491404017157519,0.12028672855264572,-0.019763744076925913,-0.05340029883004602,-0.08556061747616221,-0.0676730230838974,0.008949684213784776,-0.08832320794814037,0.0036027438045604485,-0.04849515774364382,-0.08668489338510121,0.044533760519915505,-0.157017756641583,0.040806025921644805,0.14242578962815056,0.09533428955941081,0.044725291737863666,0.07492088992271045,0.07350343462317732,-0.0077746947123984245,-0.059783875419255755,-0.03311480110193539,-0.12215259055631059,-0.017653646986347683,-0.10641075706016395,-0.07199912925391073,0.030866348398282374,-0.10590925552438604,-0.05087886778527769,-0.11673521899127713,0.005651569392731745,0.023896511477803514,-0.11638412016725061,0.03853714057937979,0.08964342224884207,0.15255843976659494,-0.08805847983151241,-0.025604520095912048,-0.05511573137061263,0.11938091636823024,-0.255326176213086,-0.08320234142883723,0.029682732027083727,-0.10461940346955381,0.036767870965287296,0.010401231792523022,-0.014591788164443037,0.11797038841125182,-0.034840963841133055,0.04829337231195289,0.1561478885124665,-0.15846218099835715,0.033570490251543746,-0.00743047328007936,0.1503226483338877,0.014370242458107857,0.03647991510851056,-0.0177946124686287,0.04506202554655321,0.1585467173669221,-0.010604026133323091,-0.10044718576648698,-0.025102965200832477,0.04145596906247713,-0.029819126333171412,0.046666112706721774,-0.04467884169779054,0.0952588788511835,0.18139802129751104,-0.10517736288890364,0.013875263113797685,0.03252219853281438,-0.09385815630190883,-0.19125445845226752,-0.007798463041328378,0.03601253051131413,-0.05345022617474168,-0.049159211135183525,-0.06978710346814133,-0.0737357716357504,0.13787915100312195,-0.017649970057765918,-0.1543148408890458,0.07463564956416859,-0.014672196535074662,0.0780233741596273,-0.11162657238201475,-0.13076698775218126,0.003320939596792426,-0.11098649104153119,-0.03932901693439088,0.057448746404092234,-0.16414181208730877,-0.0031650808656775767,-0.02621867295799802,0.0847375639361972,-0.037724690054903566,-0.0034854249935212397,-0.037620859815049645,-0.029436356317196464,0.059336658482777485,-0.02275233365579198,-0.019381084451669663,-0.10604704232887141,-0.035277362443732425,-0.0018550797435469577,0.08862944145213314,-0.21934533999471145,-0.19350785087959993,-0.07673247524157001,0.23440226592070884,-0.1321906522936754,-0.07360551647987808,0.10655771413392587,-0.08499605946407247,-0.006546442417863407,0.11139594465575967,-0.06066122603420872,-0.017644030865896727,0.08765745391172064,0.1521857876827525,-0.07862133400072707,0.01316425033701548,-0.23445220504468203,-0.04844906639671381,0.062000155774087275,0.030676824597055757,-0.17168221155752816,-0.028157037141061676,0.04787430844242992,0.08604432352623635,-0.008491737642139117,0.0028872630861106383,-0.02739099312527502,0.023714025542436765,-0.06439014856376905,-0.02564083414739259,0.14206233809827948,0.041999343966479925,0.07616804023042353,0.023556552324742824,0.002586484797493373,-0.02809226100059723,-0.020216506143513557,0.0034637710990072564,0.18927623407752642,-0.06170028375090373,0.16190271340319864,-0.05949009537966381,-0.019507464994429957,-0.01288614203427815,0.012275711693779891,-0.032496292267206496,0.09705571145585758,-0.14122002707339742,0.016510577560256742,-0.04950282497966164,0.14177094469485013,-0.19694414064079185,0.03689206281988926,-0.0016694398086029745,-0.0539179415811867,-0.0749326267098095,0.009584564163248299,-0.011299378598181194,0.12366459746308063,0.06863435066205435,0.047650587997818586,-0.05062561773250907,-0.13830439602353367,0.10609190996122628,0.06406875521957923,0.18003312273166994,0.07934947782241446,0.03540789419468546,-0.03225014198366082,0.01704722896171448,-0.13263454042751577,-0.020079661056157994,0.06049342004073905,-0.05773929126097823,-0.0697369020013513,-0.0472929809379196,-0.04878594234891256,-0.029677431935165647,0.006920181878775847,0.00483948789243915,0.044372481103075324,-0.13539655165245315,0.1158259614560857,-0.04250461604899633,0.002834352851084786,-0.07826171459755463,-0.027450983455484027,0.06740568011105827,0.008542185770158032,-0.01453234320058644,-0.1344783668074233,0.03066417253655752,0.06278431535266005,-0.0588228418775185,0.05765058502233307,0.06586916844327102,-0.03310320155047935,-0.051051747216128734,-0.04922360325012028,-0.1289809092474871,-0.001783564909055114,-0.07694247864695339,-0.09139414842053384,0.006538220249051935,-0.021213044986355237,0.034745274915197646,0.0038647105329377464,-0.14026660688269388,-0.15659270011136275,-0.026212869788617782,0.005358317283087257,0.04096067676346702,0.0759667067118118,0.013877036826516278,-0.03716419754485443,-0.07547504997002584,0.12453259934133239,0.07113951928644743,-0.04572674952369176,0.09390899733347377,-0.033436552656677984,0.03638160833032328,0.08373883060881872,0.15091633410586916,-0.030904536815954203,0.023921983841144644,-0.027520755858440313,-0.08713671849898122,0.09070904277042781,0.12044479024813536,-0.06584273514556271,0.05888045923934996,-0.0533881384714362,-0.06014217618186025,0.0328168731174383,-0.0558124070729586,0.11219459331483358,0.009238707035696896,0.07188274211134515,0.09763109825068245,-0.08360264288115282,0.05860074322083122,0.005044508266761121,0.16737696334313143,-0.011871280513275734,-0.04397209261060827,-0.01220715382018429,-0.058820727534197835,-0.1507560644350053,0.10670569922869282,0.04891566344463014,0.007758262558073486,0.014897338311209079,-0.012253190588290035,0.023573832476113697,0.055314197002728945,-0.06004787371056728,-0.14667132806066557,0.015842525802210992,-0.1343504575366909,0.05212064014108014,-0.15435933422106743,-0.06081491107602083,-0.039174475174418126,0.033944187515008536,-0.0081010104376438,-0.0992547233951303,0.16785578059359316,-0.0218217896451678,-0.005064284791253314,0.10349009380319037,-0.038432797096992086,-0.030085307556984457,0.0926415080740166,0.009943228181381865,-0.16321351571727002,0.05823031405174303,-0.092399780975339,-0.06193937815248096,-0.02684526742817407,0.0028159982126626563,-0.09672695224985046,0.06766186912596839,-0.006863417362568835,0.005964682863702473,-0.17244986019306008,-0.04734844137173019,-0.13780639950816245,-0.022244588312657684,-0.06006175569118803,-0.0628617546999836,-0.11895954875221146,-0.07945145242903219,-0.12990636124245486,0.15643986526792195,-0.029825376756265773,0.07116926954230093,0.025547128006339476,0.17558954361855708,-0.032649359339665826,-0.038697544397737524,0.09111090424244377,-0.03760251810095859,-0.05418559321383231,0.003340384559006841,-0.016237866903874184,-0.19857766513549713,0.11702775501408386,-0.20883931585338547,0.00805951451944873,-0.07735261048593214,0.16431356591063975,0.0874788746596345,-0.08982990925157412,0.11072135544774848,0.1419582126370052,0.015949023314407586,-0.10661441589327454,0.10500844694058567,-0.030058163897291143,0.16178527305007687,0.027462494996297805,-0.07938882916351922,-0.10446961126396463,-0.12756707416270496,-0.21359738504232745,0.08588209464052612,-0.09773009813035675,0.1022000575437467,0.12186621310662873,0.11860752645481104,-0.036009551689466616,-0.05646711219412673,-0.10376708885345495,0.08954684323158724,-0.0887967101086814,-0.01775067923237952,-0.15165801091919937,0.005668371322021237,-0.18289875772862463,-0.012854725039912517,0.04130578368112321,-0.03518824947421184,0.08466670310065628,-0.13046802255130963,0.007998052018730856,0.10345447721686947,0.021118951188687035,-0.028130157909061388,0.04113306744163506,0.0955508262316709,0.06282057867756213,-0.10043261835529657,0.06628254757191424,0.05015727447896747,-0.10168528379963215,-0.04209530796307841,-0.062464934979783934,-0.016415186036789174,0.003330453829135663,0.05877043911032173,-0.15248930067791105,0.07309115602100393,-0.06785410983013712,0.04497326683252888,-0.08408440980450096,-0.03419034801779957,0.12485032902902826,-0.04045865224704386,-0.09373350279003595,0.014260202961845663,0.06586180428655516,0.10455719338946266,0.0055054391768281545,-0.03019938404174541,-0.041786355689057406,0.15138085703764995,0.05381521641921058,-0.16903126334282556,0.00606259216391863,0.161550414611987,-0.0034315287246561945,0.011661841704658792,0.130150249454492,0.029043018862146757,0.04569681287442849,-0.1449839538891115,0.012844917160424036,0.08368926787280614,0.07483610239766644,-0.10338677716719502,-0.004123881750172294,0.018506466803408114,0.005723280795860239,-0.08455483049877434,-0.12139312197914189,0.07769113690089102,-0.08602318317448909,0.0130661727808141,-0.12792893242338627,-0.09079441975144,0.1888750444114605,-0.038504249328040405,0.033766784168445266,-0.09168067903657173,-0.11230506534410599,-0.0509317773232507,0.0003606800547385709,-0.02219474046832318,-0.18793675912606983,0.18369000399924962,0.005644176506239332,0.05526440479293878,-0.037024578468773585,-0.03246928933288124,