{"layers":[{"w":[0.03603684748506073,0.11677556610938668,-0.1315411736185606,-0.21348857492251766,0.12531970236129092,-0.06378936671456605,0.08999919315541996,0.06205901725250353,-0.011547606398525636,0.150483972102067,-0.0019288686825779647,-0.009905239719552539,-0.06425161166745079,0.0729791168000243,-0.1527540144331787,0.0067974279583442095,-0.02235009153080184,-0.0038220519048683533,-0.2021335409992298,-0.04669087183507622,-0.020136895427664774,-0.050107017526198616,-0.21100260929581818,0.0022695432034284518,-0.16767094273793245,0.13388858861578196,-0.01736721028179168,-0.054389202931305336,0.17231244635063875,-0.012519150903447858,-0.14115225244795862,0.004116095752006764,-0.0956395376407514,-0.0481261077506926,0.23079786787938109,0.004702241214450462,0.025647335583653345,0.1765466948259656,0.3012798077886651,0.1707710900692878,-0.3451872936962717,0.005655076945295731,0.0767774400952235,-0.2806790035159146,0.14062841080500393,0.05547298847788485,-0.021932794861326762,0.12647152764505076,-0.009014520966229837,-0.20194276690457777,-0.12679141413685222,0.0142026706822238,0.08438141427785341,-0.17274392879897504,0.08600143250294759,-0.18862483016000942,-0.1705498195474374,-0.03297661988870035,-0.06690485542551,-0.17748397950798875,0.04537160502279271,0.1963580007160522,-0.16466561212720068,0.07994597007453873,-0.06086690378115935,0.07918868560905579,0.10398619184287589,0.017432716281265966,0.04555172879582742,-0.1350273956325133,-0.10249088375751896,0.061890224338425566,0.31078614114081454,0.10595059226317287,0.02042328227723085,-0.009811205246742085,-0.011709652541362968,-0.11686765896956146,-0.15397316736733793,0.16977418983848674,0.10991783683368583,-0.000006948806032001876,-0.11231342785186643,-0.16055510937914472,-0.21687506329266273,0.057225817846311276,-0.10667170132857696,0.09762497144041307,0.06280316664736077,-0.08427326740858414,-0.08587878849477815,0.014048162085123739,0.07853073817431697,0.1054018120750887,-0.25176875956730416,-0.04141827676429556,-0.023197618090818075,-0.1772075663672526,-0.21761176030877452,0.10290852667766294,0.08239990082496328,-0.1459678925301601,0.009123094665973703,0.07534198395599304,0.08026896235136115,-0.06959776111306623,0.004132795912237132,0.24863120487446475,-0.03132125436691535,0.009489932083300139,0.10650559316604732,-0.16890476008038213,-0.007915703561151285,0.20190274130937919,0.03579495775824625,-0.11565186233314846,0.11894728548727186,0.1899330055314658,0.18558031211929651,-0.20611459883061944,-0.0767941861604462,-0.021875573470243083,-0.20614106392521422,-0.07155982751375414,-0.04275049172450369,-0.0538326121401775,-0.0347676119678407,-0.11023893790287431,-0.05226863104098471,-0.285086412738141,0.3292703275913234,-0.013243414372557449,-0.0030388882413355336,0.011742636982940875,0.14513717334252982,-0.052339239633632025,0.0636010856758424,-0.29484373184439344,0.10574160578095734,0.03576288424957129,-0.1561397177556796,-0.03304336633116615,-0.08382896253283886,0.1825143767548164,-0.11079340946825894,-0.03620049850651044,0.20185563640099774,-0.029227309250272324,-0.004581430470633441,-0.08059253635045964,-0.035844076724800805,0.09532994372343576,-0.0321076450251899,0.07179031027308544,0.14161904171040413,0.21255669488406695,0.01717022143442465,-0.01692813776014654,0.16820773757850813,0.014260801197128518,-0.05404478296229337,-0.079943263961547,0.15250324949574154,0.02292092937433606,0.08221062063814298,-0.07485667336905538,0.14308371964145492,-0.03098226266738462,-0.14452839705170628,-0.041808159196482154,0.07303584797709245,0.014179197154461384,0.030086951911236715,0.08573426303499501,-0.1481107362527395,-0.0726389162121044,-0.26230406491621416,0.07664470658028891,0.022804202435324435,-0.03844825403226617,0.03186680944134314,0.10993479720134264,0.05701955407934934,0.12562881530813128,-0.06739074369023676,-0.09835718372955188,-0.05808029530846225,0.012718962455784523,0.07396316731418127,0.0751121309396807,0.05911656514855621,-0.021720517632873908,-0.11882751481191481,0.04996761920908868,-0.006272575569962645,0.18461438457101767,0.11457560465054274,0.044496974005065734,0.2125124498262596,0.02478900918740129,0.19248874837088073,0.13566090760327093,-0.042365749371127054,-0.0591358562550468,0.07822116962442593,0.029872136018977286,-0.17416713644868098,-0.09487677468165613,-0.08058065138678591,-0.08148909322556337,0.0021018036247721847,0.09529868266428831,-0.01324377143136941,0.037587422377534964,-0.05363892914436499,-0.13006948601016827,0.029405103417805577,0.05068878665357671,0.1452129876717616,0.11907229375716853,-0.16862874729244356,0.0845187384514467,-0.1351751278200136,0.1197001359533573,0.0020436834351220024,0.07478692717042155,0.0747048535364716,-0.016398585927554745,0.15747312015014095,-0.05769287128005901,-0.13677100754997287,0.09575646951212652,-0.2264839269197753,0.014289651890833638,0.005251370976369285,-0.2327862873709751,-0.036357303150360065,-0.1308626532127016,0.1934307479408635,-0.0051035246025287265,0.05934371197846749,-0.20396673348410424,-0.21063951793484098,-0.16607824468552196,0.0302763434784474,0.02322613723554407,-0.10549558222900515,-0.009452335953954253,0.1635000797135182,-0.09508602363396466,-0.09887243351112311,-0.21598646497382715,0.06665200568869288,-0.004080724604889999,-0.010777913110406063,0.01263909464606238,0.11727372149757057,0.2460430392266027,-0.1233609535245679,-0.17213726772420432,0.04132331822050038,-0.09556581428208508,-0.02947202348556632,-0.0942139356734165,0.04709357517289445,-0.028721876694241217,0.22161228072254424,-0.08171096037333765,-0.030341561606602254,-0.08997034671057033,-0.03817874318755357,-0.0475978378904013,-0.10868157079498048,0.009415828920339845,0.14320310481838378,0.0746581583802011,0.00045012971032115233,-0.006151506922118726,0.057238166701253285,0.009733684175813596,-0.04389740547713973,0.1992395565663544,0.0923900969970957,-0.09116073930148794,-0.0013899352748018984,-0.12271701822233498,-0.012118839545175621,0.07960265133200896,0.05397745442952431,-0.1962907548926167,0.23501325920420818,0.025272485802942345,0.1548521728930658,-0.029240888291694585,-0.15166119410553947,-0.23812235313172833,-0.28360455529430684,-0.06356559956591751,-0.08460982193545957,0.008018238716629073,0.2298593920823408,0.2258115823410694,-0.07403007392299335,0.056687128926980065,-0.2311296820506775,-0.07042419252558728,-0.02173304159079287,-0.10493575648242524,0.1978997846464771,-0.0625435192736053,-0.372720045961081,0.02857168974638499,-0.07103209975065271,-0.023514709574452595,-0.021031853302638157,-0.29361202451800533,0.04401106998151328,-0.02719886364096615,0.17905265053374586,0.01663182795471802,0.17250829899980535,-0.03090207101048822,-0.1923317043150073,0.07545619377500787,-0.2277523000487975,0.11999540979870284,-0.33796335166317903,-0.01485447572816074,0.06310527323499471,0.13622147672431956,0.12243729184281099,-0.03594918646801819,-0.06934324532445939,-0.12103263806424581,-0.10815077012280573,0.30708990502416006,-0.16474616356618899,-0.08158311557274167,-0.3477617582864993,-0.18130271597347053,-0.03392404946929918,-0.1577486023336593,-0.06784427888905604,0.1391833798353572,-0.047414362897211904,-0.06637112663387587,-0.09087386981152007,-0.1499542044875735,0.021359541699766216,-0.06485529994304057,0.28090779751980766,-0.10256623699595793,-0.17984584862061703,0.1527301111618885,0.14628906933800007,-0.09351134596567444,0.05355658123011737,0.1913935936132967,-0.11748423186147418,0.25449413503441276,-0.1398965145148731,-0.014836552448462569,-0.04883458033185827,0.15697163618810175,-0.08105553717964152,-0.036414383505220894,-0.3646780908734813,-0.05988231957434763,0.007754156638738674,0.1581809962940945,-0.17294243570895623,-0.22212890930265128,0.31491544484588585,-0.17791235972482758,-0.11754694012705778,0.03693560878079922,-0.22404465857958164,0.01343337709704751,0.2485451039942862,-0.24617036600546904,-0.09698716130417695,-0.06464219793782812,0.032021593294482766,0.0057055644320639825,-0.15254254265172407,0.15084563664917378,-0.0771150404028356,-0.1437809796819446,0.07693712315066221,0.11272794511077688,0.16584310852578973,-0.35243493525489333,-0.19105345156909878,-0.1362889056902059,-0.16866610267764598,-0.018279629901232344,-0.060194368298580554,0.03332076903291063,0.21144345657981686,-0.04768737094081832,-0.12452792016988705,0.2421387495187835,0.1468978959705581,-0.06799354888942229,-0.0665057982201105,0.03169354869765516,-0.150759142224308,-0.30385157907674365,0.060845352375165015,0.07373207182818219,0.02395403259752963,-0.03467644131387488,0.04554554274343777,-0.264035654350467,0.09874219779604382,-0.08756825318546214,0.09239920702154568,-0.19475967127790986,-0.14674148281266652,-0.01928101247923161,-0.08952414163825932,-0.036564087396742204,-0.23341484688554445,0.15773315894005913,-0.013508674492023679,-0.0005790179832371335,-0.10878850222159436,-0.09799451635603933,-0.056193979662558284,0.02410283585151865,-0.01944621435537909,-0.3224685563568257,0.2344482389350754,-0.02681411916647657,-0.22268966925951011,0.05853356599208269,-0.24324117759006736,0.023468032672479044,0.11013310125350047,0.14470104016856525,-0.02338911938549923,0.20830397896756933,-0.1975076894483931,0.07734683574672568,0.12329335238225365,0.07205068226805741,0.013375440597855994,-0.04435115763560975,-0.10232198521334804,-0.03495657630546904,0.05847968062828611,-0.03385372651194892,0.08293073144076926,0.10306725403336582,0.2270201192934699,-0.23643177389977985,0.0785008181769033,0.16084806538344468,-0.14544560267944315,0.13860909417334596,-0.1469441124041691,0.07838588409739028,-0.2044840057325179,0.009023195327300832,0.02447367916944901,-0.06524985681945258,-0.007915856975101459,-0.15966398760404835,-0.11661780373898319,-0.010072140290428631,-0.15389962643004787,-0.015111761887320841,-0.08961158549341795,0.03707658755869719,0.12205139641515207,-0.29240265198659354,-0.11870047084391713,0.06007298129979059,0.19284129398963193,-0.08858025135561864,-0.06299114020394443,-0.008547636240110575,0.04908798228533932,0.08994825182476257,-0.11598441453124414,0.0798318588534313,-0.026977053486642925,0.13680680103031903,0.23181710703169928,0.176252433235203,0.16594799689045833,-0.011656062772651533,0.125073643490198,-0.209088404983691,0.08943869483046597,-0.0640718486300554,0.05425846689758656,-0.35765238759982143,-0.15824199498822614,-0.0656678931651979,-0.036306461310160146,-0.1824169467179878,-0.21101164672830675,-0.04225781013564633,-0.12252586464219808,-0.12594942240876114,0.1509041658772227,0.056978046446458076,-0.0092710276123911,-0.2719319952727588,0.2582515942521908,-0.001414441395283115,0.034046982645345,-0.1756507713951664,0.015348187654198757,0.05841805419209832,0.2435382604911923,-0.1152542830977222,0.15358418784468825,0.029814788006623856,0.007093207188754785,0.01749785790898935,0.07065789808319767,0.0326670353500563,-0.2669775996881106,0.06693951270895677,-0.033263887133226026,-0.17920657814555815,0.0819716161138578,-0.0067513425855423356,0.25220436747183544,0.12444597307377314,0.08912266399169093,0.13543191260897997,-0.15666912366579272,0.19072378619283295,0.049351561075612914,-0.07701271181315802,0.00479070688862513,0.05110880803559556,-0.23768224703150534,-0.0191584275961203,-0.14135789471653123,0.04937754660471265,0.00995292460253181,-0.09363839117523441,-0.2693447087672135,0.11585394776638218,-0.035391023521884925,-0.006978702943442951,-0.16748693921991692,0.15157192617481208,-0.05692540884488064,0.3067798191781263,0.13793834602407504,-0.04076254820052476,0.10835093966903447,-0.006841933593055309,0.13960432118784646,-0.12901552780619333,0.1524353804767586,-0.12124384000954665,-0.27685813438188006,0.12108624313841405,0.0244026176314404,0.011801192961028209,0.09305810616834552,-0.041412875881781275,0.2256114266055316,0.039556657950376925,-0.03265538905086897,-0.13163275845882239,-0.20791742246196504,-0.056779119718243926,-0.24905642199040212,0.007379062188568284,-0.09613715499423645,-0.16948595296963243,-0.19252149019073153,0.036203327027215966,0.23784911591358468,-0.00877306762836817,0.14331314571371087,0.09296794550213708,0.10439497241912961,0.03164237616268458,0.08490887274375206,0.009155676882140603,0.11198398531350479,-0.14976869183788602,-0.07502990377708885,-0.03623091795335057,-0.2502689024610002,-0.14817292439935215,0.10539852225169952,-0.25672341432297724,0.09991640157989483,-0.13406052081150033,0.10887776301359012,0.03726691744321558,-0.16700719683267073,0.0005165874724477025,-0.34103141575505075,-0.13294005077691431,-0.005957329119235729,-0.21418874981683186,-0.003489286353322593,0.07015251593906674,-0.14312835938119342,-0.16623398191753724,-0.17691315801032775,0.013527875799841563,0.1319226391969715,0.11042732667693778,-0.03361468357315244,-0.23789479934797778,0.24052679031010352,-0.2580980841159719,-0.13273697719915462,0.013222066288387763,0.028337193560324877,-0.02223851201237096,-0.25062972038195525,-0.10985515565792613,-0.02143849077929048,0.12491796733392492,0.16153647490820974,0.08102572080010316,0.21755889676010554,0.10249260273130098,0.14137744512201755,0.17691105368893117,-0.4016259958361802,0.046015580176704714,-0.06800519206430573,-0.058326656131822856,0.1501664071265299,-0.099500343966321,0.06069913206698272,0.2588164515397661,-0.17020601905182217,-0.01654541165968037,0.08775754348717901,-0.20444239588622773,-0.1535449097660229,-0.004737078093803016,0.010137567753361202,-0.21327861531614759,-0.03396633315752009,0.16216197669662552,-0.09168110708003996,-0.08663804698554403,0.09057019038104812,-0.000997323708009596,-0.2101039990043438,0.31162148931550115,0.06555505309504853,0.17189817509701033,0.1879654576793587,0.14050381527269892,0.20887232320234098,-0.10810152975130144,-0.17649523209959694,-0.02973050020489907,-0.03163004280070049,-0.055616105448876615,0.013397114895970452,-0.2479616627543087,0.18137026014493393,0.10518044602905183,0.20693726580405655,-0.23752561562910277,-0.027132487112517784,-0.4465792754618392,0.1455197708078758,-0.16117247692587425,-0.32163449591698196,-0.0894916290762315,0.05225661686406673,0.1506087975624961,-0.02976122333648915,0.1538780999080507,0.0731034590312264,-0.16471283011598065,-0.15773167796570517,0.1724918189586571,0.09489602547488821,-0.38733209623829257,0.17828090436323152,-0.1336383950711104,0.0674420904253444,-0.020920559916799527,0.10272091874648347,0.03289970177169654,0.08670870941658472,-0.048229325237026735,-0.03242613019186899,0.01573235533998964,-0.03176719354826658,-0.044246614015703914,-0.03615200314436189,-0.10873890281860854,-0.02121357870753083,-0.037772248554789854,0.006694364532348443,-0.1419357496778516,-0.1517151604414766,-0.3349239201530312,-0.09122034859025965,0.20999965037696644,-0.07888689231811209,0.1669764404109404,0.00836905055599186,-0.055775238116211115,0.12257208546752843,-0.17913208515800264,0.05632118819259673,-0.11759260114268255,0.05973302257571681,0.2296188033811499,-0.008857788738939394,-0.057907390836020756,-0.06048064450446103,-0.037174476792555075,-0.25557116140315883,-0.14084470932347648,-0.024445500350028012,-0.057345478251200094,-0.07485338258713896,0.03421875808235699,0.08740675284491214,-0.0992383358373017,0.052624795561214875,-0.15957854786748224,-0.026802962791709885,-0.05521752551968135,-0.04697223602414361,0.0767427149838203,0.03173115750167213,-0.2071580024715914,-0.018428186378974924,0.15220641347837824,-0.058347271184048505,0.1970048052935301,0.17279076310586322,-0.19128074006224044,-0.039087792445978105,-0.2291645041067319,-0.02098151761354562,-0.14602054104063678,0.20406256913166437,0.12843200564554855,0.023488419265076416,0.06466359623938694,-0.11577550866114146,-0.10348222091077366,-0.11912830617506655,-0.21574587609717108,0.04403270962788207,0.19135932551925053,-0.10816855353066747,-0.14931183070396314,-0.03699709648680969,-0.020703989442706024,0.15904483061946667,-0.10116527810556976,0.14175384204161684,0.127739125455203,0.0028379353752533967,-0.22183034842157467,0.1840349920384934,-0.11082445756158127,0.054811110316483475,-0.043923994565987945,-0.06548735309386296,-0.2243986930155799,0.19453540571698358,0.06089846347147014,0.177405576288816,0.24068015444234997,-0.27475776231447874,0.13747373972897062,-0.05113010799312252,-0.032356543266668376,-0.07647020240148737,0.022431949207888324,-0.13514944162745318,-0.0629497138591273,-0.03483271005116998,-0.008430882101433845,0.025657791771876406,-0.06330793784136275,-0.04252807035012996,0.06005436781778055,-0.06034338794603916,0.04421724637132865,-0.09721425552652507,0.01292025191661177,-0.058497997452008565,0.1252218915270693,-0.07668440945054816,-0.11773564437137181,0.11586867090081115,0.11391301430328651,0.036591328527552786,0.10866264776740284,-0.06901339577567221,0.09901300487379372,-0.35099922840862097,-0.01285122977593221,0.06030304024988879,-0.08757470865904712,0.02503267324655212,0.23865078708668322,0.025329556783033922,-0.04992352261459536,-0.022903187464230448,0.11579520052159331,-0.022316458556451577,-0.06326255388413439,0.13816370912416084,-0.0021268798011880702,0.0016430137476265531,-0.0745072568197008,-0.23691135717002693,0.012464814703646148,0.011476182031030475,0.09212956224163386,0.0784372913233305,0.1445891311699081,-0.12923284940415605,0.029513097331962116,-0.18440331237456015,-0.0017599822904471988,-0.07910227089070215,-0.0386411831997944,-0.0962682446036761,0.14000099180604567,0.09918745999375123,-0.09368840568251226,0.0662413171390359,-0.14965410349651406,0.0011147783590244329,0.08691907404685363,-0.22213599268300888,-0.05804333649666936,-0.05013782428661631,-0.26399898681509953,-0.08440696037119294,0.06597991018254715,-0.05402127929060079,-0.26835913075858214,0.04818208349526816,0.030996721130662357,-0.024537755507882425,-0.001651644971908669,-0.023061268074262904,-0.007604306661299319,-0.02885326372104092,-0.13498857726728342,-0.170754780881736,-0.24843146612692493,0.2430015377004333,-0.09351413082426427,-0.13536632482345204,0.10185612024107521,-0.09374621449917289,0.11630008820989748,0.059955055237724354,-0.20706098216256805,-0.0664673668225024,-0.0807689860353199,-0.0034619405424878877,-0.15340970737058074,0.09196457213607245,-0.10129636762114856,-0.07601874572606773,-0.05398694954876652,-0.03596851761680119,-0.3278924252250207,0.227212066133994,-0.09459587539778856,-0.019584049193714717,-0.024295963924051367,-0.22266623923668788,-0.10271151443531512,0.19497124239066047,-0.218831183558045,-0.3833293865062378,-0.11179005201608733,0.16292373855574513,0.2733274394361139,-0.01339719713023904,0.09346965111958867,0.2563514019616162,-0.12701784528248436,0.13396113517990133,-0.09188202415009798,0.0779164434248124,-0.14187750952671557,-0.2782353505941638,0.11516047119323329,-0.21668472509845393,-0.1607115054708147,0.004541326601155414,-0.10943422955267654,-0.14093953061807918,0.08425382106094013,0.06651867718542347,-0.14782300698306106,0.20529837507890095,-0.14745738310326761,0.07198061789902818,0.1922135455948399,0.16347173036891477,-0.22831341788739482,0.0817869079312136,-0.045891509355351676,0.09864506274677044,0.11702026633481379,0.2534651085778327,0.3015191960142279,0.21453146058591852,-0.0015562865036208022,0.06705762921578695,-0.2437163476448205,-0.11755943717746571,-0.22466441563753778,-0.040512423432715265,-0.019086654381908746,-0.02603733439491936,0.02063008561296384,0.17473245966708711,0.04288878745704003,-0.14358937047563855,-0.016489256947552,0.12087592201152293,0.042968003454595824,0.020626787645257424,-0.14202489592291037,-0.05531009754700557,0.06016896579756549,0.008212610370169196,-0.30303250295815093,-0.1087303864833211,-0.01505541439593496,-0.23331429917507499,0.11968975238660454,0.060610335071125586,-0.16710798384495484,0.08787749140725958,0.19305626897605002,0.06381989270332855,-0.0218643219919867,-0.003976795115621846,0.010268280553328275,0.17611613041925442,-0.01136698932323632,-0.026810382506313193,-0.11045535444242176,0.0847803726812601,-0.008195582185540734,-0.0261823873742806,0.05010904808038941,0.029570967617531547,-0.14828010750543533,-0.07353014232248271,0.015352972604107118,0.16257751475004562,0.06925521365707195,-0.32588914839942096,-0.12361987019017143,0.0992437519621254,0.01349026066788135,-0.0057623535812632,0.03459414794525315,0.13779922856360508,0.010728234448982328,-0.11995863541801494,0.06939371212826347,-0.15578646087299786,-0.0267287138678716,-0.08561368665022681,0.2991642672656358,-0.0426361688473787,-0.21213869881735806,0.1483689017859449,0.03789730150767103,0.19814016529991466,-0.12180459484875705,-0.2186962352500291,0.3883824366792571,0.28892445920622334,0.03773819390174214,0.21038590143487856,0.02175410581142504,-0.16066019905438644,0.11012497688070144,0.10616880613556909,-0.07500570856179054,0.04190714409242248,-0.0006740378465275804,0.16900369929322825,-0.07817292329745895,0.07618614419306344,-0.027951192152794468,0.08747386818610357,-0.18083890871267652,-0.063619765238799,-0.014432456599705518,-0.17076702807857266,0.006484062348958557,0.10248809736219672,-0.0189624291240355,-0.058099143659391464,-0.06418790022934445,-0.03567126672162699,0.05525471134966591,-0.08483911552582195,-0.05996806722906067,0.2038159628230176,0.03596286823756509,0.015328594781486867,-0.1858903604271839,-0.14194965001447687,0.06871303663581772,-0.1998169281361834,-0.05951794074100405,-0.04882398153852244,-0.16935191486483478,0.07344287149091114,-0.04040660845250998,0.24297164170451163,-0.02287094779973986,-0.004990335099092165,0.06453004142494569,-0.22150570126434257,0.09724531387255303,0.0506854964477481,-0.414846238723531,0.038494640336354836,0.0015722367280266002,-0.27899240395051855,-0.019281163881526352,-0.16779740426395304,0.07917566440520653,0.15234297759724674,0.20236969774136956,0.17343588106091906,0.0652552706848768,-0.1313947405197729,0.003428727874908818,-0.10407683978823049,0.0467844703673153,-0.08309800098547289,0.029195432950214237,0.010980336637435648,-0.16143488938046296,0.29539004978787176,0.04042454266379998,-0.02099271523186227,-0.04516795665496003,-0.10143111209366822,0.05921281663413703,-0.16918041114053836,0.20968836675161148,-0.4039687323410699,-0.27578012739037494,0.0907208117962176,-0.19773215443695222,-0.06471233388761867,0.029120047184617293,-0.05258792139089181,-0.13731317196785944,0.10948341944243838,0.12942982061587796,0.05928014434002991,-0.09690836261179724,0.07563939249454017,0.04345955723299296,-0.12424402275651261,-0.004164802751763549,-0.04080099502415767,-0.1995774944251689,0.27125838329194496,0.024701507262089764,0.236604726960131,0.06597272518579124,-0.04707938211468532,-0.11688518804268687,-0.21331431998786848,0.008309741885537564,-0.06667661938121298,0.06003292619502517,-0.09513350825893431,0.023078424691041845,-0.19648575694302103,-0.10273327252548485,-0.005905367598549391,0.20789941657912328,0.03619224327783619,0.09355809995706334,0.13248012368389514,0.05642979175558113,-0.06888221869287584,-0.06070306544706662,-0.20235380211960413,0.09527223422977765,0.000884971756189442,0.060026342183169656,0.0352035154119927,0.0568155708752457,0.09435259961190497,0.07971227719136202,-0.05339243681632,-0.037517160146276214,-0.11375964545638104,0.0014567988714169352,0.0929369146873733,0.012765190239003972,-0.09153477582990971,-0.0359706102668694,0.03588667797648318,0.03220519148739549,0.023273894761693288,-0.13434073270034597,0.08922643628309924,-0.03302183784817709,0.04306990389956811,-0.351040012541347,-0.20980939489199793,-0.4219240326284633,0.009968386080176356,-0.14782399821680356,-0.09005615990796065,-0.3353347740315862,0.21003711211979664,-0.056156983662376724,0.07376040400650671,0.03400272095745046,0.07458362218388014,0.20281402374980928,-0.23244771250771565,-0.31413862216611765,-0.2129487877956021,-0.08960805433977562,0.05455035084895502,-0.0015330259215656295,0.17435725475719896,0.030800980929963657,-0.008384702625533936,-0.019698980544326332,0.07954288014029028,0.13707025684279134,-0.09554519180708193,-0.15477951912542132,-0.28854342704322716,-0.22360924044865235,-0.044132715205166484,-0.202955456394952,-0.07371265858835525,-0.19630966323974133,-0.0007388025728178118,0.07217552371114248,-0.03684110616504214,-0.1000551264832837,0.055571268079354384,0.20055437828172365,-0.30165418136370575,-0.03477490590232854,0.3073611699091323,-0.05521743737993632,-0.062463490684395835,0.19820520049421714,-0.13113715890629807,-0.09927558928889893,-0.2316819233455896,0.24393020032364857,-0.02989124391440385,0.1587176129953351,-0.016191382987404256,0.05358237900294131,-0.18310090859126035,-0.21270206144080636,-0.0990991384226757,0.2310452157539176,-0.25713750717283956,-0.13046404286381091,0.24064522136468985,-0.11920812448352706,-0.0971100649217636,-0.04743451504786813,-0.2901500849654175,0.02204342064291436,-0.10336185789865732,-0.30996408772047024,-0.12413317148658545,0.030783356657667363,-0.03161234887001012,-0.08433074322454906,-0.20785159287625155,0.007449205445252159,0.2029126507306964,-0.24347765477493166,-0.0906652725665057,0.04975554322652254,0.07226655812407248,0.1234861310424898,0.0054619972236581524,-0.1441268583282046,-0.08208996409312075,0.07360629004505506,0.2267389009498077,0.06413563139866753,-0.07040821886130816,0.04506417124936401,0.05417153394132648,-0.068815065146354,0.04039567174850217,-0.06132958288467196,-0.09097068078677577,0.1203447695981231,0.030160077905191356,-0.20709495288082047,-0.19597611242183174,-0.05102253101825762,-0.12429736273223634,-0.19487524328434289,-0.04645488217653872,-0.09805387420226856,0.1486512266930248,-0.031366184161622235,0.13754546772752335,-0.12710112991282885,0.04846000578919636,0.12298934101813179,-0.05431051079784795,0.09688370881995392,0.20584490005463546,-0.04200811332223291,0.04342000652903453,-0.12267158811142077,-0.009301552273984048,0.1565901177120643,0.0021893756830201686,-0.09838292770579922,-0.03640216124714015,0.30785819902101896,0.04705457297046352,-0.031007231228647115,-0.1207198547304055,0.2528430326581131,-0.1321450261554074,-0.19206059351317092,0.0263405971214758,0.024082541336706925,0.08107365896275857,0.04492389143794598,0.03536105764756233,0.0832312715769783,-0.038567184902439426,0.006722513388109491,0.17015668568487374,-0.005713968474934459,0.03332841467757852,0.020470808761699287,-0.07051263163213975,-0.08350928871577727,0.007232092016791231,-0.013646791937022668,-0.036330392423130034,-0.022552568979746255,-0.10016391465705046,0.049262461509227945,-0.2637370275477216,0.1555829614309909,0.01058966435983395,0.012881246949274637,-0.13785655682040776,0.05219767859125096,0.04470096740729875,0.1062818082830512,-0.15063063764283038,-0.04791465293710691,0.08233072019156698,0.05243364737988847,0.3700516403900739,-0.03883098849495184,0.10337608860777589,0.1388415371231148,0.3122606462131372,0.03294571373029189,0.0728054090714188,-0.05855923737567631,0.005754004354671193,-0.28488451521310265,-0.11535274188370107,0.0813590924759263,0.13659091836133289,0.04976431617606653,-0.024313272895600462,-0.09769243701943872,-0.14196781906445144,0.12445172700562473,-0.26430466758385984,-0.04789587341215725,0.06838498243779448,-0.06408726987549217,-0.09029581757864731,-0.05223658227192368,0.0472790350287736,0.036778645652983916,-0.05330205137871551,-0.039253493471592085,-0.092895251973718,-0.0006392465972744583,-0.21307604766426957,-0.08511571650900586,-0.052035196282384226,-0.08933629014147196,0.020368644315359695,0.27389899829689945,0.13710759309256582,-0.043295509410367576,-0.19319163215798937,-0.007548380893006247,0.05578988523679541,-0.06430676483389867,-0.037063787847947144,-0.008395834907747163,0.010712673351224807,-0.06800243442516975,0.28061486176769684,-0.01786745504023254,-0.0049758737122878,0.0450198137455581,0.03396124825886955,0.07308692179684805,0.09498323607518647,0.08321826299560148,0.16909751798368272,-0.07062728132974906,-0.09982968126985736,-0.01503031495478227,-0.020736868139880727,0.21415605444346555,-0.09993480699837987,-0.00031455522008913626,-0.14389291904499948,0.1148791877454816,0.16499002182652822,-0.005537050249974988,0.004492835072009293,0.25335978862166325,0.13077402977100328,-0.31205996487045373,-0.36630558413154196,-0.08559230541888224,0.1321529553979217,-0.011040854466958096,0.07552935853858382,0.020499074416813756,-0.182350873887145,-0.11996492753038175,-0.08914231470078111,0.029694860121769286,-0.12091874588068031,0.1266436707883496,0.05846186500121867,-0.00289255798674708,-0.05254088566861578,0.02407897834086342,0.04042715665238625,0.09298735463200283,-0.24099054788043062,-0.0657151580439511,-0.1933810546753889,-0.1884924373053322,-0.06783328734811524,0.08460818336980999,0.32061322807449455,-0.18752161083795282,-0.00509626440680076,-0.22465120471109046,0.06858252819761905,-0.21957013644452414,-0.1760145870237012,-0.1432458376011121,-0.11503351160687283,-0.04202119815309911,-0.19505170383273354,-0.34246030430093466,0.010262896678811091,-0.08078101959331964,0.10628926112265093,-0.09002212170861268,0.07323155371756626,-0.04088976769721978,-0.012055675582325764,0.3235505114083729,-0.28991668797019005,0.09831342462931912,0.24740959538177762,0.23933027976579394,0.06180633030548518,-0.2105422481516638,0.13160407675040975,0.07734584861953898,0.02635988319284861,-0.04165924284462912,0.07403097810513279,-0.23855957926396104,-0.2295190402500521,0.18529097198009795,0.06486128001958093,0.013051451826231632,0.31848715641013325,-0.05130036906212623,0.05090060703981996,0.19810757653689903,0.010849393815625228,0.002815684891854034,-0.0570056649407991,0.008556977174143244,0.20272676987215185,0.13659299776290723,0.2678523013103646,0.20696452052375813,-0.009499047120090885,0.3144075099761707,0.033885081509073364,-0.0036518977042613618,-0.22570603322103694,0.19572617081719695,0.16928037788874656,-0.30000118729498315,0.19031394628866286,-0.2508579505373971,0.09234110993246188,0.034373585817378816,-0.038141520282696184,-0.03965730125481432,-0.1121962117393394,-0.0834731086267022,-0.07813926786956697,0.07606455074500118,-0.08226344931392295,0.13436359753579993,-0.23812294590567776,-0.06480119364251954,0.2929680444925439,-0.17001209300611292,0.15819482641609445,0.08308885950120812,-0.10726341115249534,0.04252558237912614,-0.025811997522949232,-0.2587431937006339,-0.0989115972264573,0.14151545514738026,-0.009234673688779865,0.03769820618149514,0.2231027050657042,-0.12289901157301615,-0.033683748726239485,-0.058987771966520004,0.31566216282575743,-0.09937978391656918,-0.12749934955211678,-0.12865721320552842,-0.0034232314620491226,0.15787733880515417,0.09454836495614084,-0.0756502636780396,0.0013972349601743088,-0.09445943855161137,-0.11115785968803729,0.15256352227238926,-0.036818412209999464,-0.007354239999925562,-0.07376419172894724,-0.12264713492185166,-0.16139747654908984,-0.1416319961990119,0.026277318130540708,0.19761970262877904,-0.026621646191204267,-0.2600946690553377,-0.16198208643918416,-0.11911872016337104,0.0944058099905807,-0.08190450726234257,0.1297226355068477,-0.036371796584282266,0.18152507652197394,0.007975175408149956,0.06852815608296858,-0.06748020668272313,0.007941398624502343,0.03551603409454406,0.04582052494611355,-0.22645405367272178,-0.13477009823502742,-0.005759385286175001,0.22572761446651057,-0.09985327219467695,0.13460463801578376,-0.05673143449983986,0.07075211503767612,-0.01880844970203695,0.23513623368929232,0.005660399440200656,0.173732924182316,0.024803975052093724,0.04208664541753169,-0.020758144044358516,-0.10043074288062163,-0.02882381750839949,0.09319928029524745,-0.26206250076468013,-0.02203531919444359,0.037084592162256104,-0.2024729584680114,0.0037453056762017187,0.030525651816727818,-0.2591143635606418,0.09687860775460595,0.11727287608076628,-0.1234138726967374,-0.03263366353181504,-0.07207740928065011,0.18729921816030293,-0.06771651928850109,-0.12811066612212277,-0.025162971462128998,-0.007263935240608017,-0.12526919256112157,-0.10508042572830062,-0.43352420760482774,-0.06140053541621938,0.44903065243298546,0.6803708253964135,-0.8079260132050702,0.06725373540210916,0.01857518614732135,0.09031415486230365,0.594941660198167,0.8646725355018516,-0.07419930941267504,0.6516247254193307,-0.1730476044982234,0.24478347606431403,-0.4317876286473336,0.07356466291657707,0.02476822870859387,-0.05656778089290098,0.548518633680913,0.08370067690800277,0.16653153256315947,0.1502463425599215,-1.307383893570369,0.004275135994688739,-0.4726454319768259,-0.21791888733832215,0.29580147695499875,0.04232376619543889,-0.1253141535469518,-0.001499483703889797,-0.023728486559440456,0.18647702273955546,0.3072219083748512,-0.05215626319957014,0.22462616213458794,-0.1983327365821542,-0.5416478911989835,0.002644397816373223,0.18368245055760676,0.24933155584412964,-0.5834840895364515,0.11320326598629545,-0.14461250787667346,0.8768774449304113,-0.2247142631046979,0.16888884520751626,0.31532851851295174,0.0796258099445701,0.11093904244970533,0.342420259757884,-0.23003636624566304,-0.06148474280097553,0.09530115651811828,0.01850553707661556,-0.15318288027693586,0.0062436946381510825,-0.005675578551948752,-0.7140136417779367,-0.06030649669441026,-0.38600607824961586,-0.2785537274278741,-0.15730728651737447,0.15298988826645207,0.695020442816793,-0.21098183577229243,-0.019275606935855644,0.0032453440272309187,0.8952407317913111,-0.2077107505721613,-0.9948343449229512,0.18533324972703022,0.49300755937765406,0.6145967974284348,0.3848038901139483,-0.21794655269678587,0.2829443875533685,0.6559973637054622,-0.03922706466969048,1.0761351139603705,-0.03489888935741238,-0.29032097608982527,-0.4444170131227471,0.4622837883240174,-0.05385901026401903,-0.13164232453875482,0.5874057406835087,0.47115517386499245,-0.01654225278480776,-1.0523859889774199,0.16541780685066357,-0.06478301956316788,-0.26439245811225903,-0.08502862703620476,-0.18717961941189726,-0.3659801176646568,-0.13012466774048856,-0.3117485764713359,0.8085891399695713,-0.06104539868912041,0.44733373322650344,-0.10182991228459734,-0.3631089347492699,-0.0760892196493837,-0.3213668277383881,0.588238699113541,-0.7414469898550534,0.07426254651058693,-0.04988121346773175,0.04941246142931684,-0.035834937702962706,-0.1476369957821332,-0.8552413826941302,0.10642001695112299,-0.063624597784605,0.3575000523142542,-0.7252030218956411,0.09972728435399264,-0.2569225260711008,0.30547981003938207,-0.06361916565235994,0.08505731917122902,0.19927545393537635,-0.6520088440601758,-0.9743684532345186,-1.0216142849738452,-0.24894377290830785,0.012886059463935786,0.3284323134248306,-0.2817714837276324,-0.629891992793599,-0.824972452586192,0.012550398291333158,0.29422449445530746,0.08528481472328026,-0.006892708537211312,-0.33866160311236015,-0.2156898940434299,0.018632794053037416,-0.5025283705169769,-0.5604239466019343,0.01011836092842261,-0.3523120895543155,-0.38360621795849364,0.051425696627298546,0.3410487006312657,0.06100177306679942,0.18863544644040023,-0.10286903162751286,-1.2051462158525854,-0.6577257376406311,0.05396744145340752,0.641186251109097,0.5698791888410172,-0.2841354730336897,0.7149877283103878,-0.3436601840706525,-1.0856121342639893,-0.631260140030883,-0.058962155104779,0.8254604541482902,-0.1591963998627202,-0.8578657810467715,0.7039927531061496,0.27701850796816585,-0.10913453012563819,0.8369265610982971,0.2102164203236603,-0.10607694603751522,0.4681950387751325,-0.06638905299942445,-0.08544350694056943,0.8132887914972664,0.12307720176688555,0.22657913967360904,0.4029539958605446,-0.22599045910821858,-0.2072056825685015,-0.025043049216861464,-0.16851642600254918,0.5957660948890574,-1.3865819866841145,0.9862271309235271,0.12734353206723031,0.16809183268836037,0.36108363978341035,-0.6075224392934445,0.014353770012902717,-0.871437111649822,-0.05503332471433525,-0.05147790259288323,0.07203745414593006,-0.06233700482549954,0.4574970192890083,-0.2886405137599902,0.17556386658173703,-0.23992121844617673,0.07974074476101776,-0.06980167144875457,0.16749458161302194,-0.18530948036754766,0.003481704089077803,-0.7293513853717443,-0.023465537152541592,0.5679972258786111,-0.1595050095668483,0.015638508479242325,-0.1896086152178161,-0.11034950080387643,0.06213172200114087,0.7162166942547583,0.5048232715865691,-0.10170589535422908,-1.320053570203635,0.07433771957050755,-0.06562369639823713,0.30508679743980277,0.5367458834485195,-0.062021423644198055,-0.20122639335040376,0.014758231799561284,0.4905742546373037,0.6486133645751181,0.13688888654224238,-0.13162222653291455,-0.008377052727705404,0.3219816873525204,0.4071628789346927,-0.11654504065977356,-0.028507808340042753,0.9925005844963379,0.2817265939174213,0.017722078746937812,0.2203533441022215,-0.5068819148305289,0.8522798401474367,-0.13625178714974634,0.8366795184217729,-0.583102376259538,0.040267722099340084,-0.059757548632287875,-0.22000533435942973,0.12546201309939667,0.03903452329283302,-0.7572432470737064,-0.12036780818252432,0.027126109063969308,0.3687995044577168,-0.06122698375035862,-0.5635868578427038,-0.4547428081065632,-0.19185980048007084,-0.4713274333153644,0.08324710685064082,-0.3872278800899043,0.07093073334679964,0.024034652860771874,-0.022749729842321632,-0.030447072942388208,0.11644375133382935,0.02244985820942666,-0.08515310027376366,-0.0826503421330798,-0.10665623625283117,0.1910689243500257,-0.0058882417319784984,0.018185088731122418,0.04945254285802294,-0.014044549397733985,-0.10046672365575919,-0.1579868023078832,-0.1831772319519937,-0.07101601302824524,0.03467546860688028,0.012560035812782483,-0.0015497105076570227,-0.018945622876760045,0.1063587926547803,0.05931197372229332,0.03814945964689898,-0.041391494729231475,-0.029316262562020048,-0.16935868550558472,0.09705500496176411,-0.1179363799754502,-0.03307054301676834,-0.17580441535092367,0.03595666265520934,0.05766169239751524,0.10008975506883099,0.04469010803858558,-0.0064969204259172795,0.05183246799062073,-0.06545371465565789,-0.09060004933687367,0.024940885414834798,-0.12141533496834783,-0.21821098149495916,0.0982465269505474,-0.04414295314340869,-0.040233140455497994,0.15887238224103659,-0.10790387065725095,-0.22207703978363194,0.013233842895909214,0.12964867392618695,0.1556273738909914,0.13463376134212024,0.012252298031517542,-0.1694574774026761,-0.018583535706580362,0.10853868665013086,-0.020830924620394688,-0.05969939537892789,-0.09981600289948073,0.09356280594558763,0.09539717850166768,0.06726049823826433,-0.03459169898678993,0.11016635865986847,-0.016333792625189414,-0.13219352664012138,0.017501528015167384,-0.10688786711182076,0.0024715190732728805,0.04812193180279703,0.00009541074002978293,-0.045947299929492744,-0.0672045238688195,-0.004463687800696728,-0.002277687467384627,0.040164336249167265,0.03489002032478405,-0.025812106018636823,-0.059643168861427384,-0.05555730328470938,-0.07574472806148783,-0.17950391791278153,-0.07491129375844921,-0.05149279771354043,0.006269869339574313,-0.17537637914901544,0.037180123007687936,0.07825565835689578,0.06505495720281003,0.1699249876133254,-0.1853023561772624,0.027628128524764154,-0.01204615870101898,0.018397581484713266,-0.25156660267731906,-0.1918568984612302,0.08483880590164085,-0.04826548597900248,-0.013679991421546411,-0.11177693355141509,-0.0015563964337467428,-0.04724693059219568,0.15137089990512986,-0.40873468479685765,0.13286936637164604,0.032695923521428215,-0.030273773965944994,0.01190002876698805,-0.0818018421600646,0.05233490595406392,0.014465999490983605,-0.09084527539844184,0.06269797315688705,-0.03148656207183739,-0.14039129758637678,0.17522865602901047,0.07998104951609782,0.019563445333912317,-0.19167553221115746,-0.035039861269201895,-0.033232702078344,0.06730633296224756,-0.011511970384701394,0.006277369030776225,-0.2102751123279757,0.1666023827413019,-0.08884847291784155,-0.09748404389863322,0.09232257403932528,-0.02410504006346556,0.046484767137635004,-0.24689278071330661,-0.14147099280185405,0.07966648193607301,-0.0629499528174624,-0.07613151103087523,-0.06804746344619114,0.0012620886882359027,-0.01356963090895671,-0.08517651573643359,-0.03934344235726073,-0.1185258419034355,0.005497984684502923,0.13787544091705636,-0.09432186014756916,-0.04133146088705973,0.09711662901620718,-0.024662038836938946,0.00866845654452085,-0.020093821132120906,0.06444683563057074,0.22675816313015532,-0.0063170212031503125,0.1098927887003195,-0.10002256784362157,-0.01918303000985663,0.06201751058979099,0.06300091924959382,0.13288862907343085,-0.1848832414568816,0.0770652938351965,0.06251756795812571,-0.02346325244752972,0.19581018590756405,-0.17033460904463577,-0.1633592767088595,-0.1025172802702441,0.0873922601994824,0.0029352518378758705,-0.0017555308159332285,-0.006022069308447197,0.17133883749112916,0.06198900116439398,0.07124433296395855,-0.07276838808392279,0.06235758497068383,0.10912156818885699,-0.17383144006565115,0.15553872699830737,-0.026947746391470587,-0.17620461513873192,0.00552802153232199,0.011169570528974559,0.025788963487721767,-0.16188503021304876,0.09389257214877485,0.027788497759653603,0.07479035123661656,0.15472985420086788,0.024685421835271382,-0.081525265377075,0.07725253528194315,-0.05028312265832798,-0.04327510379896771,-0.03426374823060779,-0.109531289970268,0.05234579152506997,-0.040762052228970426,-0.078777388156296,0.17492557565368624,-0.049649099144003776,-0.30289688474387544,0.11676306223243822,-0.15109387762106027,-0.13528719724334645,-0.09192291754257047,0.15342087765354245,-0.05276461231621747,0.017905210220231206,-0.010207815215849054,-0.038577894783763486,-0.22081192190594437,-0.03306096334426793,-0.049077989330683296,0.08618306703311567,0.02079668820186368,0.16902905155285763,-0.09777221347408968,0.11843239547742385,-0.018424949764906627,-0.02219982954951985,-0.10603119642056277,0.22043047231523027,-0.19748534528999778,-0.026728579133909688,-0.06094138774015923,0.126514668001396,-0.15262004126940537,-0.08989388845166398,-0.024909232664549013,0.04941556378969089,-0.20393883492024822,-0.02782763659345478,0.11552880430232469,-0.14587577041751737,0.0657989636057029,-0.16213631523070543,-0.05221666448757492,-0.08681343548353464,0.016448228894026296,-0.08225400320942643,0.0378306154069653,0.008554477696393113,-0.13706034188896302,-0.06583935197621335,0.03806846027650974,0.08256447572498506,-0.21072145032090864,0.0036670171853624913,-0.10879909912641475,-0.12819355720946443,0.07447363274330365,0.1408821178832877,-0.015185333252994282,0.01794459785036481,0.0548592267869026,0.07799050891130575,0.05063335156967428,-0.1654080778152256,-0.08831305499295902,0.12914035344266106,0.14304756366750465,-0.009582769352600115,0.02022149588350478,0.05982621250396686,-0.09944165537766907,-0.0018204155036569431,0.1258935005082386,0.1132755716820075,-0.1602956151189746,0.07136493828132018,-0.21498400645355734,0.01394867416846106,-0.12008779481025443,0.009504064475358944,-0.06931459877489748,0.053376073344944625,-0.004725037190886912,0.08093874210043218,0.04310867406579214,0.00594586386461991,0.15289528019098528,-0.10180391357311301,-0.19564125869999086,-0.13455756975476812,0.06628316993513085,-0.039226569253643706,-0.007295126660646525,-0.17358893543208423,0.08893101925603589,0.11058132357543608,0.013394896450672919,0.11940213569279948,-0.1870623045718443,-0.15476824076906948,0.06081183543872844,-0.06463901314872356,0.08811659569781091,0.02694730128763602,-0.0986142222680031,-0.17947139146750934,-0.0985376902323881,0.009539354127301326,0.0333995552181116,-0.09264269531630716,-0.11415554621581193,0.1440670114385612,-0.04371064042631835,-0.057855697362324335,0.0733907790338623,-0.11001901291879676,0.11955099482105278,0.08275066629614874,0.0368371681951828,-0.04090658787770554,0.119129179790701,-0.009935396603580365,0.029162323016357287,-0.016354068704724563,-0.06619932327240752,-0.15446558520364337,-0.22062862045980208,0.007296918381692859,-0.24008319728384253,0.013196179217955621,-0.11583184688713133,-0.018387453715484826,0.09663392777810728,0.05996857652337947,0.003946143464733738,0.2566523964630054,-0.04448632086418083,0.1511105352072557,0.03441252732039053,-0.182483629536438,-0.11676608587153875,0.037449829671102254,0.1320863553546833,-0.2184445351593991,0.029440955478273342,-0.0326504897161944,-0.08269156357141247,-0.07018927760252652,-0.02371748833750115,0.03466677322022612,0.01439680258247932,0.15600497727476578,-0.09528578135586091,0.11032523366241269,0.04411941987072623,-0.22146945816833322,-0.15736757419554528,0.02647292964529254,-0.14685419536625235,-0.02767749879775907,-0.007298146383430917,0.09060222303948613,0.03354134174747055,-0.014918166797145836,-0.08226028380612563,0.08526997906113722,0.11820680231713836,0.10993740797173723,-0.016487794411432354,0.03781997195848684,-0.2202682227972499,0.041142921684589905,-0.02719017915894516,0.09658504435118932,-0.08935335571717969,-0.10243352570496968,0.02113409916777829,-0.16511191291666047,0.1247566331205066,-0.08251358035722438,0.11574433657750126,0.05794001353044185,0.2280056715002141,-0.1164669035734837,0.002448320090294605,0.08859756662551067,-0.0812247201494492,-0.21010858987047207,-0.0984272866019124,0.09927336037414741,0.04257360556491561,-0.17748983057738096,-0.020459917456540987,0.16932323959243997,-0.1293689644870944,-0.03979861040442994,-0.2953621337281282,-0.03938217823939839,-0.050235442022707966,0.06886751383816357,-0.04889779453500653,0.1648195237637908,-0.1700487262452788,0.172078661749692,-0.14395527663174115,0.034360834903555224,-0.18800239918691047,0.0995590993656514,0.08415776445475527,0.1669081886883333,-0.011456234595481628,0.050950097118001504,-0.1711456054651555,0.1775317311415841,-0.09584661469026569,0.2004271678534976,0.09193684696219839,0.0717619936234938,-0.01301174928628151,-0.0841241166732948,0.057716412414876996,-0.023955234252205075,-0.19517515102338853,0.018395034640296907,-0.01627378764643042,0.06407753559246582,0.030587480060331806,-0.07311273980239118,0.03824067398250261,-0.026901015540646923,0.04546965185828973,-0.2026289097072301,0.07364050961418828,-0.006185385835972075,-0.05654577744312681,-0.11080497658400096,-0.14692106005927863,0.14221698303066582,-0.04540110769046781,0.12346803441204462,-0.16622179680675206,0.023146549163870343,0.004029639953807545,-0.2243188560052202,-0.038026880239024397,0.22539213365973249,-0.06492343922468104,-0.06928529955294958,-0.1616787255603469,0.11154419730197272,0.0610398738356918,0.08040562592053066,-0.1083740368674913,-0.02790342579334636,0.08559568685605166,0.0387914271482572,-0.2971714502622014,0.11941734379835389,0.0017905603730967426,0.06467490978084287,0.003017724366732952,-0.12361729908268027,0.0977407357814006,0.06416911134625018,0.09207638383112475,-0.04195828784486516,0.11376173266058637,-0.07146830215989755,0.042552274388799154,0.00020998442840358276,-0.06997674411266211,0.11874487891833936,-0.056400770173985114,-0.01998722646436826,-0.14965840881412534,0.040468790886866494,0.0060179152506459,0.009592463978554394,0.046218553618236104,-0.0024634654549287147,0.09828531375808118,-0.041568249072406215,0.130334140733416,0.00916889003486581,0.10583314099052228,0.1539836384024978,-0.18086883339625026,0.05160266530826322,-0.021852865056025315,0.05960462138773913,0.053800477127708586,-0.12493538352440733,0.12204910932374215,-0.03136107781179081,0.19424645413019698,-0.021468663669283915,0.03143445638254038,0.013775409210770997,0.0356552195799083,0.03833870213626839,-0.02391472061198959,-0.0961138841477494,-0.0873867483937043,0.07434267168831958,0.021966184572665824,-0.07219163373914679,0.0535252118639475,0.15039764872198372,0.18514512467393435,-0.03585757137392433,-0.19546179774290118,0.16537190216764602,-0.1778993848958977,-0.19297047399837278,-0.3941266547885258,0.12003301449169027,-0.032728864616472675,-0.09603967485240673,-0.24734624759764035,-0.10372828261939608,-0.06161816154169267,-0.09226031297754225,0.05906576968517173,-0.2948212404113301,-0.08964974295707584,0.03097937774836074,-0.06538265033385696,0.06795570708188607,-0.0002682534806460201,-0.01757628282539443,-0.032550032902424385,-0.09260648029250539,-0.12918236454258014,-0.04267726310680067,-0.13122068043480145,0.10999038139168392,0.023001732069092916,-0.1188990278171231,-0.10181619012230073,0.001558000719054614,-0.011517584592329854,0.05579289646785875,0.10221284854479765,-0.06766006843333894,-0.008589231943942729,0.07127258512616165,-0.05008121617516847,-0.08578735557670497,-0.17311959771068233,0.07444748229217872,-0.020210111313283378,-0.01824740888095217,0.012838420524626817,-0.06074216986589537,0.05535036397739456,-0.10501501936998084,0.09343066254945298,0.22009770737703555,0.030587537670610787,-0.008830360399237167,0.03150908806796886,-0.09402699183098234,-0.11856495024737762,-0.020163864586695352,0.06452302972170598,0.026273077068544832,0.04398411251040961,-0.04237307296650275,-0.02800604183304055,-0.1020935801615859,-0.032650340517344466,-0.004893572566238356,-0.08690059357093996,0.02442039333510055,-0.015559978486020134,0.025991129202286647,0.04638517718088159,-0.22235919956258646,-0.05803506298062283,0.061769724323420226,-0.0033125934922031727,0.028371144653732184,-0.09033906949022853,-0.050241697306148234,-0.021815137922990956,0.06730528729969022,0.010556099083521765,0.07316094221117397,-0.17462781782007974,0.05783831557658058,0.02254767764206658,0.0489431085225991,-0.0019915482917406938,-0.13946330250509414,-0.08621559245561462,0.01952459555188386,0.08703619806099888,-0.012126501807604356,-0.12377329857788509,-0.044158646498156186,0.0865584654165816,-0.04907493234871932,-0.11007949888263863,0.09287526529181075,0.06755601295657498,-0.0226813985866403,0.13884369509973576,-0.09086666938784968,-0.1021755945498735,0.023882622753157376,0.04219153846724193,0.13988710387207323,-0.03710631764540855,-0.04529062861929842,-0.006193481278939264,0.046296771632815086,-0.10170235568557892,-0.0739388133248447,-0.02811144390180784,0.12946402496577383,-0.006847336733773829,-0.18228227359559265,-0.1614284558173235,0.037265459664063735,-0.1260522986708871,-0.17823930760671255,-0.05503098872878416,-0.019277394922585855,-0.10597921686884283,-0.1991804599441861,-0.013397715583936317,-0.10505155722420145,0.03423592766206541,-0.034788151388129865,0.07435937318970141,0.12867055631015364,0.01189252933830665,-0.027343928178911348,-0.15378477218505285,0.06999134171154747,0.0013775873732355035,-0.08442427426412127,-0.01523477248966294,-0.027221962378131053,0.013180118814757662,-0.0001422290529971386,0.06992682848669306,-0.02308180436870382,0.0549472447924556,0.02410068973925641,-0.004198107224627806,0.05141235337856082,-0.08290582508978533,-0.06238189949954358,0.0770935742131684,-0.08183979395175564,-0.18994675000014147,0.006455698019965643,-0.08466192080501889,-0.06478474625007453,-0.014165928373401193,0.0879979328492491,-0.15510183866032567,-0.11095088211162439,0.1593081281385118,0.04559367787248642,-0.05269157342658412,-0.10965078491333123,-0.02568499032481485,-0.053172584922567025,-0.009151966353902662,0.010138689091986152,-0.00602674386035313,0.06078857396328137,0.0706477792786056,0.14036590177262664,-0.03512368975027086,0.1128493010040161,-0.0678283793458927,-0.0355782384953896,0.09101554477133254,0.10639236366820792,0.11072193493303928,-0.01169351121258497,0.09904703767188326,-0.10089107507362377,0.06653454062596123,0.11259884256145916,0.030256448475182465,0.04419723676233466,-0.07902298201632506,0.009386538566898344,-0.0047291405780419595,-0.03740842832973953,0.1409834377393244,0.210253344465971,0.07314343886227252,-0.016366497814678242,-0.010066121287596558,0.13043079549059164,-0.033224712808607025,-0.055368756471978225,0.031078005232805114,-0.03797161729583499,-0.11303445022590773,0.044036178681600334,-0.10489487485535452,0.030612730180149515,0.005903447418916986,-0.04043893040709585,0.022010066665569712,-0.11491037911023282,0.004323112491843431,-0.03389298008615457,0.0359961624441777,-0.005443928453162286,-0.00170949949148548,-0.20177624194723778,-0.15218861291250665,-0.0050680377368946,-0.1583721869295812,0.01972334951714367,-0.0699990064781732,-0.06584690376564845,-0.10379800700287944,-0.1961583262528618,-0.08107078196825397,0.08853239908926681,-0.11918077121547321,-0.03899563546807916,0.0735695413194636,-0.001370765157599961,-0.06082609714980311,-0.03632136659404059,0.0096601361982897,0.02100996970452077,0.06728303990840404,-0.14266777171365594,0.08203259836819678,0.21422764391240234,-0.04063274827719692,-0.1232179116458587,-0.002712549281705799,-0.03359543713835056,0.18030565016092892,-0.06722463870317316,-0.1521391119094315,-0.022911240107611402,-0.03586318789356557,-0.23399108633394433,-0.03789481477563179,-0.11939181264365113,-0.0447301204070156,-0.1947255309787699,-0.016839833674950764,-0.03233823176408065,-0.05578130358299314,-0.026186638914831632,-0.05019327052687229,-0.19286886540400597,0.00066872951497248,-0.19961382065767908,-0.05918129212402237,-0.1047357042020775,0.0978957961224704,-0.017942328799216225,-0.053554915248719616,0.06776866697763372,0.0584745100406629,0.043928520677501914,-0.04544165703096243,-0.12901587645560517,-0.1064570740683293,-0.150440579110316,0.06094883917804784,0.1407800469240867,-0.12184926589481039,0.3079293904272813,0.0035367248810100173,0.17734446298474787,0.07357461996517546,0.08960381923529584,0.0006491305021946272,0.11207074087247992,0.006269534159902122,-0.032739881951186586,0.04434230651011117,-0.04595171825974247,0.023433754521284537,0.039172170867892674,0.1676113730832366,-0.04330514188217379,0.0429275329011841,-0.031809258647577186,-0.0735490155890968,-0.06636525714010624,-0.017986926393939246,-0.14768750200423014,-0.09089562489133463,0.09463467984753389,-0.24694076597223732,-0.06997060975518966,0.04868835110224549,-0.08343488389073833,0.0967024000304438,0.0729695281404745,-0.22493874797214045,-0.06785327356437754,-0.022060355844184348,-0.1348663199616796,-0.09436806707057159,-0.018478830155493262,-0.002895314567952177,0.1064206005741101,-0.22656879683874995,0.32849519922172776,-0.28946135166537224,-0.082847072878448,0.09338470545951083,0.05049018755999549,0.1031595854716422,0.18509464866244849,0.05715731963653609,0.013018949729675013,-0.06230132722655357,-0.04119739620456524,-0.19683725788740392,0.020808486293948388,0.039844342091249825,0.00018282835596754917,-0.011606801598708706,0.1746791065585093,-0.08966142465418456,-0.20090032469901428,0.018270270944464824,0.05592734485083203,0.011734879324058764,-0.16693921994499936,0.025824180513831615,-0.012391848224910459,-0.019646465239526643,0.02837587306672203,-0.046392181465321806,0.05444223411405706,-0.20352058541435258,0.036625709981379775,0.03203728920971644,-0.040470337444990685,-0.05920399661159534,-0.0436460247851524,0.13298490384531778,-0.33758116185783044,-0.21982918740446633,0.0675274479353923,-0.06236645236153807,0.1503227433005242,0.09537147281843096,-0.0655866035061015,0.140756950430979,-0.03790700792481874,0.011238454197145897,0.05841225753775434,0.03721401228822519,0.03727527951937224,-0.23554198926001307,0.12937538554903433,0.23671743855172467,0.11598366528303274,-0.09004850822177173,-0.01914260367038539,0.005572828150714843,0.034583001849741925,0.008641185063836728,0.11644452918177267,0.02962634978672399,-0.0524762502823522,0.0018877221977487396,0.010961493685106802,-0.059597042950262295,-0.1458260674199816,0.005074219794715834,0.05284400982253054,-0.06757586958356089,0.041820719435528814,-0.18689773632058276,-0.31321563898986166,-0.13279095862880858,0.024342958524101326,-0.12211935563905538,-0.15009767565177023,-0.11976273457519496,0.12349355589724861,0.09306699827098724,-0.09349191099077313,0.23528705188623644,0.08810222733581786,-0.17778268508629652,-0.004209470896520245,-0.07140237665774053,0.06687334536370293,0.09715433806157697,0.15830445387158446,-0.27502022107906476,-0.0339608167946795,-0.09664917779312532,0.2699895061335675,-0.12553470083387364,0.031281224750484685,-0.03806448941202984,0.03526825362112747,-0.1877834073306522,0.12999388860119662,-0.14621260751815826,-0.0909423858547097,-0.18021681326232386,-0.04347361269458184,-0.03901217071424999,-0.05530176427015568,-0.12776100349642325,0.09140248671836723,-0.02819068725921061,0.11856664852232386,-0.06330724533716661,0.005259734509012791,0.17446769601700352,-0.1760507542547868,0.06926252826945362,-0.1700936212399143,-0.07170992151362085,0.025913952284046186,-0.1743941709284944,0.08827635834293145,0.09272538577282308,0.02894935924480585,0.14916768758720028,0.07061809579186987,-0.07750082450472877,0.20782381973579567,-0.026957541443528365,-0.08679891213613468,0.17625708923618202,0.039842537921966625,-0.0166829448357557,0.07290664460168857,0.021401557072857184,0.06518477618511273,0.05910542694148507,0.03078807767438679,0.18857920216700508,-0.05726706844319804,-0.027254721202564124,-0.10359942710836036,0.03521141919001119,-0.20859051453943706,-0.13612267927757493,0.0032395333495556103,-0.05957083750874899,0.002035815355987593,0.0868650082315898,-0.11660765376122242,0.11040817578533091,-0.09764372539777044,0.033389735536524724,-0.045640268017398435,-0.17346588076746136,-0.1680559835032039,0.09969135777237252,-0.23755006162902292,-0.10324374096086165,-0.20440640940949892,-0.10630694362963491,0.03962633834682895,-0.3272768023375259,-0.05708337719438533,-0.011720619003084453,-0.08792467951373954,-0.033317426010096816,-0.17829259205014714,0.10680242051508053,0.1314374705159465,0.09492174311384262,0.2461691977474728,-0.03680039301360136,-0.06787078975546966,-0.05939873262030172,0.04290730981972306,0.08586822380329016,0.08583353589603,-0.04770595163319005,-0.05358664861328942,-0.05362202769114301,-0.18919941555357067,0.11617607777539125,0.08351073669649266,0.03166271589926543,-0.011760522286012896,-0.15818629717752714,-0.030570755216548437,-0.0009155211810058151,0.08675207511930635,-0.18168136008983188,0.0588347012931162,0.22818481728877849,-0.0488351223495031,0.07821954585513531,0.04425762097038725,-0.0341782617899115,0.031671740386072095,0.07540400555080302,0.2611867096894683,-0.03833508205155331,-0.2039475341895502,-0.06348043914755182,-0.01237867968864159,-0.10563565217817512,0.18791197733809972,-0.06700987469039685,-0.09085664770401093,-0.008276080685484457,0.15462738783586547,-0.02172953883921947,0.010155205910533545,0.1281473960227806,0.16737141356174123,-0.1363505906897877,0.0260657887348523,-0.05215818632089766,0.013351400115525883,-0.23480594035580524,-0.17326878255180167,-0.06794855280294161,0.07234858991375401,-0.08243756042911159,0.2086213446245968,0.03241220974492895,0.03977092083739123,0.06690720771709845,-0.060767390019293724,-0.18029191858030116,-0.012347858861935049,0.09021256831314443,0.01947854965860802,0.07995832664947376,-0.1281794232505904,-0.0860454252903544,-0.04077899781904872,-0.14240327575893288,-0.1271978949496387,-0.2041054030359442,-0.03736910549960805,-0.06465595775644062,-0.04415611397577934,0.0950923314503915,-0.227627110586244,-0.1889190199751444,0.15962536743902586,0.2174093810194108,0.10388790951374675,0.0011460070404248923,-0.136140178119789,-0.02618084778253181,0.09795585188151223,-0.3843684630147696,-0.14376969957081334,-0.008368592867657601,-0.0270898487077138,0.22972030010696134,0.10112702911813758,0.191958406889399,0.08805294493951045,0.025164374832646993,0.04387998392074902,0.023999595390055126,-0.08108007791468513,0.06254995759688627,-0.03093434380735924,0.135235669594438,0.018720900847453422,0.05266941600549524,0.07605829922190918,-0.050132309731988754,0.07519897895446144,0.2184876856033229,-0.024279011936776125,-0.08916417140476784,0.014450114767883366,-0.017387005214747592,0.23435687649451198,-0.0765564214040055,-0.13584953739321348,-0.28767103273425076,-0.0008583945629163721,-0.14972827225291124,0.023436368921867297,0.06177363091788973,0.0560166453840686,0.10155587856677295,-0.07337605056903172,0.05307206252936143,0.0841304776176625,-0.03130914758579778,-0.0923363676934026,-0.011457246869121317,0.11509539725185604,0.0026276843604634056,-0.0004649471378731686,0.17521421058485895,-0.2335910837595178,0.11723811498575071,-0.12143336599569134,0.26380103003922895,0.1918817633995905,-0.012782906796981996,-0.004908799744474014,0.01661763744591232,-0.10916544558038156,-0.056640078772886904,0.08644362052334638,-0.13077141428921724,-0.008822517309260801,0.055504327813247725,-0.02369905451395538,-0.20229519877912874,-0.12521460896905487,0.009505664795932076,-0.02429555401591918,-0.002921398442282081,0.15960194685899112,-0.16677075768367805,-0.1701436182030911,0.008368881461356868,-0.14025642168093877,0.026078854967061887,0.04355804942412982,-0.14807994265972757,-0.06731986460463908,-0.06454981541133566,0.10012313915496289,0.13436111647001286,0.18386703080538278,-0.11608905711146779,-0.07873706848973046,0.21937019327756876,0.12987637533250743,-0.1728232900735887,-0.1566053198934799,-0.20630966620988378,0.03374641084417301,0.34283990531670855,-0.0559076990371547,-0.4619269872574865,0.27810441063868185,0.10428255514539367,-0.08550845264044198,-0.06201438091257801,0.17135587815252015,0.14699099972899854,0.12778365672443637,-0.1915129819988733,-0.04908968794849667,-0.08862738157858187,-0.06399585890528037,-0.19087330231426844,0.2679033587235824,0.11299154744515352,-0.10624335012724082,-0.08113006222940036,-0.026734595948987427,0.12501410624772658,-0.12913999240433147,-0.042074988494819776,-0.033534219102196054,0.11526911178121009,0.00979817229400648,-0.2007776188933138,0.07332775299879375,0.17920512874688155,-0.027652365888500875,0.1633149113892614,0.05051073801134028,-0.006869367302626766,-0.05966241602709894,0.04276697141101102,-0.052339827820578964,0.001160190253872205,0.1758904498087352,-0.07154558298860196,-0.07731007065463606,-0.3141777798464701,0.1264017161880672,-0.014887086073555614,-0.04642999000350632,0.1053665798924599,0.037085953084011705,0.0704045368496628,-0.2302174579229565,-0.01104986064310695,-0.006143139662590719,-0.060855511078323175,-0.01919052850010098,0.0069376300788790805,-0.023314580334969224,-0.14208692677107979,0.29738795320895145,-0.09289480969436228,-0.14634751627502898,0.1748126046285167,-0.16054267873436795,0.08871077728484793,0.1365243566037968,-0.11921338290597261,0.013017142895406175,-0.11426190125457114,-0.18700057336443382,0.03318978729143538,-0.13635623979790848,-0.11625312740612277,-0.14796486164722614,-0.0716658795241496,0.0363791568753711,0.01989689402857803,0.07100322587042901,-0.13218556766033684,0.1555465561422251,-0.331269250586417,0.05334997298129744,-0.0805235687327352,0.16069888471292118,0.08421995802604072,-0.06987217195504117,-0.08321399288130331,-0.17228196614984673,-0.044360133486743454,0.0063529166906794166,0.2386626359199593,0.019017939360154622,0.04824298054573107,0.13310059330065174,-0.07661566909401958,0.014023812486191644,-0.0958446515950816,0.009907040642019851,-0.07266843958777858,-0.05412794919391233,-0.022994927095192724,0.014669446718725531,-0.26426009447310467,0.18184636243998048,0.16722333698818223,0.03974795259516444,-0.0982939222331203,-0.0010074209484592762,-0.1565915326148992,-0.25508497889647863,0.11099659680950227,-0.1342240951198303,0.12336132049164128,-0.14429878388205944,-0.013261493174854675,0.0274298971681409,-0.2619777227710474,-0.06851929623636888,-0.2552638632959408,0.16569142102898424,0.0010997751548654994,0.049745549092123614,-0.0055227693832205094,0.03873933214243958,0.07509406258189001,0.15928602274497308,-0.04180204907330462,0.057894909895415785,0.060347179581852275,0.04523892939801823,0.14645772124441533,0.30939453112597703,0.11732623457196178,0.06607904918754601,-0.10739400316004444,-0.10041164042086377,-0.08478028203882733,0.12259264714550656,-0.4320408649556935,-0.038485547514256396,-0.12584805730477133,0.12533608027161078,0.07247208180658944,0.0054064442069413025,-0.20387122429759924,0.13340911065446928,-0.22671575071228578,-0.08471003981917363,-0.21643750071593376,0.013080535080253992,-0.1435955136878923,-0.1916694642757887,0.06902078301494252,0.007282832368679348,-0.01633132598575942,0.18661900554736455,-0.07262300831806004,-0.09024533035054004,-0.40498668043247654,-0.17032282950635388,-0.00034491373926848136,-0.045163018813614626,0.16772971783377438,-0.15076619009121897,-0.14000968499329827,0.12656622927340136,0.025157348880540838,0.0803511415810165,0.016431072028620597,-0.0027570560029080765,-0.04226822071855062,-0.13913309408295058,-0.00953333625452875,0.130619033299853,0.11881513901470805,-0.22512111824029218,0.07425726754632431,-0.03239981114306658,0.19190975760586887,-0.15070505066098283,0.19205204127857875,0.07736844938581405,-0.23356556902843906,0.04104940241116166,-0.026287976573603614,0.15232563780341873,-0.20812041045219107,-0.08624521828034902,-0.21756576186320606,0.0922922577196771,-0.013190240626879639,-0.12485092544055575,-0.01124267325592718,0.023424843748363976,0.1763481567593856,-0.08404195340945111,-0.2605800394535422,-0.07082051707457256,-0.018089856730975525,-0.030207255755022172,0.10518311253850086,-0.15036778215414068,0.15477199398627603,0.05454884940085931,0.11432678816328108,0.14865136133112422,0.07033102982959406,-0.025265292900198362,-0.2591360770596784,0.051967202159700986,-0.32531245127453523,-0.006429975280972265,-0.13797198212361064,-0.15793564882535852,-0.11178362576504447,-0.008608854357881047,-0.12741841759275088,0.13030343053316432,0.04501895764319773,0.0030424122071562236,0.23386672642498163,-0.05255777891246014,-0.149773135704011,0.3604717293929542,-0.1063294228330269,-0.02242267509174361,-0.15773326271024185,-0.02890292592755312,0.04396165100757786,-0.042785319831593366,0.1406619211443952,0.08575644703852368,0.07821435800163701,0.08933727243407948,0.005535573127320999,-0.1963246197519991,0.0866631651551438,0.04688748032177305,0.06616009521673813,-0.15754302660108735,-0.07437470920068545,-0.1865936136703558,-0.0632473523639835,-0.03833353160961879,-0.08481293386598476,0.1625918847400362,0.10516152595088525,-0.09390149103568399,0.07276086254298761,-0.07531825855544465,0.1263215277291923,0.14416920560462412,-0.23797826366506467,-0.2933938332341677,-0.13934912242245262,-0.2458040725637228,-0.17517847094903854,0.027733034936059345,-0.18416654412327346,-0.14369726222779391,0.3826413349447733,-0.03391914052594904,0.07214976518482301,0.12653037261371217,-0.06805955366071625,0.022809854614641224,-0.024228156873304946,-0.03545108701497289,-0.014812343836700525,0.14058252691659914,-0.2213627385860424,0.17742488928146566,0.1571180533667705,-0.0007229007334781605,-0.1181743376363382,0.11059574446605426,0.08634430724583285,-0.09936098093714246,0.007528794233721627,0.11284075660005065,0.018974577929148244,0.08295236558402574,-0.06015308484898672,-0.16990339241088823,0.07297811297129164,-0.1936611328599471,0.0198593402198269,-0.2193630222697096,-0.20044733761787634,-0.01332849456594617,-0.12674606757956317,-0.10794700804097677,0.06868745075164061,-0.013020702037747786,0.08665457367374452,0.20529903151213744,-0.03899901160917721,-0.14449150000425437,-0.31921128393619214,0.02906386328236315,0.09919055313304294,0.3551105644972004,-0.0006308167416439906,0.1806830677383825,0.4006873850063864,0.02582602721848678,-0.11674319493838066,-0.12637815606309993,0.008736127063476163,0.06228953901763337,-0.044242637108337216,0.08942861296258445,0.132740757040365,-0.25555939265409305,-0.21825865833161562,0.12812689402107444,-0.15948698077844958,0.09285739988801923,0.025503002038926855,0.18081882373759958,-0.21442044676668617,-0.006794376723406066,-0.17326491819361764,0.011296086936124008,0.05791492624696808,-0.09285400977086418,-0.021449547994514758,0.02895029758907333,0.024757391393541103,0.02201192468550112,0.09438049846992883,0.07430947988777546,0.00044736181854142666,0.06569061771699433,0.12192508835389378,0.12426315381707338,-0.004358870803536157,-0.015693401119360847,0.061089180492813484,-0.23687187228794016,0.05919611680755286,0.028247416918320677,-0.1864524488874591,0.008665072145368647,-0.21187177878857336,0.0441380346798472,-0.1346827555938717,-0.19089263910778842,0.09013005685912412,0.10446936152893396,-0.02352729585563868,-0.029563613012774947,0.2941093424163825,0.08824238822152727,0.04481471404764913,-0.07528021575179868,-0.03619156269894357,0.23380828164949247,-0.29068953889134186,-0.09161600743872977,-0.04421208226464046,0.3878256435555726,-0.0001633711850051191,0.0433162632383219,0.18453566911031194,0.07303274006827253,-0.02581793235806491,-0.01608368967937044,-0.04096956503327107,-0.199963448388208,-0.02358818023709291,-0.092183883141911,-0.05156827806370439,0.10704685936858437,0.14222560875024678,0.04623325228675741,0.0893934878877749,0.008458354515914828,-0.11866367664863715,-0.13496216509152495,-0.06669918286376461,-0.13640927320729135,-0.03647838322357273,0.14364613170226873,-0.08437600549514392,0.037571145717557444,-0.052107951824843894,0.1190776781184349,0.16645712539347904,0.08087441349287225,0.24824593704009798,-0.08290555922586912,-0.12122491456832622,0.157597053980139,-0.12030209482206998,-0.1052877303920201,0.03497258033178876,0.23671087068874333,-0.0751226134839368,0.021667909610619745,-0.10004056836254381,0.19098554838767826,0.18272962541005616,0.24194292499847359,-0.17683023219258595,-0.061568281535923884,-0.16179051617349832,-0.19425656860990867,0.11675851975413426,-0.0007563420810598387,0.12747846091553985,-0.05069279456747318,-0.1600727981222255,-0.026466637602622578,0.010305721728983065,0.0012859224515597268,0.02074984605290348,0.13725109911269526,-0.08942351517243013,0.0657794270559118,0.12387893506039105,0.07835938541236068,0.052518762675361035,-0.15214417337752112,0.17056412766209902,0.06127944999324774,-0.028592726872229777,-0.10061700895389078,0.01046625847993413,0.062122145147650215,-0.08492622613667619,-0.018186014341235106,-0.11213351988887453,-0.12751588462248678,0.04587879874864443,-0.13136693861773932,0.12744197757155862,0.05911354498614641,0.10730614292940746,0.1720447595252197,-0.054192338668823295,-0.04504711329333841,-0.06606917204049333,-0.05184942585988401,-0.21256987345579353,-0.167110482203308,-0.06418343078549248,-0.09236377309064422,0.05171466636288245,-0.029855779661532845,-0.000179066605381692,0.037209854402781524,-0.00005702131031337284,-0.0014760685048454956,0.06882128127072433,-0.1448713924113178,0.03408443116595843,-0.2555416817366288,0.32860116870753925,-0.05865295821726114,0.0869316318709012,-0.17983147348595954,0.12284403543053726,-0.03745519281440045,-0.17311979498870034,-0.29975273627855037,-0.03886810110571221,-0.06336415330474408,-0.05991856148259288,0.10861177641244885,0.06366751267846019,-0.013144419586665158,0.20073863342813833,0.0003341974494881693,0.05415443956554526,-0.06803397269446772,0.06416611209070938,-0.18237889568351345,0.1612917780543255,0.32433378669365165,0.03200001920720936,0.015750538477122468,-0.013407038163710026,-0.003582568561857287,0.014625910516341604,0.04148578216823397,-0.0020047536904962966,0.08498547756647658,0.05247622043695132,0.044252818597698744,-0.21853696981178486,0.028205008492528598,0.18873427953628724,-0.0894967678590132,0.00531108130892999,-0.0351251946494784,-0.029505138394003733,0.1979274819809696,-0.0304175829780569,-0.1609505688057927,0.05861588025197957,0.048202674041237646,0.026577823420440603,0.02534056833089408,-0.19189023859971643,-0.039851781344934174,0.05645299198777814,0.10364459895404239,-0.20200702316672173,-0.012602216274313523,0.21566577242984514,-0.049567411078862346,0.25093182012296095,0.011744832921209269,-0.07258829756383421,0.2495540811510074,0.22741761983962855,-0.0001363879791592862,0.0276438736185225,-0.22502074414873144,0.1371247080819021,0.1057342459981473,-0.10609013338139194,-0.05251896552018116,-0.018037784239250364,-0.05433838432754408,0.08785740273998949,0.20787283639154464,0.26221149055970755,-0.28440240424303276,0.0579712582313033,0.02774329342497574,0.17971920743403316,-0.07527071899578354,0.1417414368824196,-0.11832245210192488,-0.1513837918712666,0.15239233526859536,-0.1687540704053271,-0.0015281381422722882,-0.23092969469798616,-0.07441115058040348,-0.10314116078646489,0.15765042922012237,-0.11428854009982954,-0.15920416154315215,-0.13567739483503857,-0.18860353456778292,-0.24211391615344655,-0.20949127439021764,-0.29782677342430564,0.22002668351232088,-0.05873235761956155,0.15467398313129246,0.023022053044046267,0.15396902292725148,0.13045200180041172,-0.13007714156159444,0.3599724232113732,-0.13102633002073144,0.058550771702210395,-0.16066019289184702,0.24078720943560117,-0.11678665838062736,-0.2428060747536932,-0.028827173124932364,-0.1493261277632709,0.13562141305220746,0.03599145020187462,-0.13828149486077118,0.052695284605146546,0.1463297481704777,0.12636105397377387,-0.2365744229018256,-0.01759130856210934,-0.08508311980430061,-0.11254324316202237,0.014306527327038885,-0.04122751029472667,-0.3017449010728495,0.019207895057147026,0.06671378443833144,-0.030290566625945498,0.0636202773950916,-0.23611849249637243,0.019273984618540844,-0.03679696677277121,-0.011363048319613591,-0.050836778887349575,-0.009013991498741162,0.06195534174067332,-0.1118676239603124,-0.16558274452786179,0.07186607782852307,-0.15672845082232284,-0.14127639749126006,-0.2732865423572023,-0.049529295076863177,0.2962909718130519,-0.03304092540135022,-0.2001273407265594,0.062382965835227434,0.0704767399883313,0.03812306804487152,0.08229817550406712,-0.035979827334885174,0.1450326550378995,-0.05797257636267622,0.15393667232816913,0.04185771566688773,0.17895382484316769,-0.1318338720408918,0.07382849011385613,0.2694943657339554,-0.29664032041096866,0.1162184962948772,-0.21752169232859944,0.12153980004273679,0.12522574588836394,-0.22194401698628585,-0.16454899707538015,-0.19137235102782088,-0.11400512324004315,0.06641569905292198,0.14613940926701477,-0.03150569352444601,-0.012642425427461426,0.03063002619252531,-0.17414070631602155,-0.02941835583591036,-0.1380487502389569,0.0407751571279326,-0.08540085049439541,-0.02229493691461097,0.10000960835360834,0.01406802283045246,-0.010155869670081245,-0.05341207828620226,0.16132794529788866,-0.10081822772762247,-0.05815083979781039,0.08297238912419702,0.03414001467793313,-0.07793410422879811,-0.08899982770078875,-0.01398482673994593,0.11716538619777739,0.1508240813818197,-0.17290079958438212,0.027470155481546257,-0.18125886002660951,0.19840077427285785,-0.08059591251692085,-0.0000664799772618772,0.258710547487495,-0.04993922862542188,-0.08988856614590314,0.24304256992918943,-0.1640160635833267,0.07158056370188612,-0.27342228152267684,-0.06245694666007289,-0.2348569608534332,-0.11392571954178178,0.09344033772116138,0.13539058030458434,-0.18903474368737552,0.3889015136038963,-0.06737862201429544,0.033380810362550806,0.1735439925084264,0.06169653399048737,0.11266800391456683,-0.15063874393969978,-0.11918879355434463,-0.04009914291173727,-0.13432908139756325,0.0824234836020673,0.05407094537657764,-0.0779538267230558,0.06384593434905195,-0.15394045318142097,0.038278453509865196,-0.13187582403697493,0.1725066508635006,0.36045055733352854,-0.35579874975325215,-0.009632124280361823,-0.0739092459682924,0.006919976119785427,0.1451891724677406,-0.17849372500169802,0.14284341491817187,-0.0950896096525039,0.15078018272006552,0.20909206413795897,-0.24807638365144932,0.1968167363653334,0.19214695070795204,0.06596014063810493,0.03323429248620366,0.07660286798439483,0.017370689993696155,-0.0755524617027468,-0.25340978595352354,-0.10552352763705672,0.2525926490650791,0.034907446905193165,0.05878419000100299,-0.04123741455843395,-0.026322260511952206,0.3021536952171806,-0.26316631242324506,-0.1800721265909968,-0.11593659529358039,0.09062504959695496,0.015070401920661442,0.16323646417127657,0.04783389108688404,0.07459890782930681,0.1598726414851108,-0.023797846507634727,-0.13160792157675374,0.02589945940600876,-0.07182551400123464,0.03232105005982927,-0.019592263034107826,-0.26993447479591526,-0.0973828237636678,-0.04957222729646037,-0.01665783992864888,-0.16349453074412043,0.16383182420362138,-0.09318735336230766,0.08708008978111627,-0.04066738152759397,-0.17736437405978195,-0.12665187009014806,-0.06124527576484244,0.02372703800796982,-0.20829744980538098,-0.17981908140737424,-0.001297293680440754,0.1447077188729562,0.1769079931541622,-0.1378621316051489,-0.15415653901315549,-0.16251667505689915,-0.08310241542486953,0.04189410196767985,-0.15218216940607415,-0.06255809764030242,0.05427860089674597,0.058948144303059224,-0.06325558713350599,0.2917838364201345,-0.03586238090884904,0.1657795840887054,0.22569031738876458,0.20433286507487436,-0.005239372837884294,-0.052338783872157485,-0.13126670746047903,0.442536417080007,-0.28134935455841964,0.13487604154722307,-0.0003536855436447181,0.0254741163020918,-0.15364306489395346,-0.09140531546891306,0.3234975896726005,0.18258355469403384,0.25539429362068755,0.04991794720164359,-0.17720352348052862,-0.030363296310669603,-0.268636266637811,-0.013080607100994011,0.11974693796037501,-0.18130554220841283,-0.07836509209263501,0.03344181993078361,0.09232958422800594,0.016166853632248984,0.019782414144992766,0.020042201751344097,-0.02472644207723442,0.30412476593305854,0.0424316649761959,-0.015130764474090674,0.06997884814480539,-0.09562182527913085,0.0032888004997748102,-0.09958933698795068,0.05909664715108252,-0.19174450905772636,0.17842067506262227,-0.11177246515133657,-0.3065150711391344,-0.08762678793224261,0.04623239958347756,0.045103767572463864,0.08715454740737091,-0.007859087124922835,-0.01798881922327477,-0.11398591527648663,0.00815246053033556,-0.13353083543788286,0.006708761817842043,0.09506281302292353,0.14628354811233846,0.1715381822793556,0.09072317761246407,-0.07496944060534144,0.2120112495975598,-0.01571556800681291,-0.22709706551976247,0.13712318604081278,0.14303380704766394,0.09701455934176641,0.23511175574570087,0.0491967919299518,0.04710534986066286,0.18304062034683916,0.04210158565824301,-0.0014511057370622583,0.15963171681626193,0.134293018935141,0.11971925357762321,0.020399965966994126,-0.16000957641909727,-0.08402964540074603,0.09324378697550924,-0.031023473404766248,0.05469213776222744,0.07965392838359656,-0.007639717380214331,0.07763604536483855,0.16647923698115427,0.08297512763033069,-0.07984771012799965,-0.16976108050146924,-0.08309813101120091,-0.09062887704559129,-0.36020206004629524,-0.11061125646126535,0.03516385262521296,-0.06933248184346237,0.05343672741798763,-0.2653007955426904,0.0496653882689938,0.09082797496697757,0.05201801383523871,0.17881405310135517,0.10588465394036893,0.10159578223737084,-0.11566852009771023,0.09606151519103381,-0.14308143606099194,-0.16546325032664125,-0.17376724794145398,0.16125368354368955,-0.22644973378520164,0.016509787684425088,0.019871634761017137,0.03303641664100369,-0.3131266527341883,-0.034365176604081414,-0.07298567115620033,0.15145695278006918,-0.033179609095992324,-0.1316110017756174,0.07424246243742147,0.009714800497534311,-0.03396554991675344,-0.2635680504789218,-0.14067972679661087,0.15850871912354075,0.26610202571593766,-0.29643159779744205,-0.010639253947740982,-0.0038195190208436393,-0.10221780674581527,-0.019236292331852874,-0.19751984124956212,-0.1380648846402079,-0.13089085158841898,-0.20384849957151246,-0.0067262513044615965,0.007590957711663443,-0.06960769924905094,0.0482558297120978,-0.03218381813489107,0.079140255802225,0.23094945755967375,0.08306206453246222,-0.1934392936922397,-0.10336188218047414,-0.08231784701613658,0.13716835886898382,0.21898320863410148,-0.15160348857312228,0.031377392289302516,-0.3577357168810486,-0.04670011438367964,0.06660438544322486,0.1747697565603511,-0.252120826354753,-0.06473109777017075,-0.1760745319806184,0.2847692270369813,-0.12002158872508031,-0.10996189038728116,-0.1598460361627902,-0.47834625419792615,-0.20782346900523954,-0.20030087186095127,-0.056871850930669314,-0.23565520883636717,-0.002151139938534878,-0.10615691144842389,-0.13226727432181273,-0.021884649015977264,0.143295752964557,0.08536302950272509,0.033806008135181434,-0.13025893911368877,0.012247626695690045,-0.07957385785515605,0.1341769438979839,0.20562371513386882,0.027311337658016785,0.05201919800003997,0.003902589119914596,-0.0004688763756965232,0.049860967184286516,0.07251852679801017,0.006721396687876173,-0.018077501216553646,-0.01169412868368635,-0.010509248620462033,0.23739335523434052,0.1477384752127788,-0.13057599856023408,0.3073676212757185,-0.02143694772078587,-0.11644935941836743,-0.08715647381432258,0.041319235294040024,-0.17141825693622056,-0.07268860795234955,0.14103511519507753,0.18493473423403256,-0.07053226961023733,-0.15306324184008266,0.037996236548452536,-0.0029373077879676916,0.0115858150609364,-0.33311909956127894,0.0014440927945426525,-0.07310233358124513,-0.0031668201812593572,-0.037277703781307486,-0.10979745663921628,-0.1541476838686093,-0.04139359812763144,0.04545912471211003,-0.13555678303468893,-0.020032301594133235,0.01704603255764735,0.0365017694123665,-0.016313638930008256,0.02359371429905535,-0.18891745010668146,0.10827185969646443,-0.012737412856043804,-0.08136073647065978,-0.1850467593403603,-0.07946301021657634,0.012960418711310071,0.09885542194614666,-0.10226277164980645,-0.1230462278190585,0.2545844995487306,0.08167598818274921,0.012515820449479558,0.09730189157238289,-0.04550360602092171,0.02210077930768685,0.10212806904403303,0.0794568243058819,0.034239700561736364,0.18331282833682716,-0.06382211484027327,0.0034104569874835056,-0.18300975741068426,0.08938438850535571,-0.045896986920004414,0.07264183529618234,0.056471094954832254,0.012861792024404193,-0.2287222290114474,0.2715104730312794,-0.09518836592985525,0.08706970687920823,-0.015685818704757274,0.10463567070718742,-0.14156860914134511,-0.28890648135753966,0.22093760658018433,0.0348087217690161,0.07676039322214905,-0.024809447835343043,0.2422998395600521,-0.003195919380079873,0.06975221437874814,-0.06718130747325374,-0.11407419619724193,0.1552270864491699,0.05555611495683019,0.008608295167794034,0.13657401411064204,-0.17263152456772862,-0.03381100181440474,-0.25282358743189753,-0.041539709303897575,0.1144064240979872,-0.19871700115556662,0.3222522521815112,-0.026122081011645076,-0.20567680892407428,-0.14134165375842744,-0.11171235151914825,0.14247085402345402,-0.038640229821624246,0.07996272902221209,-0.08112157568882085,0.027062773860368237,-0.17449711949531743,0.04909918225505773,0.056364016224771586,0.1620683316843702,-0.01430061803899799,0.14861766426466383,-0.12514023216839465,0.15451591252817776,0.09217683926564893,-0.12933212069377623,-0.1049602644564828,0.06836375517528652,0.07136733739932435,0.032040299506261506,0.013197524083058096,-0.14343278179465097,-0.18938447878860432,-0.36786275519465705,0.2086363787505244,-0.2159374408241242,0.04114019726173834,-0.05424886874453267,0.13130092719300332,-0.31667482236210276,-0.2698665550871501,0.29977765838346065,-0.11401355976567726,0.11433469644147252,-0.10547918790295845,-0.058610677240503624,-0.17426170914342673,0.32033331312934943,0.2885617753169235,0.06113653677153968,-0.028875406491592464,-0.22781794983203943,-0.07344136767291869,-0.11143339233477664,0.3633007620020972,0.06752118501213282,-0.2957573848523532,0.11309292098564355,-0.0010630386204017613,-0.12366375449019379,-0.024629537111297523,0.07717388252176563,-0.09504956952225711,0.18359303812077407,0.11732160112924293,-0.07591419224409104,-0.03648753360506306,-0.18310019569357672,-0.204355636225127,-0.0945668157898632,-0.017354696172555143,-0.11613209827193459,-0.26499485905631,0.06287209275249847,-0.09958281802676623,0.058685663559540586,-0.05802153803016287,0.05902070861689627,-0.07048118004633204,0.02972709894356536,0.0560545097933459,0.055839197422419565,-0.014882227918638817,-0.018938337618499373,0.0484570763471994,-0.17683785470018487,0.14413797126069897,0.16834422581003924,0.05970073602072412,0.08922105198379161,-0.18948723639901155,-0.12106246652622342,-0.11297786029739276,-0.09485647948086832,0.12845686727183805,0.287682837787459,-0.06445438324042223,0.07587971465173914,-0.09519838509612905,0.013694828991498742,-0.09221815229671136,0.0945853962077813,-0.10968094715882572,0.04032594795645583,0.028112401675639137,0.10132345245989932,-0.040912520203581285,-0.0638061171525641,0.07038194617369603,0.07617402984507816,-0.07605105088874906,-0.09748921821322094,0.02789087313723478,0.15334995138557939,-0.11376920776184495,-0.02322617000376507,-0.21979910990342597,0.047036572655078365,-0.21257706534690227,-0.03917394106277213,0.06224573764637668,-0.06377819688115076,-0.005943918054318902,-0.13689785897781553,-0.04158587200003665,0.23058626849414204,0.002620286491725066,0.13068046016492313,0.20876371708504038,-0.1702585765618326,-0.01133038982137657,0.10044515887152616,0.032944554133344545,-0.07275427975604193,0.043021944675019325,0.05783719598218232,0.13673766929774228,-0.18093115441559698,0.017749426895744908,-0.09137041165307946,-0.024045523343863385,0.2036756746172595,0.011128528460710723,-0.21274994706489816,0.1795771301230844,0.07564685460786043,-0.3897989545195244,-0.665678072624707,0.3851457423065149,-0.10467974235295488,-0.23652679883250394,0.011882137468652697,-0.44084379943935764,-0.7730556553158625,-0.13466944077898493,-0.4072186504761006,0.11640989624860976,-0.26297577292353636,0.1511830046494805,-0.029082740765045415,-0.13209161201920522,0.02603004309480623,-0.5593312226324128,-0.0319442972605665,-0.36515872909609626,0.11353392607455383,0.7328467554275713,-0.01423541903372306,0.4758070535945383,0.06219949718763839,-0.16566946701070154,-0.010477356923681402,0.05703068907758833,-0.038365647362671784,0.0719155122551085,-0.31776866233322953,-0.38304184808362896,0.06536207157914628,-0.1723702972666246,-0.10522422932464057,0.3456422515227098,-0.04676510632466787,-0.08333346652704879,-0.1569152435551914,0.6148213899607733,-0.15263688602989614,0.026381626194510156,-0.8818493254532417,0.0034597790524972796,0.008132044578052878,-0.2429649243188841,-0.14230316491640796,-0.08696482425256906,-0.10523014800408713,0.1307702781349584,-0.08183185123184891,0.05233847126100939,-0.21384915845213365,-0.09880400014363479,0.026599674206257497,0.015876901417396925,0.6304101064892964,0.04777612667452474,0.244761595120654,0.011666035527488641,-0.10907242946102068,-0.1632558416768271,-0.3397267757377359,0.07888914732004246,0.11178631317791721,-0.006517210788929956,-0.6811186402123738,0.26115344882848956,0.8125238053213018,-0.15280914955628694,0.01577787674872123,-0.5775089649277311,-0.2786694836493293,0.14105245473116457,-0.3209598670086336,-0.8055471216983198,0.03549909781649227,-0.7239485278773758,-0.08121313381563242,0.21718297146057203,0.26034369282832787,-0.6742800501112527,-0.05699364039799217,0.08981561282260804,-0.6543839660702124,-0.46687356064522373,0.0034367017609238425,0.794307115392036,-0.292321195300162,0.09281960083108703,0.04238453040005548,0.23540751022441175,0.16147216858231825,0.22378547023613607,-0.06298279371349927,0.16379640801772982,-0.5533463311943961,0.09941180510288035,-0.36260272135282673,-0.07394959369946974,0.04392961387599474,0.10478454078419605,0.18183298546303267,-0.6315895615399842,0.40075230967305164,-0.030581764576403665,0.018621700757133052,-0.15370327195209751,0.019520668187935682,0.019005272884511114,0.4175374836170602,-0.303990785923108,0.13341266786661482,-0.46306488122161754,0.41215633972409127,-0.07451776104432307,0.16606030377075676,-0.1696139675158601,0.005212413747913244,-0.12166151897452532,-0.21314857419892566,0.457829653426671,0.6713518512827132,0.6968218192206398,-0.056014453429373154,-0.01696284479383228,-0.4635861391219771,0.5457288863457952,0.49411098008186305,0.6475289641973238,0.0062757136962627805,-0.31247638889572626,-0.12879929449330244,-0.15871279240503308,0.32446309746243696,0.11277290150732079,0.012089208077115013,0.28825688214412065,0.33262234311213024,-0.11227373652132164,0.2282444353140558,0.10033183294646536,-0.13834659015871736,-0.34630718489519213,-0.08117749538322187,0.09311706408263955,0.047105028202132464,0.7755364825009964,0.4539093740818793,0.04168082678529867,-0.39182624365937746,-0.5977560397595637,0.11971114408321039,-0.7479362454787811,0.18197831671079287,0.5832430444998585,0.2719669950397164,-0.08702102427072808,-0.8684883462196655,0.2825887682222103,0.7411238622375268,-0.6745871602388814,-0.3685681880976777,0.24832840189926522,-0.7163495168708829,-0.4524023394637559,-0.01992939564257652,-0.4153204098129964,-0.06584740801917481,0.04978148212735471,-0.6506002437476589,-0.21078025776274403,-0.2660375986482441,-0.6467608800444523,-0.0349897982731331,0.06679168765090693,-0.017034821565939655,-0.05990146699126816,-0.4333811196788085,0.9214174897593792,-1.0823213144515493,-0.026412740354195177,-0.33836783402952963,-0.3797447031713994,0.3394973507285839,-0.2712173576008152,0.563828489183044,0.009549690211800774,0.05016518936553142,-0.03731258029903224,-0.06465126373927847,-0.3554649244142236,0.3544058971131088,-0.27402901364465176,0.12512743066808432,0.00021926388210561108,0.04481432955063268,-0.1330843071070014,0.020281874825305052,-0.23106996135398278,0.5697867976480553,-0.18517494058040693,-0.1277067414106739,-0.11272157534170246,-0.11468481547770154,0.10658444735204252,0.21152626918751133,-0.06396983375833291,-0.5746679856104642,-0.35904620220936123,0.03779404024605864,0.9552881989522166,0.016749264255809727,-0.04116695089407982,-0.11735121039116092,-0.44334465655233424,0.06688070095794872,0.1622275097095422,0.16106239121534277,-0.42456563203269515,-0.5015286578885662,-0.2841409271906591,-0.10268923603509356,0.09668365875777647,0.06360864824473063,-0.20654850688303747,0.01970609988281864,-0.0637282909506668,-0.7808016721773228,-0.5207499089555983,0.038707848430758605,-0.19528643859971304,0.2165362743163218,-0.6398333292466237,0.028461451696220667,-0.7504593794403671,0.3420288508452414,0.06240353547383572,-0.022805024242674922,0.1258761854101831,-0.2310570888700179,-0.062055641722967896,0.4760999223714225,-0.061595654736223915,0.06394420010082717,-0.16812342567044758,-0.009105421659232508,0.35775101551508,0.14848436141719995,0.018748569443918447,0.3660266583745258,-0.18953204872601245,0.1513355046933534,-0.11588841282350906,-0.11024130388278082,-0.12441212424763555,0.10059438614000592,0.031501194435314316,-0.060574762418744585,0.06298095864840733,0.020975690607071072,0.03233050226544723,-0.10396616293442677,0.03811557664129448,0.003095065230360822,-0.22258693989726994,-0.017241943546107728,-0.14035204060684453,-0.0337123357808015,-0.07680297782122639,0.031201029669580663,0.10386601977598385,-0.06434060685162955,0.02018792510308926,-0.032506054096723344,-0.07295107833174372,-0.051666898059495474,0.07702448466997922,0.04906286991597478,0.07839152808406429,0.09059430054618327,-0.01894286346230414,0.019318130050587388,-0.05692336882658839,0.15289032407387027,-0.08384670588035745,-0.07158129425403384,-0.1473046709879905,-0.05023063781470806,-0.13472471310650105,0.0004532996100383289,0.12506319749505346,0.06062067321298087,-0.0506521277223079,0.04484683654203949,0.2008561171660295,-0.1763683822104528,0.15599839229809176,0.1137252964140341,-0.09437953188691839,-0.05216167465764726,0.14793256242510744,0.09519885356637484,-0.10654553084238505,-0.093768540147685,-0.07478725967129453,-0.05296810116736718,0.19142960520906713,-0.0781179926838655,-0.10327847336057987,-0.08016762347315162,-0.04163915732773942,0.17789480299886912,-0.04252094218393998,-0.03767786780728332,0.03343346197207949,0.019224373710337802,-0.11235775101468919,-0.050906292869678973,0.10388178882121875,-0.030572515707265345,-0.03035938122618053,-0.06321558794085132,-0.12264176654687955,0.009104689430075552,-0.16743117724921086,-0.03825193387997231,-0.042648621527590864,-0.10332529540628403,0.00949659497408817,-0.16258015809559093,0.02315689199943033,0.14263744788245988,0.08084252106586294,0.037053416877262976,0.14842214451110916,0.13641985687374938,0.04285109117770979,-0.059783875419255755,-0.004938263549989371,-0.1378104545027331,-0.02448938394242646,-0.06839970520096872,-0.06535621886529128,0.12894857703878254,-0.11328582543834127,-0.09233713234704886,-0.1288500296078023,0.08542393557609408,0.06461339016650021,-0.18360314849797957,-0.031341971150542304,0.07951260916027376,0.14577988932340522,-0.08562055888825927,-0.025604520095912048,-0.08846900956021786,0.20141538732230088,-0.301448210377617,-0.1439734216280259,0.05925538367186073,-0.09563488164426387,0.02394595424934107,-0.015968266733776493,0.01087046049184471,0.22403766632181446,-0.05972696329607733,0.09883090321112155,0.13815800631767255,-0.2115870959495448,0.010736215486838256,-0.038505604777706266,0.18870103897208382,0.027571063406569778,0.029756049639070192,-0.0546602867514531,0.041302508640152655,0.17056058699772872,0.07138080716757991,-0.13347192877259811,-0.002886732251105336,0.04057551872013455,0.0010032801546284676,0.07029268096176072,-0.0678348745525185,0.0780333349856543,0.2115083909770325,-0.10941480972408059,0.10415374056109945,0.04699781592115761,-0.1313633618636374,-0.1778120088796411,-0.02092146535523271,0.05402340282219107,-0.01548528456451104,0.01912026908814793,-0.12359406541657887,-0.07410024690881363,0.19047098563219697,-0.030898133623854154,-0.2784290602237565,0.17124061315306527,0.01608323339297257,0.05886406010369046,-0.11251281099479235,-0.1952340575035775,0.09662861021301729,-0.17403766122703998,-0.0063916697265156116,0.039126783593739126,-0.2374663082357099,-0.018175627278018833,-0.05885224544441529,0.17473311139728281,-0.07826211233203985,0.03823410077365571,-0.013223291551780909,-0.07187874747620288,0.09320837183288723,-0.04729843409142426,-0.040375266501317925,-0.14366517884213387,-0.043640814636903606,-0.05488549292067272,0.09802630945525131,-0.21027259385766245,-0.19784892840140395,-0.21013941578337045,0.32064340209579645,-0.19823202165589163,-0.18425515959230043,0.1010635280974271,-0.1917113001510016,-0.021131047896156142,0.10844550574164365,-0.043808576922471094,-0.0749117936922625,0.06272836293028068,0.2546379392951525,-0.16971976060062705,-0.02865879156232619,-0.3220943164585862,-0.0750081446743024,0.05333722563062178,0.08347586688246934,-0.1948166014069941,0.0035716300927800164,0.05538744955236598,0.14296646148701084,-0.006491365012681516,-0.03102989919215846,-0.06943389704514583,0.01412995055750687,-0.1599347577923891,0.003682948779765912,0.22622351555511355,-0.020612500276822633,0.08886016171528148,0.1512277829492496,-0.020510206260756777,-0.1479035010984812,0.028086519330943978,0.038045301950436816,0.24764137278279708,-0.0577947632221575,0.24149210473814314,-0.05780787735128263,-0.0712628917016617,-0.04799816070566677,0.04213556425108665,-0.06726154218488876,0.10955119539641073,-0.2269865793307293,0.00230335593831083,-0.019042445908643395,0.12615692635039874,-0.22530961573046743,0.015075922522061894,-0.03981318979317012,-0.032235560855843684,-0.13637823181035982,0.029848790629972116,0.11575579934914795,0.10349999384977882,0.026184636792298713,0.1398039464302275,-0.10430080369040588,-0.22952862857832096,0.11843041583615721,0.021808379029061534,0.2444020828240108,0.057145187834008696,-0.03004962221359454,-0.03729142375891346,-0.005119466489446562,-0.17588525697985097,-0.10177091823034833,0.0587333937013982,-0.06955323423430243,-0.13781638390713302,-0.05772055590968762,0.014778907883523889,-0.03220525592861872,0.09203438036931547,0.01973089816133611,0.048622989501446265,-0.23718630087229092,0.09898563810367732,-0.0411595404288918,-0.009853424365307754,-0.18013720749423281,-0.05357895526377141,0.09477764015981209,0.008193037782304725,-0.05839991188355871,-0.1527806095260868,-0.004816289742886629,0.10923791067674968,0.0024712741596864436,0.12950144583021847,0.06973099932854523,-0.04847951443523441,-0.04292304712851152,-0.018715297988448044,-0.20830311045638417,0.07364834899951762,-0.09293790744045327,0.005949284309764113,0.00581465455476716,0.014629171864247227,0.02630886280559936,-0.0021276844263586193,-0.14697946705314863,-0.1255002878417197,0.03562453749443248,-0.056062597850845344,0.01564521793019001,0.05134756144799072,0.002715574369733083,-0.03716419754485443,-0.09619319132014525,0.150585677702712,0.08144136513225496,-0.08721494800226487,0.09167322022213747,0.002474386406979021,0.09880622858438559,0.13809674217181675,0.1617799923346957,-0.07892216713825581,0.04816619272246913,-0.057638337840653635,-0.11674563307995157,0.12372728762353136,0.18053983928629636,-0.07733295313201623,0.05456003855859667,-0.106282001910898,0.05741254899216318,0.07531124238631964,-0.1448681202645897,0.11350412031409117,0.009238707035696896,0.09930437704855825,0.11259521367239647,-0.16580652890614556,0.05860074322083122,0.005044508266761121,0.17872054316965943,-0.021106804849974046,-0.000744484791246256,0.05151470651173197,-0.058820727534197835,-0.2128025850226083,0.10856403875796862,0.03272010129880977,-0.003050509072265944,0.06435230257093245,0.019865839681138576,0.0062160009170956305,0.055445384738047394,-0.1437782747035648,-0.21047992648368255,0.005332757899100654,-0.1983575100751795,0.09008713974927522,-0.16887945484510553,-0.15394110018941234,0.08959676672527472,0.05153167343056743,-0.023157282999897465,-0.20669870690616957,0.24092395020302956,-0.05228936396346538,-0.005064284791253314,0.14144147427289924,-0.016567358640613945,-0.07605093800472602,0.09470677743597489,0.03331489166589826,-0.2791076142163124,0.03676365127466607,-0.17267732057032398,-0.040865979904420195,0.018748845181728573,-0.010542278100227898,-0.1268567889849036,0.07690857449631609,-0.009454578721179533,-0.008422174691433075,-0.29567116705857627,-0.05491674498657717,-0.25427474386730925,-0.05751681027793283,-0.09439242129382867,-0.026930437625736162,-0.14783465229450096,-0.08177211380185742,-0.13414673155911178,0.20566093250899498,-0.03515088120428336,0.10122808007430606,0.03323696352856255,0.2359980381124654,-0.07759933991682226,-0.080766598470386,0.12539725722525855,-0.03657085398415337,-0.009038551406200081,-0.06422908831757976,-0.02661978940121127,-0.1917914170488924,0.21683199466107497,-0.17469008894965657,0.019304353448071358,-0.12130260527988514,0.21703426951620494,0.07996045743755582,-0.05450175567829121,0.052833797437230996,0.20893153086639657,0.06492770315878635,-0.19358700232469728,0.18085243415212643,-0.07869330542324358,0.2077822923840014,0.03180332877339769,-0.08754655552051067,-0.18454796791132017,-0.14401232229905359,-0.26549388744745567,0.15679006778465623,-0.09646087029983158,0.15874266715505722,0.044822251548529056,0.20394927343601268,-0.12086747782993612,-0.07592068279099941,-0.19623656955734697,0.09040659818207335,-0.13943434935662768,-0.03919614069443672,-0.24156204295874179,0.05735281869800104,-0.3436338344807555,-0.03655510573578687,0.0014077168443686196,-0.09820727193393744,0.08581587424049127,-0.14186380515705688,-0.02179048305957334,0.08197733907505181,0.03299190646239406,-0.047580812505137134,0.03381586696906801,0.058530646927022145,0.06995238500992552,0.006711903602609875,0.05885437637038239,0.04056744940933266,-0.08908076533748137,-0.10950685306430578,-0.03431846537283965,-0.03418457183372118,0.022401997753697146,0.07567855681038832,-0.20899351131196026,0.05435613097448468,-0.09353036059931398,0.043081492024676364,-0.1457200981643857,-0.037348102110124015,0.20992479451715967,-0.056839352351719837,-0.20046358378678883,0.04471429411162133,0.035847247161055265,0.13247448207252893,-0.044422800426040444,-0.038862314185210904,-0.014837360040638667,0.221326301503641,0.022716263876058653,-0.22337285658435105,0.006558875204432695,0.23929289221357164,0.005846686102452653,0.04885788298082134,0.10881886244523713,0.03707649505628143,0.0667056647471472,-0.15323786739080802,0.0002541702996333365,0.047146812166247665,0.08956359152092214,-0.17858628637782376,-0.0476588083651278,0.06323732752325945,0.010830305677200513,0.022988859136439558,-0.17821278718642727,0.07020778113250209,-0.0796693188261677,0.04120508990037071,-0.17015622706139483,-0.07371434828803386,0.2110359063993327,-0.1070435337204737,-0.02347075436994678,-0.07037474031793065,-0.0966664386440922,-0.06625875979069457,-0.040723778343625394,-0.07263951218260445,-0.24276336899424092,0.17541475671168294,-0.05508894137960705,0.036541022143491364,0.023122201591676463,-0.031997761222508005,0.11861246621990698,-0.3121526491751829,0.07069637243622778,-0.17359010012345852,0.026635030767717473,-0.03767137267258037,-0.13677487600789345,-0.07678536879681686,-0.16955384826629452,-0.014453172936192032,-0.03557163701708832,0.10514040764459728,0.0957684517968694,-0.15382585324048204,-0.00528049195378941,0.11745675842456214,-0.02542561991165389,-0.04993155290277763,-0.12763239951038652,0.17309724496117662,-0.1503681616305884,0.14134162911289355,-0.08595644506341776,0.19697089408858426,-0.16202191472137062,-0.06442365382099294,